svm_type c_svc
kernel_type linear
nr_class 13
total_sv 127
rho -0.0380789 0.0503677 -0.116484 0.0907843 -0.121599 -0.146647 0.17789 0.0534165 0.0435025 -0.206321 -0.254137 -0.195656 0.0436855 -0.132526 0.0548783 -0.169436 -0.209463 0.0961707 0.0270303 0.047389 -0.236108 -0.265506 -0.277892 -0.214468 0.0314454 -0.272267 -0.323844 0.0289056 -0.00767484 -0.0584343 -0.398771 -0.264889 -0.177322 0.278463 -0.063404 -0.181706 0.385859 0.257263 0.273165 -0.272058 -0.211268 0.0371185 -0.314529 -0.459483 -0.0241042 0.030886 -0.203005 -0.38535 -0.503365 -0.295106 0.0636631 0.268338 0.175447 0.254357 -0.0897755 -0.0691328 0.0439991 0.388752 0.196899 0.453129 -0.160351 -0.167517 -0.0222958 -0.251223 -0.103889 -0.427965 -0.338402 -0.300993 0.145596 -0.369634 -0.292461 -0.227642 -0.326991 -0.323708 -0.163039 -0.00645214 0.156021 0.1748
label 0 1 2 3 4 5 6 7 8 9 10 11 12
probA -2.69534 -2.83547 -2.5548 -2.60267 -2.44558 -2.56047 -2.50667 -2.53105 -2.75544 -2.43947 -2.4223 -2.57171 -2.59484 -2.5815 -2.62729 -2.62502 -2.55729 -2.61849 -2.70739 -2.58909 -2.47119 -2.47587 -2.57772 -2.50833 -2.64292 -2.54028 -2.65636 -2.31824 -2.75859 -2.69536 -2.39472 -2.51181 -2.51233 -2.66458 -2.43277 -2.747 -2.52694 -2.52761 -2.65108 -2.43303 -2.4741 -2.51588 -2.61836 -2.75261 -2.73717 -2.80044 -2.97344 -2.35753 -2.53998 -2.59761 -2.50766 -2.47506 -2.47275 -2.59005 -2.37714 -2.3989 -2.38091 -2.60445 -2.43575 -2.7867 -2.42159 -2.40706 -2.50106 -2.36879 -2.70391 -2.46428 -2.4049 -2.52706 -2.61528 -2.45248 -2.49282 -2.56344 -2.37986 -2.49389 -2.53445 -2.34843 -2.40947 -2.43699
probB 0.06926 -0.0537379 -0.0430817 0.0192148 -0.0749753 -0.0695047 0.163683 0.12031 -0.138189 -0.0732992 -0.0649326 0.0282495 0.048404 -0.122575 0.0821227 -0.103498 -0.148238 0.0771662 -0.0137647 -0.0506865 -0.0951504 -0.088798 -0.0779892 -0.0194382 0.238006 -0.0858081 -0.0731997 0.239131 0.0741845 -0.053451 -0.0862468 -0.169627 -0.113863 0.268851 0.020329 0.00482074 0.197052 0.2243 0.1795 -0.04885 -0.0844461 -0.058052 -0.103443 -0.232841 -0.120361 0.024653 -0.108541 -0.116755 -0.109726 -0.0742838 -0.0430079 0.154068 0.0895197 0.0862587 -0.0377456 -0.056141 0.0164782 0.0859266 0.103755 0.203047 -0.0676252 -0.0277988 0.0582859 0.11675 0.000952029 -0.160073 -0.252514 -0.198935 -0.0374026 -0.0547174 -0.124519 -0.0808164 -0.115452 -0.100172 -0.039284 -0.0157513 0.0534685 0.0442026
nr_sv 10 10 9 10 10 10 10 10 10 10 8 10 10
SV
1 1 1 0.9929266800325433 0.5974880292865571 0.7144966722673417 1 0.8589288921916228 0.7005657880669277 0.4996134864620917 0.2517093049056273 1 0:0.004842239 1:0.12436613 2:-0.0011349566 3:0.02106279 4:0.011336986 5:0.097021826 6:-0.050776992 7:0.03260132 8:-0.014163206 9:-0.08439753 10:-0.022056462 11:0.0014991973 12:0.029476652 13:-0.028617524 14:-0.047865357 15:-0.02588009 16:0.06638211 17:0.040119875 18:0.08938392 19:-0.1195878 20:-0.022475366 21:-0.054587528 22:0.027989876 23:-0.01115507 24:0.07892068 25:-0.023237625 26:0.04622637 27:0.026879864 28:0.005800223 29:0.098395035 30:0.04847042 31:-0.051754277 32:0.008657368 33:-0.049122818 34:0.0071769785 35:-0.004958988 36:-0.0065658432 37:-0.033148184 38:-0.015702767 39:0.032190513 40:-0.037566982 41:0.06000963 42:0.031717457 43:0.041687503 44:0.04734157 45:-0.032872807 46:-0.07021971 47:0.06678081 48:-0.048123114 49:-0.073673464 50:-0.06197578 51:0.03160058 52:0.03818992 53:-0.033676263 54:-0.03807034 55:0.05767343 56:0.05134151 57:0.029897247 58:-0.019755421 59:-0.013675357 60:0.063537605 61:0.034799755 62:0.021377888 63:-0.035504848 64:-0.027003007 65:0.030422024 66:-0.017236974 67:0.017814247 68:-0.04366672 69:0.008702156 70:0.039019283 71:0.021660862 72:-0.04627823 73:-0.021728275 74:0.039559457 75:-0.056026336 76:-0.050167114 77:0.05604816 78:0.02937169 79:0.015109549 80:-0.040105063 81:-0.04106145 82:-0.04620777 83:0.015314475 84:0.01078036 85:-0.033981442 86:-0.050933696 87:0.08540441 88:0.012403368 89:-0.0005463921 90:0.018228171 91:-0.07621145 92:0.0014699787 93:-0.08230817 94:0.08810537 95:-0.042337697 96:0.001714944 97:0.011646571 98:0.0046122083 99:0.0890219 100:0.036566056 101:-0.024940874 102:-0.07631466 103:0.01998825 104:0.011994543 105:0.09307725 106:-0.0067342366 107:0.053277235 108:0.07704644 109:0.010011877 110:0.06916422 111:0.034770012 112:-0.011443058 113:-0.034959707 114:0.026587233 115:0.035741523 116:-0.01045922 117:0.017432127 118:0.028630912 119:0.01180389 120:-0.03158337 121:0.01096049 122:0.021955375 123:0.01860001 124:0.0010247828 125:0.0040175305 126:0.02598396 127:0.03860546 128:-0.019409219 129:0.036780857 130:-0.041721337 131:0.008931572 132:0.09212368 133:-0.05635323 134:0.006043582 135:0.06828855 136:0.044027176 137:-0.015070257 138:0.011755441 139:-0.020552175 140:-0.036966268 141:-0.091741785 142:-0.06742802 143:-0.05334186 144:0.0064745457 145:-0.07744092 146:0.049236126 147:-0.012223103 148:0.021453876 149:-0.041545626 150:0.0071412153 151:-0.018674826 152:0.016692402 153:0.017254734 154:0.077090934 155:0.044901688 156:0.052798845 157:-0.022858428 158:0.10252583 159:0.017997533 160:0.051246952 161:0.0624409 162:0.006223989 163:0.030993206 164:0.028038856 165:0.027968364 166:0.0380094 167:0.061412506 168:-0.08075384 169:0.05253079 170:-0.018849762 171:0.02619618 172:0.029106768 173:-0.020452028 174:0.0027633512 175:-0.015937755 176:0.03984188 177:-0.049515318 178:-0.03211457 179:-0.025144342 180:-0.01755316 181:-0.009274562 182:-0.031039514 183:0.03873794 184:0.049283292 185:0.033144 186:-0.027509488 187:0.06592369 188:0.04396772 189:0.0445958 190:-0.066764325 191:-0.043379303 192:0.030838095 193:-0.07821479 194:0.012530544 195:-0.054362442 196:0.036138017 197:-0.035227705 198:0.03530772 199:0.011160687 200:0.015034844 201:-0.074824095 202:0.012460241 203:-0.021649776 204:0.012158239 205:0.0015940435 206:-0.09668919 207:-0.073149115 208:-0.036740642 209:0.0033892775 210:-0.053048454 211:-0.01383749 212:0.04535279 213:-0.03020632 214:0.025880631 215:0.032945223 216:0.019636504 217:0.009676818 218:0.07174935 219:-0.07200075 220:-0.03962999 221:-0.07415322 222:-0.035465565 223:0.0021006085 224:-0.0182478 225:-0.01694459 226:0.026768085 227:-0.038677428 228:-0.057655096 229:-0.051256724 230:0.016423902 231:0.069518134 232:0.03676686 233:-0.004616591 234:0.07060522 235:0.0014496264 236:0.048517294 237:-0.03786009 238:0.025063803 239:-0.018151643 240:-0.044894483 241:-0.024171202 242:0.02949603 243:-0.062260464 244:0.07031296 245:0.0032426354 246:0.014157058 247:-0.018993117 248:-0.041114602 249:0.008447223 250:0.021083998 251:-0.022718789 252:0.029031996 253:0.03423388 254:0.01923345 255:0.016558666 256:0.075181894 257:0.050472487 258:0.071281314 259:0.041689347 260:-0.050205965 261:0.00848917 262:0.034158487 263:0.015008691 264:0.005203317 265:-0.016312623 266:-0.012384064 267:-0.0015164836 268:-0.04507741 269:0.043005235 270:-0.026803616 271:0.019536473 272:0.0010984091 273:-0.03660423 274:-0.05301986 275:-0.027679909 276:0.059054058 277:0.03392129 278:0.0028195304 279:-0.11886962 280:0.06611199 281:0.0010953738 282:0.07498868 283:0.022233346 284:0.00018798388 285:-0.03403142 286:0.039196573 287:-0.041070316 288:-0.032224797 289:-0.0461299 290:0.02695237 291:-0.09321268 292:-0.08185048 293:-0.0038818247 294:0.010382292 295:0.017460255 296:0.025228431 297:0.08287633 298:0.057877656 299:0.027693527 300:0.03372779 301:-0.011797386 302:-0.041294776 303:-0.052123833 304:-0.00477802 305:0.068344176 306:0.020386638 307:-0.0074045225 308:-0.0061382293 309:0.033348016 310:-0.060529113 311:-0.06027071 312:0.016259175 313:0.040080037 314:0.017230839 315:-0.011156349 316:-0.013843575 317:-0.06472214 318:-0.06844677 319:-0.017217115 320:0.045822576 321:-0.03668312 322:-0.09314148 323:0.008577671 324:-0.058467746 325:0.06326809 326:0.063999414 327:0.022390455 328:0.064605065 329:0.011126331 330:0.010694077 331:0.02986013 332:-0.036819838 333:0.043679252 334:-0.0067562037 335:0.0077050594 336:-0.018012969 337:0.041403875 338:0.045011237 339:0.02023016 340:-0.04572243 341:-0.021214793 342:0.054309197 343:0.09537683 344:-0.10159919 345:0.023304874 346:0.07808997 347:-0.04619673 348:0.025252169 349:-0.021609329 350:-0.05057083 351:0.08186376 352:0.038617205 353:-0.015769668 354:-0.010950332 355:-0.05216182 356:0.07970479 357:0.033756632 358:0.03419717 359:-0.077543005 360:-0.008507235 361:-0.027754547 362:-0.09341003 363:-0.072227925 364:-0.039160363 365:0.086942166 366:0.009557787 367:-0.069574155 368:-0.010002265 369:0.07831992 370:-0.055060424 371:-0.024720883 372:0.020899167 373:0.027425408 374:0.10914568 375:-0.008703194 376:0.042640593 377:-0.026030269 378:0.0251861 379:-0.002916147 380:0.023288373 381:-0.06193358 382:-0.06381386 383:0.0019045776 384:-0.04867746 385:0.014916684 386:0.020391285 387:-0.041336026 388:0.06020441 389:0.007640101 390:-0.011328777 391:0.05268257 392:-0.004921473 393:0.03690689 394:-0.015085476 395:0.042710297 396:0.03553532 397:0.04858712 398:0.0076190094 399:0.036012284 400:0.011616529 401:0.01883609 402:-0.018551294 403:-0.026556518 404:0.017473772 405:0.008648621 406:-0.055965714 407:0.036079235 408:0.057379216 409:-0.010855799 410:0.054366056 411:0.071591154 412:-0.06727379 413:0.010982643 414:0.018241916 415:-0.057711124 416:-0.0034180626 417:0.052749787 418:0.065882094 419:0.044204146 420:0.001397934 421:0.008505072 422:-0.007829068 423:-0.0019056705 424:0.01963971 425:0.013209468 426:0.0018317449 427:-0.011592933 428:0.013245167 429:0.08566533 430:-0.055421367 431:0.01772687 432:-0.05346966 433:0.0063164863 434:-0.03571719 435:-0.010622064 436:-0.022517303 437:-0.0052661705 438:4.3087082e-05 439:-0.01993569 440:0.089306146 441:0.01355683 442:0.01367967 443:-0.031634957 444:0.025247144 445:-0.0037160781 446:-0.10899461 447:0.01839395 448:0.009280101 449:-0.0324878 450:0.022154097 451:-0.01444739 452:-0.042141825 453:-0.06689678 454:-0.012504675 455:-0.038477022 456:-0.012635869 457:0.09017911 458:0.04728203 459:0.012808863 460:-0.01861965 461:0.033646606 462:-0.076190405 463:0.028296746 464:0.07679349 465:0.038696107 466:-0.027749378 467:0.01313373 468:0.028327547 469:0.039741207 470:-0.008147872 471:-0.053236894 472:-0.0024943952 473:-0.06899091 474:-0.053313497 475:-0.070386484 476:0.0038654888 477:-0.030415537 478:-0.0023905626 479:0.010905703 480:-0.012612519 481:-0.023400286 482:0.041580223 483:0.022507766 484:-0.050124962 485:0.08945298 486:-0.018837469 487:0.04361228 488:0.033532653 489:-0.013352105 490:0.048636537 491:0.06140678 492:-0.11103359 493:-0.016529739 494:0.018888261 495:0.03201961 496:-0.051767886 497:-0.012817802 498:0.0047691157 499:0.034353677 500:-0.054828975 501:-0.0008564282 502:0.044210505 503:0.019221824 504:-0.04987182 505:0.030384777 506:0.086085975 507:-0.007615846 508:-0.039748166 509:-0.051496122 510:-0.0057348213 511:-0.03398511 
0 0.5474213155113684 0.3696527415565511 0.6743423979652483 0.4930802421147614 0.5375627710136821 0.4270261302224904 0 0.1698631775433079 0.3870748573420383 0.1691501130286364 0 0:-0.0058166715 1:-0.0004769737 2:-0.035023537 3:0.038574107 4:0.014803115 5:0.05998674 6:-0.09317194 7:0.025619872 8:-0.081716724 9:-0.04614361 10:0.1045424 11:-0.019228134 12:0.048222475 13:-0.038550954 14:0.025671436 15:0.026857378 16:-0.035043456 17:0.059352264 18:-0.0035958942 19:-0.0019409051 20:0.025552638 21:0.0066387784 22:-0.08727637 23:-0.0038618292 24:-0.019145422 25:0.037679203 26:0.043287635 27:0.014687142 28:0.021788977 29:0.067862555 30:0.043549802 31:-0.051633094 32:0.03402494 33:0.045864932 34:-0.039464805 35:0.033322413 36:0.050925218 37:0.049867608 38:0.0626548 39:0.03546839 40:-0.06951439 41:0.0405687 42:0.027714884 43:-0.0099126315 44:0.014953013 45:-0.024467202 46:-0.008930569 47:-0.021915328 48:-0.0051916316 49:-0.0026298892 50:-0.047350418 51:0.05944152 52:0.009500923 53:0.0032836145 54:-0.010072442 55:0.034688678 56:0.021121444 57:-0.013756718 58:-0.028006796 59:-0.0077346335 60:0.12574026 61:0.044884007 62:-0.035465665 63:-0.074859865 64:0.008994216 65:0.039521225 66:0.018988604 67:-0.0050025275 68:0.0020295565 69:0.04557742 70:-0.005254225 71:-0.0057501364 72:-0.045721803 73:-0.025964385 74:0.030507645 75:0.021587934 76:-0.06778602 77:0.04509167 78:-0.021108948 79:-0.06462049 80:-0.018325338 81:0.041880816 82:0.05496013 83:0.027607799 84:0.024474273 85:-0.04807078 86:0.026516495 87:0.11906622 88:0.0006479861 89:0.007874653 90:-0.029784685 91:-0.067206934 92:-0.08326821 93:0.07068611 94:0.033672396 95:-0.042738754 96:0.05156205 97:-0.07052757 98:-0.01641028 99:0.010716016 100:-0.039463017 101:-0.024242869 102:0.039739292 103:-0.0353613 104:0.0039698225 105:-0.029723633 106:-0.039172754 107:-0.061430026 108:0.017867463 109:-0.013998611 110:-0.012303979 111:0.10050769 112:-0.07885726 113:-0.002881026 114:0.08411931 115:0.07572584 116:0.021729372 117:0.0283492 118:0.028326692 119:0.008767525 120:-0.039499003 121:-0.026767498 122:-0.0056536067 123:0.047892455 124:-0.023783779 125:0.024003986 126:-0.1035746 127:0.012774231 128:0.043436088 129:0.006507584 130:0.052818388 131:0.03947331 132:0.04699479 133:-0.039421517 134:0.030214619 135:-0.047924615 136:0.0464857 137:0.0047955727 138:-0.03688437 139:-0.01836626 140:0.013965608 141:-0.021288842 142:-0.03701688 143:-0.0098969815 144:0.0028655147 145:-0.049862877 146:0.001585382 147:-0.019452315 148:0.015762635 149:0.010453749 150:-0.008028469 151:-0.074278116 152:0.011648831 153:-0.012256568 154:0.05213346 155:-0.0021114016 156:0.070235275 157:0.026365198 158:0.07049452 159:-0.040076535 160:-0.03828548 161:-0.003412631 162:-0.040212546 163:0.002582013 164:0.053772733 165:0.017113242 166:-0.031153398 167:-0.005092721 168:0.06085814 169:0.041265797 170:0.035595883 171:0.05325097 172:-0.03642224 173:0.009108649 174:-0.0028269838 175:-0.032233223 176:0.045065258 177:-0.032909617 178:-0.020800902 179:0.011723557 180:0.0070339018 181:-0.053451065 182:0.009840583 183:0.0074992743 184:0.030775208 185:0.054997098 186:0.0024654367 187:0.05563444 188:-0.030488156 189:-0.033466164 190:-0.067727655 191:-0.029216897 192:0.03427603 193:0.01113747 194:-0.014816971 195:-0.034176532 196:0.020513158 197:0.04340973 198:0.02015182 199:0.10564659 200:-0.0024461453 201:-0.035477854 202:-0.006465899 203:-0.01995232 204:-0.048395652 205:0.05058858 206:-0.09790667 207:-0.028587675 208:-0.055843808 209:-0.029326687 210:-0.029031867 211:-0.07714498 212:0.033248216 213:0.036280084 214:-0.0011077912 215:-0.0023495993 216:-0.034306172 217:0.08424091 218:0.061083987 219:-0.092473365 220:-0.045893867 221:-0.07286264 222:-0.033361726 223:0.0008065866 224:0.05829456 225:-0.078404084 226:-0.0020783034 227:-0.019508168 228:0.00047043452 229:-0.023141578 230:-0.004447095 231:0.06527886 232:0.03428161 233:-0.056900654 234:0.09128327 235:-0.008001294 236:0.024221716 237:-0.006904961 238:0.020281445 239:-0.023596559 240:-0.013952187 241:0.044014644 242:0.054820117 243:0.024504328 244:0.0012386991 245:0.03725326 246:-0.008526324 247:0.040243108 248:-0.053307407 249:0.009907903 250:-0.030167492 251:-0.0060397857 252:-0.009609942 253:0.009406604 254:0.045759134 255:-0.02681157 256:0.04751331 257:0.02917341 258:0.11479172 259:-0.027736424 260:-0.03543587 261:-0.12366621 262:-0.031435147 263:0.0006967321 264:-0.049280215 265:-0.024295347 266:0.07895398 267:-0.027459495 268:-0.047577355 269:0.019813504 270:-0.0025520977 271:-0.0016229874 272:-0.021133762 273:-0.013713951 274:0.033403117 275:0.025674857 276:0.005779331 277:-0.018319648 278:-0.1054709 279:-0.058877982 280:-0.0069654393 281:-0.056697663 282:0.016875487 283:0.032090355 284:0.006964775 285:0.028968459 286:0.03603705 287:-0.088586815 288:0.0023918608 289:-0.033102475 290:0.027810657 291:-0.05349443 292:-0.062810645 293:0.04398947 294:-0.028633567 295:0.0074481303 296:0.025033224 297:0.04717303 298:0.059522353 299:0.043374393 300:0.06836237 301:-0.0020027594 302:0.028631413 303:0.012750034 304:-0.027335402 305:-0.022877388 306:-0.014879956 307:0.06657526 308:-0.060088895 309:-0.0015807126 310:0.05135048 311:-0.021423787 312:0.071308956 313:0.018125286 314:0.023988102 315:0.017808031 316:0.012783579 317:-0.06565632 318:-0.017110964 319:0.055285644 320:-0.024067005 321:-0.020176549 322:-0.09358744 323:0.0036336214 324:-0.0483074 325:0.052228753 326:0.07474128 327:0.037741307 328:0.091019884 329:0.0661345 330:0.03487039 331:-0.09233021 332:-0.064006485 333:0.00602779 334:0.014461443 335:-0.000388557 336:-0.03428427 337:-0.0680298 338:-0.0006645651 339:0.0725564 340:0.03243792 341:-0.019637913 342:0.036306534 343:0.04801198 344:-0.012345688 345:-0.006986347 346:-0.024918262 347:-0.038593307 348:0.032247342 349:-0.0049910573 350:-0.042318895 351:0.03840542 352:0.0074999724 353:0.046932194 354:0.05115615 355:-0.009461684 356:0.017333569 357:-0.04131969 358:-0.046496596 359:-0.018702842 360:-0.04463648 361:-0.031270657 362:-0.07008267 363:-0.06697613 364:-0.03713437 365:0.02568781 366:0.051350787 367:0.041914243 368:-0.039280325 369:0.003662732 370:0.010183541 371:-0.012653266 372:0.01847628 373:-0.06883125 374:0.018941188 375:-0.085069545 376:0.051240068 377:-0.0636652 378:0.013247416 379:-0.08715859 380:0.04090391 381:-0.078582086 382:-0.009741614 383:-0.036550507 384:-0.011516184 385:-0.03522741 386:0.000788185 387:-0.1114351 388:0.048691493 389:0.028621426 390:-0.02233306 391:0.06581473 392:-0.017235205 393:-0.08444257 394:-0.053268075 395:0.12240094 396:0.0213134 397:0.052659586 398:-0.008496627 399:0.043566708 400:0.005115487 401:0.066867754 402:0.07276055 403:-0.038364455 404:-0.0016026725 405:0.046188477 406:-0.00047745326 407:0.03799674 408:-0.0023904997 409:-0.022848349 410:0.07096795 411:-0.0052197473 412:0.05398162 413:0.016082102 414:-0.052036855 415:-0.005207289 416:-0.027656397 417:-0.011424379 418:0.042272 419:0.02135793 420:0.010009116 421:-0.010136861 422:-0.06384518 423:-0.037294373 424:-0.054244246 425:0.03301758 426:0.004132046 427:0.0035222338 428:0.013799895 429:0.09644043 430:0.0763607 431:0.007078698 432:-0.10630816 433:0.04113467 434:-0.022495538 435:0.032725614 436:0.02232915 437:0.01093498 438:-0.0054735057 439:0.04484699 440:0.051486954 441:0.06012716 442:-0.08264105 443:-0.040613536 444:0.024477664 445:-0.0071633197 446:-0.078081466 447:0.024867797 448:0.01976289 449:-0.0095561715 450:0.04352277 451:0.028187929 452:0.012302461 453:0.031247284 454:0.037955746 455:-0.036357027 456:-7.2476294e-05 457:0.04386922 458:-0.031638097 459:0.056782816 460:0.0057042507 461:-0.029588982 462:0.05762061 463:0.0064356653 464:0.04606834 465:-0.0022143626 466:0.01287204 467:0.008519744 468:-0.09085797 469:-0.00540843 470:-0.057701763 471:-0.028024053 472:-0.014667679 473:-0.064956665 474:-0.07214321 475:-0.07786989 476:-0.028036645 477:-0.08241802 478:-0.03143891 479:-0.05589011 480:0.02966468 481:-0.028245194 482:0.010702461 483:-0.036206786 484:0.00071754114 485:0.05476741 486:0.007213884 487:-0.036984425 488:-0.034241688 489:0.032155354 490:0.026048085 491:0.04729984 492:0.0038871246 493:0.11763334 494:0.00830686 495:-0.02400159 496:0.040373065 497:0.003214273 498:0.0023810384 499:0.008802431 500:-0.011953967 501:0.06267192 502:0.015119213 503:-0.04716008 504:-0.034337163 505:-0.05034233 506:0.09367142 507:0.0064746873 508:0.009701821 509:0.059558086 510:0.08749554 511:0.060146175 
0 0 0 0 0 0 0.05950114645203088 0 0 0 0 0 0:-0.045202974 1:0.058804277 2:-0.024048893 3:0.04032694 4:-0.017050557 5:0.064475164 6:-0.10994027 7:0.03079011 8:-0.039823197 9:-0.053695813 10:0.073390655 11:-0.0019783447 12:0.059384886 13:-0.045065444 14:0.005832733 15:0.03807926 16:-0.03577105 17:0.030116377 18:0.017910225 19:-0.04772568 20:-0.037315693 21:-0.00049029005 22:-0.08574804 23:-0.025391664 24:0.007964091 25:0.012190695 26:0.009440345 27:0.044922452 28:0.016475776 29:0.09096498 30:0.02369777 31:-0.03331559 32:0.0605895 33:0.027593352 34:-0.048371937 35:0.03271406 36:0.053793356 37:0.02491571 38:0.03803619 39:0.018616987 40:-0.014133814 41:0.02554397 42:0.06579004 43:-0.006332304 44:0.015245972 45:-0.000864185 46:-0.045068696 47:0.005518871 48:-0.0044752285 49:-0.039046977 50:-0.03166793 51:0.062382497 52:-0.008985566 53:-0.085911214 54:-0.03445731 55:0.047350474 56:0.0021359844 57:0.015270683 58:-0.01776671 59:0.021518907 60:0.07242829 61:0.059257723 62:-0.02602785 63:-0.071529634 64:-0.046107393 65:0.056555774 66:-0.016576812 67:0.03213916 68:-0.05692646 69:0.039720085 70:0.04650242 71:0.017864304 72:-0.024393465 73:-0.014002055 74:0.059248734 75:-0.04867358 76:-0.09692047 77:0.07919407 78:-0.024239326 79:-0.056852873 80:-0.01869275 81:-0.007910993 82:0.02319132 83:0.014205632 84:0.026987707 85:-0.09305824 86:0.023546841 87:0.11581265 88:-0.018115204 89:0.017263671 90:-0.00039248716 91:-0.0625591 92:-0.040503245 93:0.010617231 94:0.04387806 95:-0.04546082 96:0.09086669 97:-0.038510635 98:-0.018867489 99:0.063485175 100:-0.011462742 101:0.001869366 102:0.013643781 103:0.0058294567 104:-0.027119257 105:-0.023200886 106:0.008368933 107:-0.003530252 108:0.061886895 109:0.0327694 110:0.024303913 111:0.06089785 112:-0.05953576 113:0.026796136 114:0.07095112 115:0.07661805 116:0.030035976 117:0.045673564 118:0.05371137 119:0.012525376 120:-0.020267198 121:0.0034635938 122:-0.01715582 123:0.01217482 124:0.0024123576 125:0.013224011 126:-0.030393178 127:0.069681756 128:0.0074373023 129:0.00357524 130:0.014686812 131:-0.007685826 132:0.083175406 133:-0.017777402 134:-0.003774047 135:0.0033246737 136:0.05171426 137:0.019616177 138:-0.03003806 139:0.019234166 140:0.013018103 141:-0.07745795 142:-0.040434174 143:-0.024347112 144:0.047864582 145:-0.074980415 146:-0.022369562 147:-0.009216751 148:0.039695892 149:-0.031571407 150:0.030718919 151:-0.040431652 152:0.033763915 153:-0.022301633 154:0.082197025 155:-0.0015648678 156:0.076249294 157:-0.018152628 158:0.054642506 159:0.015040033 160:-0.010242629 161:0.014782985 162:-0.015144533 163:0.015066138 164:0.04814486 165:-0.015629997 166:0.021023877 167:0.0038350965 168:-0.01599142 169:0.07336867 170:0.028816134 171:0.10350764 172:-0.003941748 173:0.00824528 174:0.009221369 175:-0.0525202 176:0.12042883 177:-0.052998893 178:-0.028527487 179:-0.011853185 180:-0.0012797236 181:-0.020873554 182:-0.008033344 183:0.035087027 184:0.020349773 185:0.066024266 186:-0.0026959933 187:0.069957994 188:-0.0047376514 189:0.01225598 190:-0.030006234 191:-0.02982568 192:0.051252283 193:-0.034874734 194:0.023232903 195:-0.037538312 196:0.043880694 197:0.03500422 198:0.0090445755 199:0.059689138 200:-0.013665885 201:-0.062918186 202:0.009410243 203:-0.0233401 204:-0.033740062 205:0.030593527 206:-0.09163874 207:-0.03360345 208:-0.06182336 209:-0.009022264 210:-0.029946852 211:-0.060820967 212:0.052935757 213:0.034004148 214:0.080019176 215:0.015905632 216:-0.03084499 217:0.052109595 218:0.07862818 219:-0.10710091 220:-0.023892984 221:-0.054926403 222:-0.08487692 223:-0.060335744 224:0.021258147 225:-0.049272306 226:0.027535956 227:-0.010960362 228:-0.018174104 229:0.04659923 230:-0.006414238 231:0.041027125 232:0.008378593 233:-0.039604615 234:0.04089587 235:0.027133774 236:0.037043553 237:-0.009933971 238:0.0037857688 239:-0.03560785 240:-0.03319079 241:0.06568351 242:0.06833481 243:-0.035584524 244:0.0421329 245:0.043801434 246:0.021684304 247:0.073647864 248:-0.015441257 249:0.004060656 250:-0.046147484 251:-0.028092802 252:-0.01213673 253:0.01025927 254:0.042799234 255:0.03962778 256:0.07833626 257:-0.006869418 258:0.12148707 259:0.037633717 260:-0.08305626 261:-0.07539342 262:-0.044857085 263:-0.02337856 264:-0.0052062 265:-0.06287433 266:0.024608344 267:-0.00124961 268:-0.031311125 269:0.016004961 270:-0.020473178 271:0.011795305 272:-0.0065122554 273:0.02168384 274:0.018498356 275:-0.032664865 276:0.02242361 277:-0.007389181 278:-0.054331686 279:-0.049639378 280:0.0047331173 281:-0.011942009 282:0.04707705 283:-0.012150312 284:0.0012961217 285:-0.009871016 286:0.018394109 287:-0.05630064 288:-0.025245598 289:-0.06556398 290:0.024470082 291:-0.044934943 292:-0.077616945 293:0.038755495 294:-0.013659507 295:-0.02106491 296:0.06039309 297:0.06077594 298:0.066989556 299:0.08418213 300:0.039610833 301:-0.042874664 302:0.012441831 303:-0.016499223 304:-0.028130207 305:0.02807303 306:0.015801797 307:0.011205261 308:-0.019072937 309:-0.008610849 310:0.023226107 311:-0.001853852 312:0.025564512 313:-0.006547853 314:0.029942855 315:-0.03656926 316:0.016693525 317:-0.09494117 318:-0.021718865 319:0.009866665 320:0.01785666 321:-0.03957725 322:-0.1478529 323:0.0013651114 324:-0.039492648 325:0.04546399 326:0.06364106 327:0.041038673 328:0.09586196 329:0.039681032 330:0.039270986 331:-0.071210064 332:-0.03445072 333:0.0009184753 334:0.0048104874 335:0.031660657 336:-0.045850173 337:-0.03796875 338:0.0032367276 339:0.053008925 340:0.001956358 341:-0.015130377 342:0.06749262 343:0.05269252 344:-0.016337335 345:-0.026935827 346:-0.0028827018 347:-0.04129389 348:0.04355286 349:0.024265733 350:-0.052379955 351:0.03314245 352:-0.024599468 353:0.10718361 354:0.02456284 355:-0.066802554 356:0.030380426 357:0.01455243 358:-0.006934047 359:-0.04514091 360:-0.03558737 361:-0.027314564 362:-0.09921132 363:-0.11211438 364:-0.0797287 365:0.015205204 366:-0.003878858 367:0.0061586327 368:-0.084984764 369:0.00974816 370:0.037755776 371:-0.04350705 372:-0.036310952 373:-0.04403767 374:0.07217834 375:-0.086872995 376:0.06817894 377:-0.045564376 378:0.00321456 379:-0.04447698 380:-0.011102449 381:-0.06857861 382:-0.024873422 383:-0.016086891 384:-0.018621633 385:-0.06613922 386:-0.024246829 387:-0.10122844 388:0.06588514 389:-0.0074402713 390:0.016751492 391:0.064598866 392:0.015083702 393:-0.09993718 394:-0.02325052 395:0.06113265 396:0.07352182 397:0.038145233 398:-0.0046733916 399:0.0887555 400:0.04423887 401:0.07227082 402:0.031995196 403:-0.02270152 404:-0.019964892 405:-0.0026102457 406:0.020728868 407:0.035057187 408:0.014197511 409:0.007074244 410:0.05205137 411:0.008511586 412:0.061375424 413:0.032166366 414:-0.006464188 415:-0.023481503 416:-0.034913715 417:0.06357384 418:0.017323999 419:0.0287625 420:0.021169696 421:-0.014140567 422:-0.040958308 423:-0.048310887 424:-0.047476612 425:0.017989492 426:0.010615144 427:-0.021810029 428:-0.013347459 429:0.08306235 430:0.054103184 431:0.0070906593 432:-0.10377317 433:0.02615693 434:-0.0023308399 435:0.05283645 436:0.014275107 437:-0.0030258326 438:-0.024954591 439:0.001441983 440:0.073902905 441:0.08711115 442:-0.016561205 443:-0.042823832 444:-0.004048286 445:-0.01884087 446:-0.08544796 447:-0.008664642 448:0.026934542 449:-0.013524293 450:0.017649729 451:-0.013053111 452:0.012315406 453:0.036744937 454:0.024601381 455:-0.02667903 456:0.021136895 457:0.020093165 458:-0.018603744 459:0.039250705 460:-0.0038640162 461:-0.042271823 462:0.020220818 463:-0.054653715 464:0.091996744 465:0.028624704 466:0.007676066 467:-0.028800674 468:-0.0663009 469:0.0046557477 470:-0.019935405 471:-0.058881067 472:-0.0030385735 473:-0.09662393 474:-0.053642984 475:-0.044062432 476:-0.0006751478 477:-0.04866126 478:0.040277265 479:0.029632246 480:0.008856792 481:-0.031040253 482:-0.006964649 483:-0.0077325325 484:-0.010594479 485:0.029135043 486:-0.02042017 487:-0.03701115 488:-0.040471528 489:0.02998444 490:-0.0012046773 491:0.10052979 492:-0.050385173 493:0.031776894 494:0.03161548 495:-0.003950292 496:-0.021831278 497:0.0019333754 498:0.010651964 499:-0.009736536 500:-0.056154698 501:0.06633461 502:0.02376659 503:-0.04279217 504:-0.040880725 505:-0.040429432 506:0.053624623 507:-0.04738081 508:0.03093343 509:0.052659985 510:0.07399096 511:0.040186487 
1 0.2796495455267083 0 0 0.6898647351082204 0.4847309300151912 0 0.3316981231707244 0.03551138720178792 0 0 0.4053290203289954 0:-0.02720679 1:0.051251266 2:-0.015251307 3:0.014708432 4:0.020468943 5:0.06899923 6:-0.060797706 7:-0.0013116057 8:-0.017221319 9:-0.07138758 10:0.0743498 11:-0.03731558 12:0.02937713 13:-0.07654428 14:-0.028979182 15:0.021234605 16:-0.011360428 17:0.06211204 18:-0.029752227 19:-0.051225957 20:0.0070948377 21:0.06003103 22:-0.08227626 23:0.014776216 24:-0.044311747 25:0.03523834 26:0.018803833 27:0.035752337 28:-0.022866178 29:0.06798476 30:0.072383516 31:-0.029267155 32:0.088592805 33:-0.009273871 34:0.016046807 35:0.07006882 36:0.071306065 37:0.021004163 38:0.09975166 39:0.012056677 40:-0.023216136 41:-0.043898158 42:0.08053335 43:-0.04129071 44:0.04755078 45:-0.00876419 46:-0.064690396 47:-0.042389594 48:0.029518375 49:-0.012014295 50:0.014979097 51:0.06266711 52:-0.037589308 53:-0.0051625525 54:0.028189935 55:0.038350936 56:0.048561126 57:-0.06877998 58:0.009740065 59:-0.0060592927 60:0.11718309 61:0.021613725 62:-0.0060670325 63:-0.06930827 64:-0.07708577 65:0.03258544 66:0.020403387 67:0.058710005 68:0.013679401 69:0.06174694 70:0.02112493 71:-0.033914905 72:-0.038760908 73:-0.024450138 74:0.040254477 75:-0.039647628 76:-0.08676731 77:0.06046502 78:-0.049259555 79:-0.058996882 80:-0.060497865 81:0.034964956 82:0.034422543 83:-0.015729204 84:-0.022726662 85:-0.07323752 86:0.021087203 87:0.031515736 88:0.032512285 89:-0.018518206 90:-0.06944261 91:-0.049561087 92:-0.02472625 93:0.07850566 94:0.027698077 95:-0.008662863 96:0.014156483 97:-0.053613577 98:-0.01507693 99:0.009567769 100:-0.05161297 101:0.01866422 102:0.019602876 103:-0.0422886 104:-0.0074137924 105:-0.026433486 106:-0.02171455 107:-0.06543024 108:0.015802696 109:0.025929702 110:-0.013289577 111:0.07532242 112:-0.04416484 113:0.012730049 114:0.12477672 115:0.03210459 116:0.044208836 117:0.0051863412 118:0.014481337 119:-0.047118176 120:-0.047683444 121:-0.0030341612 122:-0.04717672 123:0.06548165 124:-0.034395404 125:0.041556627 126:-0.0999372 127:0.025231415 128:0.044758204 129:0.043679427 130:0.051077668 131:0.033010796 132:-0.0004490942 133:-0.06642786 134:0.021944163 135:-0.037999146 136:-0.0030438136 137:-0.021530358 138:-0.012721946 139:-0.0046773064 140:0.037542995 141:-0.06301217 142:-0.047612343 143:-0.03571729 144:-0.014633731 145:-0.08078156 146:0.026570767 147:-0.066158704 148:0.0016564754 149:0.015382155 150:-0.0020464277 151:-0.07612665 152:0.031697802 153:-0.033695657 154:0.061198846 155:-0.022503009 156:0.050887674 157:-0.02573315 158:0.08995809 159:-0.010782535 160:-0.04755994 161:-0.011936638 162:-0.029159853 163:-0.012237376 164:0.010320989 165:-0.047528025 166:0.041783407 167:0.025316529 168:0.06603021 169:0.02559339 170:-0.005003427 171:0.10986473 172:-0.039230276 173:0.047894716 174:0.015098429 175:0.0069604237 176:0.03828243 177:0.0038623486 178:0.040412463 179:-0.025075361 180:-0.016737476 181:-0.034996185 182:-0.013542324 183:-0.014426056 184:0.022928732 185:0.060119946 186:-0.015184804 187:0.06518356 188:0.0073758904 189:0.04594868 190:-0.032486867 191:-0.03835148 192:-0.003229148 193:0.026363729 194:-0.027505536 195:-0.10202992 196:0.04578376 197:0.027506288 198:0.016953848 199:0.0057171807 200:-0.04047849 201:-0.029624272 202:0.03011865 203:0.008451818 204:-0.023231411 205:0.017099481 206:-0.06601669 207:-0.030385295 208:-0.0776878 209:-0.018072395 210:0.013392656 211:-0.056742918 212:0.04189264 213:0.03644227 214:0.013031246 215:-0.0042688814 216:-0.062201004 217:0.010472322 218:0.03174147 219:-0.11051936 220:-0.0051622586 221:-0.071706794 222:-0.045452867 223:0.05286189 224:0.013393585 225:-0.0975188 226:0.012472344 227:-0.017967531 228:0.034314986 229:-0.0041437256 230:0.016092123 231:0.012837767 232:0.031771936 233:0.0040070172 234:0.074840516 235:-0.026294239 236:-0.05068414 237:0.014877806 238:0.033502232 239:-0.021084206 240:-0.0065825237 241:0.058317985 242:0.10422829 243:-0.039869495 244:0.009215089 245:-0.018435875 246:0.04864837 247:0.04258422 248:-0.032219168 249:-0.011262318 250:-0.06664344 251:-0.051902235 252:-0.02994053 253:-0.02330366 254:0.07288161 255:-0.064091966 256:0.09074933 257:-0.016838992 258:0.07247237 259:-0.007401814 260:0.0003143104 261:-0.059441693 262:-0.023099132 263:-0.016762463 264:-0.007781701 265:-0.044198986 266:0.03209352 267:0.02872438 268:-0.03550977 269:-0.015174321 270:0.00090254034 271:-0.006228429 272:0.018656649 273:-0.01696703 274:0.09177426 275:0.032600746 276:0.07047531 277:0.011816595 278:-0.06831015 279:-0.08129129 280:-0.010188418 281:-0.02365729 282:0.05139277 283:-0.0065217754 284:-0.0017893146 285:-0.004310615 286:0.0060676653 287:-0.03778881 288:-0.038787514 289:0.006759554 290:-0.0077780285 291:-0.019471021 292:-0.097465254 293:-0.033492073 294:-0.005775026 295:0.049458563 296:0.036792327 297:0.026011923 298:0.07717909 299:-0.008591562 300:0.036753733 301:-0.0050904453 302:0.006929454 303:-0.043121487 304:-0.066853166 305:-0.0003982943 306:0.019001871 307:0.0012094049 308:0.002699853 309:0.018955966 310:0.09406206 311:-0.05429311 312:0.07965568 313:-0.013689152 314:-0.0003538514 315:-0.0026091072 316:0.0010829582 317:-0.028206447 318:-0.0036670454 319:0.020157602 320:0.0010773183 321:-0.050465256 322:-0.05762024 323:0.024178196 324:-0.011208327 325:0.035238054 326:0.049435984 327:0.0060209557 328:0.097214 329:0.03683712 330:0.009622606 331:-0.09139975 332:-0.009481275 333:0.026476402 334:-0.011502319 335:0.0032774024 336:-0.011501627 337:-0.06511434 338:0.040326953 339:0.04764503 340:0.0067791543 341:-0.08723073 342:0.03532019 343:0.027542703 344:-0.012640782 345:-0.011778848 346:-0.00012953415 347:-0.04711087 348:9.254534e-06 349:-0.029571638 350:-0.04338333 351:0.06092707 352:-0.008360361 353:0.029707363 354:0.07817896 355:-0.010461901 356:0.0268137 357:-0.018257814 358:-0.045346454 359:-0.06877683 360:-0.043128513 361:0.00094866153 362:-0.030752584 363:-0.09629348 364:-0.012158635 365:-0.0026208095 366:0.001705384 367:0.06930573 368:-0.0697035 369:-0.021545043 370:0.01880929 371:-0.058898926 372:-0.030301055 373:-0.08365561 374:0.012082315 375:-0.033927582 376:0.066656336 377:-0.01375696 378:-0.027590051 379:-0.050728448 380:0.010935606 381:-0.022517694 382:-0.00063431496 383:-0.024238223 384:-0.025634719 385:-0.03571216 386:-0.026276944 387:-0.11370498 388:0.010742906 389:0.014935506 390:-0.012679178 391:0.03639713 392:-0.038941324 393:-0.028743453 394:-0.07118759 395:0.0792537 396:0.050838664 397:0.065268725 398:-0.021103803 399:0.08286247 400:0.008965087 401:-0.008883207 402:0.0010118106 403:0.00828257 404:0.02765136 405:0.037931833 406:-0.020143857 407:0.023667108 408:0.008544692 409:-0.017698135 410:0.03473957 411:0.022595637 412:0.06646311 413:0.027234918 414:-0.021876253 415:0.013139629 416:-0.01875722 417:0.015412929 418:0.05206577 419:0.023297396 420:0.012530321 421:-0.038578577 422:-0.05976794 423:-0.09424575 424:-0.070434384 425:0.03776016 426:0.008804527 427:0.015831448 428:-0.020913836 429:0.0960959 430:-0.009362417 431:0.006190664 432:-0.11927634 433:0.0046093985 434:0.011478655 435:0.024860054 436:0.026390124 437:0.031859204 438:0.013016587 439:0.061356027 440:0.045380533 441:0.09011253 442:-0.07686925 443:-0.079329446 444:-0.010454327 445:-0.012653564 446:-0.07606794 447:-0.00079489907 448:0.047415134 449:-0.015577547 450:0.006901517 451:-0.0022980731 452:-0.026314046 453:0.040234555 454:-0.08462404 455:-0.029612336 456:-0.04932207 457:0.024737092 458:-0.068173796 459:0.08176986 460:-0.08001176 461:-0.059145685 462:0.030899677 463:0.05443858 464:0.008609837 465:0.017443815 466:-0.009930521 467:-0.03958185 468:-0.0603443 469:-0.024282143 470:-0.019630395 471:-0.007822706 472:-0.041819163 473:-0.02706856 474:-0.08283771 475:-0.045506995 476:-0.014965895 477:-0.046630748 478:-0.016056133 479:-0.06750684 480:0.019956527 481:-0.04707839 482:-0.012183568 483:-0.040670212 484:-0.03561952 485:0.039111566 486:0.0096681025 487:-0.017974861 488:-0.06490645 489:-0.022180954 490:0.040091816 491:0.053965297 492:0.015082898 493:0.036925536 494:0.019048836 495:0.04683443 496:0.008297869 497:0.0061189122 498:-0.021501068 499:0.020922013 500:0.02672706 501:0.021478778 502:0.063925765 503:-0.040204175 504:0.020462018 505:0.008434543 506:0.10901564 507:-0.02917661 508:0.044418003 509:0.038003605 510:0.045764927 511:0.044818267 
0 0 0 0 0.03206963177575507 0 0.5750625432191631 0 0.1440423187666821 0 0 0 0:-0.06339282 1:0.083341256 2:0.043774523 3:0.06233617 4:0.062217288 5:0.10197789 6:-0.07499399 7:-0.040542763 8:-0.0051728995 9:-0.04595914 10:0.026876727 11:0.054928206 12:0.045445543 13:-0.01038439 14:-0.02829732 15:0.003695103 16:-0.0010723926 17:0.076450095 18:0.034982592 19:-0.04602972 20:0.05550371 21:-0.008564567 22:-0.0018177507 23:0.016607143 24:0.019333728 25:0.051889673 26:0.061956625 27:0.059798088 28:0.011724702 29:0.06678308 30:0.055727486 31:-0.046454873 32:0.014391184 33:-0.020440308 34:-0.00079503655 35:0.0363521 36:0.08204464 37:-0.034178812 38:-0.00071610144 39:0.027120497 40:0.0008711124 41:-0.017813256 42:0.040569384 43:-0.0023439808 44:-0.013718744 45:-0.0097870985 46:-0.03456109 47:0.016754422 48:-0.011901965 49:-0.075754285 50:-0.057662576 51:-0.00053167774 52:0.006700592 53:-0.007806374 54:0.041971665 55:-0.021476144 56:0.05660909 57:0.04104368 58:0.0355769 59:0.010015643 60:0.07713999 61:0.028968193 62:-0.007624117 63:-0.05773243 64:-0.042582262 65:0.06696937 66:-0.018116815 67:0.022245727 68:-0.032109603 69:0.043791436 70:0.038433492 71:-0.028423663 72:0.051587913 73:0.023087146 74:0.06561801 75:-0.020522302 76:-0.07180968 77:0.08201261 78:-0.04748264 79:-0.027153892 80:-0.010482028 81:-0.054095633 82:0.066305704 83:0.018005922 84:-0.034274887 85:-0.07040211 86:-0.020187583 87:0.08732302 88:-0.0013994474 89:0.00022714867 90:-0.011750568 91:0.051243633 92:-0.0377142 93:0.086349614 94:0.06565224 95:-0.041296534 96:0.029647192 97:0.007490321 98:-0.025467763 99:0.08822613 100:-0.019052232 101:-0.009540729 102:-0.023329828 103:-0.01988318 104:-0.008981971 105:-0.019334216 106:0.017487913 107:-0.040337913 108:0.027127193 109:0.055463683 110:0.018972997 111:0.07382989 112:-0.09295707 113:0.034099016 114:0.061113298 115:0.008638207 116:-0.0070117204 117:0.021133883 118:0.016091784 119:-0.012995251 120:0.023759251 121:0.02510937 122:-0.0042069163 123:-0.007830065 124:-0.01937239 125:-0.011694696 126:-0.04829875 127:0.065691024 128:0.035255156 129:0.0071128197 130:0.033333525 131:0.03635853 132:0.058724247 133:0.0062503447 134:-0.037503626 135:0.061582748 136:0.026871705 137:-0.00088275806 138:-0.07417811 139:-0.035710294 140:-0.008348229 141:-0.08960025 142:-0.03467475 143:0.020241857 144:0.026709605 145:-0.08420094 146:-0.013302119 147:-0.05572729 148:0.1049936 149:-0.05705799 150:0.019453123 151:2.5007175e-06 152:0.026162123 153:0.029458338 154:0.058180954 155:-0.028997771 156:-0.0015834207 157:-0.023810254 158:-0.014055409 159:0.014266449 160:-0.017817108 161:0.05515507 162:-0.008705973 163:0.08479026 164:0.031604376 165:0.02359986 166:-0.007571097 167:-0.011381847 168:-0.009897639 169:0.05732932 170:0.0073522413 171:0.010538609 172:-0.03125934 173:0.034656953 174:-0.00820665 175:-0.07425919 176:0.0792751 177:-0.025258718 178:-0.017001683 179:-0.0022130162 180:-0.022159893 181:0.02048839 182:-0.01976694 183:-0.0009466746 184:-0.030380493 185:0.0056487564 186:0.005123135 187:0.036669433 188:0.03346821 189:-0.0008917015 190:-0.032982722 191:0.020364609 192:0.00883794 193:-0.033434737 194:-0.033125907 195:-0.054052353 196:0.0075999796 197:0.019142207 198:0.04940117 199:0.060905524 200:-0.0045162216 201:-0.049072977 202:-0.023775877 203:0.045703456 204:-0.0059752953 205:0.03297799 206:-0.06520696 207:-0.032314256 208:-0.032223314 209:-0.051686406 210:-0.015969422 211:-0.04732758 212:0.040691122 213:0.097090326 214:0.039273467 215:-0.008755687 216:-0.026880845 217:0.05672541 218:0.01794294 219:-0.07401381 220:-0.0828755 221:-0.078794025 222:-0.010398 223:-0.072017185 224:0.004296421 225:0.0065762894 226:-0.010547483 227:0.00359395 228:0.022682525 229:0.009742771 230:-0.00040605513 231:0.05215262 232:0.009559378 233:0.02075907 234:0.06819913 235:-0.013595718 236:-0.0067996127 237:0.034547534 238:-0.027369855 239:-0.011229406 240:-0.07933553 241:0.07085731 242:0.12073093 243:0.054564547 244:0.038381346 245:0.02133057 246:0.041801203 247:0.017193103 248:-0.022607572 249:0.011661546 250:0.010950691 251:-0.07525902 252:0.010577401 253:-0.005852342 254:0.045963276 255:-0.0032012842 256:0.0429097 257:0.06557721 258:0.11633788 259:-0.0018484449 260:-0.053954393 261:-0.001894858 262:-0.04140637 263:-0.0022206856 264:-0.024995955 265:-0.07274332 266:0.03883595 267:0.012564599 268:-0.023285592 269:0.041612666 270:0.033926543 271:-0.06203393 272:0.0015555646 273:0.01818356 274:0.04656067 275:-0.012800747 276:0.041630886 277:0.059924934 278:-0.001027148 279:-0.0405347 280:0.040719986 281:0.0031242275 282:-0.03835248 283:0.020561397 284:-0.037334226 285:-0.036845952 286:-0.051534694 287:-0.09240595 288:0.041558877 289:0.009461966 290:0.029959105 291:-0.054761786 292:-0.09755178 293:-0.005233108 294:-0.011631344 295:0.0013778846 296:0.08402196 297:0.031825595 298:-0.009697981 299:0.041123178 300:0.046087082 301:-0.014803744 302:0.0097801285 303:0.05700314 304:-0.02280643 305:0.009966412 306:-0.012600677 307:0.02067283 308:-0.033532538 309:-0.06820323 310:0.05784378 311:0.002171588 312:0.047107857 313:0.05092397 314:0.0014545221 315:0.057400893 316:0.044090275 317:-0.07785763 318:0.011787647 319:0.037001092 320:0.032997947 321:-0.046534847 322:-0.0961282 323:0.07100673 324:-0.029686788 325:0.048036568 326:0.1275121 327:0.022693295 328:0.059145015 329:0.015420761 330:0.041346036 331:-0.10119457 332:-0.009653868 333:-0.055515368 334:-0.018380975 335:-0.03402977 336:0.030675178 337:-0.027232518 338:0.01495667 339:0.007324033 340:-0.016986992 341:-0.04847097 342:0.027638666 343:0.019105304 344:-0.0084612835 345:0.0017691719 346:-0.02809095 347:0.0072841765 348:0.00031691336 349:-0.007024725 350:-0.009543241 351:0.057074636 352:-0.01509469 353:0.06474608 354:0.0016434578 355:0.01063731 356:0.037194535 357:0.08415638 358:0.023089368 359:0.0019393442 360:-0.0092268055 361:0.01017975 362:-0.041459594 363:-0.089541644 364:0.0044748536 365:0.013962738 366:-0.056117818 367:0.004444773 368:-0.06860254 369:0.047692534 370:0.026189977 371:-0.07096937 372:-0.006634359 373:-0.024689432 374:0.085005015 375:-0.022539012 376:0.08232705 377:-0.019660315 378:0.008624282 379:0.0050760256 380:0.013034043 381:-0.021437686 382:0.027402563 383:-0.01606623 384:-0.038944207 385:-0.021235779 386:-0.075013116 387:-0.10690671 388:0.052118756 389:0.03514234 390:-0.019324897 391:0.0480066 392:0.034036554 393:-0.023507746 394:0.002732883 395:0.078273766 396:0.056487232 397:0.059498526 398:-0.028338563 399:0.06716046 400:0.002695585 401:0.024280963 402:0.026547972 403:-0.028289832 404:0.01348999 405:0.012377678 406:0.023007791 407:0.042734288 408:0.062463388 409:0.11685993 410:0.055318017 411:0.006694178 412:0.06599647 413:0.06909478 414:-0.004307245 415:-0.025307855 416:-0.031869113 417:-0.007723855 418:0.017029084 419:0.009375463 420:-0.0072113564 421:-0.020366292 422:-0.03985691 423:-0.07215228 424:-0.06800349 425:0.065402605 426:-0.031363584 427:-0.009196043 428:0.013993807 429:0.066087864 430:0.03293281 431:0.08935396 432:-0.061584238 433:0.0760253 434:0.0017183068 435:0.03674386 436:-0.027766133 437:0.023146419 438:0.043665577 439:-0.023858052 440:0.08632349 441:0.074395366 442:-0.058345325 443:-0.057716683 444:-0.014444102 445:0.02669905 446:-0.14724422 447:-0.0051489267 448:0.018453117 449:0.0083589535 450:0.032975096 451:-0.023944205 452:-0.066534705 453:0.025468053 454:0.007721997 455:0.0275433 456:-0.045740236 457:0.020556662 458:0.047035065 459:0.033380773 460:-0.005847713 461:-0.024302684 462:-0.043906685 463:-0.02869054 464:0.047344476 465:-0.0006681346 466:-0.08475449 467:-0.025586942 468:-0.021023426 469:0.027833715 470:-0.031626143 471:-0.04527562 472:0.017571513 473:-0.09762435 474:-0.00019140336 475:-0.020457977 476:0.025514336 477:0.0025116745 478:-0.042032305 479:0.035726476 480:0.039327655 481:-0.0050514843 482:-0.008420375 483:0.0078206705 484:-0.025902644 485:0.022428274 486:-0.0061736456 487:-0.011830315 488:-0.031167762 489:-0.013864078 490:-0.022525681 491:0.04677034 492:-0.09090399 493:0.058625586 494:0.038844693 495:0.009719948 496:-0.07484293 497:0.07128791 498:-0.014766978 499:0.06484935 500:-0.038693078 501:0.028793802 502:0.068957254 503:-0.04222559 504:-0.047027215 505:-0.044725314 506:0.09670773 507:-0.02982164 508:0.011956979 509:0.055211045 510:0.08489831 511:0.019355819 
0.1223835030120629 0 0 0.02822015685197039 0 0 0 0.1192290013172136 0.3572549380456944 0 0 0 0:-0.038529646 1:0.08566253 2:0.0063713226 3:0.005762739 4:0.021790225 5:0.096256405 6:-0.048866495 7:-0.009479966 8:-0.04180028 9:-0.062776744 10:-0.0037928997 11:-0.009157846 12:0.07156761 13:0.0011165887 14:-0.025136849 15:0.016625104 16:-0.002739449 17:0.05571378 18:-0.03123085 19:-0.018938215 20:-0.040541954 21:-0.03833453 22:-0.019710556 23:-0.028617145 24:0.03843408 25:0.010125225 26:0.03575226 27:0.003241826 28:0.004176296 29:0.057546444 30:0.08128041 31:0.01861414 32:0.0027601244 33:0.06329678 34:-0.03236641 35:0.031106716 36:0.1016661 37:-0.043733858 38:-0.01837426 39:0.028940883 40:0.013370485 41:-0.0032023112 42:0.08209522 43:0.017851628 44:0.033940095 45:-0.033135332 46:-0.040248778 47:0.015937474 48:-0.04977272 49:-0.09795696 50:-0.044346463 51:0.019417332 52:0.0180687 53:-0.010434655 54:-0.063000865 55:-0.014845917 56:-0.0433644 57:0.03467924 58:0.038415153 59:-0.013928615 60:0.09432382 61:0.04293056 62:-0.022284579 63:-0.069060236 64:-0.0773881 65:0.06906041 66:-0.016047597 67:0.046244584 68:-0.018626893 69:0.07919266 70:0.020158522 71:-0.07397808 72:0.023322737 73:0.03083102 74:0.031137398 75:-0.039295305 76:-0.076559894 77:0.059392154 78:-0.04057055 79:-0.07129603 80:0.011044433 81:0.023433818 82:0.019020263 83:0.0049160193 84:-0.008312368 85:-0.03709051 86:-0.0067692674 87:0.08091193 88:-0.031385303 89:0.012390203 90:0.006649945 91:-0.018312683 92:0.002480367 93:-0.009908132 94:0.09173448 95:-0.052799363 96:0.0409279 97:-0.015506359 98:-0.0164099 99:0.049362883 100:0.020991605 101:0.06067171 102:-0.01600283 103:-0.028729497 104:-0.03814411 105:0.010599652 106:0.029586203 107:-0.051188964 108:-0.021809924 109:-0.0098943105 110:0.009215463 111:0.054038562 112:-0.076551184 113:-0.0040328666 114:0.058104992 115:0.055180542 116:-0.0016580306 117:0.00031297628 118:0.033305023 119:-0.0247175 120:-0.0011986605 121:0.056102253 122:-0.00097466237 123:0.017470991 124:-0.02203326 125:-0.04169899 126:-0.02627687 127:0.08711776 128:0.024347775 129:0.003591984 130:0.0073960028 131:0.024162991 132:0.03356855 133:-0.006482653 134:0.009930302 135:-0.027003761 136:0.057097007 137:-0.10326705 138:-0.059993822 139:-0.004374219 140:-0.0044784485 141:-0.09033014 142:-0.07995624 143:0.037651367 144:0.028454263 145:-0.090748094 146:0.0033580884 147:-0.04556137 148:0.096309 149:-0.046447694 150:0.0293071 151:-0.04444253 152:0.018415842 153:0.0419065 154:0.09500265 155:-0.0036908698 156:0.022833787 157:-0.041612513 158:0.05869549 159:-0.012566178 160:0.017980514 161:0.0883981 162:0.014684869 163:0.03420527 164:0.08356163 165:0.03218282 166:-0.05888911 167:0.002213181 168:0.011137583 169:0.036056772 170:0.0011232188 171:0.07762643 172:-0.061352864 173:0.049579322 174:-0.0044374983 175:-0.06058806 176:0.079564355 177:-0.02903353 178:-0.042051475 179:0.0028819412 180:-0.020202467 181:0.0419292 182:-0.022736505 183:0.0017448073 184:0.0362996 185:0.05352888 186:-0.0052885273 187:0.04340867 188:0.072682984 189:0.008528893 190:0.0031361158 191:-0.020706961 192:-0.0032943205 193:-0.044169225 194:0.015850592 195:-0.06286645 196:0.029012743 197:0.011025859 198:0.056865655 199:0.06794118 200:0.009263327 201:-0.09990151 202:0.002192512 203:0.044457205 204:0.021613192 205:0.043174494 206:-0.08064013 207:-0.0096236775 208:-0.042207062 209:0.010267292 210:-0.037298713 211:-0.045462914 212:0.0631117 213:0.0802522 214:0.0707589 215:0.028614424 216:0.0053853607 217:0.042868353 218:0.04254794 219:-0.08204925 220:-0.046691254 221:-0.07885342 222:-0.056956694 223:-0.05520858 224:0.013449233 225:0.010925115 226:0.057807386 227:0.0059162946 228:-0.027392326 229:0.02083357 230:0.005471158 231:0.061734356 232:0.016004471 233:0.022100694 234:0.061286453 235:-0.0038396276 236:0.0199676 237:-0.0633294 238:0.027725779 239:-0.042597923 240:0.0051020915 241:0.06272742 242:0.057895828 243:0.016933141 244:0.03346496 245:-0.019259932 246:0.06345329 247:0.036846347 248:-0.079047486 249:0.03680046 250:-0.009231624 251:-0.037992243 252:0.006694683 253:-0.05510476 254:0.05823379 255:-0.026310423 256:0.10488106 257:-0.0037600033 258:0.06627131 259:0.027916422 260:-0.045918364 261:-0.02771357 262:-0.029830776 263:-0.029695159 264:-0.014357896 265:-0.043424375 266:0.020531692 267:-0.015253122 268:-0.0070755747 269:-0.016282862 270:0.0028101054 271:-0.028709907 272:-0.0032563938 273:0.012685716 274:0.021903241 275:-0.023368064 276:0.04896403 277:0.04789161 278:0.02988617 279:-0.049216356 280:0.020133987 281:-0.0039011135 282:0.053518504 283:0.048375804 284:-0.014170427 285:-0.09448828 286:0.005771788 287:-0.071780235 288:0.01224578 289:-0.030551363 290:-0.006542422 291:0.018522266 292:-0.095859125 293:-0.019542903 294:0.042918142 295:0.009699254 296:0.034670543 297:0.08006671 298:0.015816843 299:0.0789568 300:0.069198 301:-0.040030353 302:-0.024760235 303:-0.0005497922 304:0.025906993 305:0.04810679 306:-0.019553533 307:-0.036152948 308:-0.010664058 309:0.00728425 310:0.003557642 311:0.0014618201 312:0.007841368 313:-0.015946398 314:-0.011223 315:-0.027307592 316:-0.014023271 317:-0.037462704 318:0.009246751 319:0.036356844 320:0.038041227 321:-0.057242054 322:-0.0997682 323:0.04146347 324:-0.0904821 325:0.05448974 326:0.053832337 327:0.027030624 328:0.033249598 329:-0.009783635 330:0.007627186 331:-0.088833876 332:-0.012505398 333:-0.034662683 334:-0.006933343 335:-0.01031302 336:0.032775063 337:-0.05312529 338:0.08452924 339:-0.016902225 340:-0.06264086 341:-0.03589229 342:0.049545914 343:-0.017750535 344:-0.04021147 345:0.023045471 346:0.011820507 347:-0.050472815 348:0.029566756 349:0.02478224 350:-0.027744861 351:0.04798823 352:0.044848077 353:0.04637686 354:0.058140896 355:-0.041280724 356:0.02284006 357:0.03640013 358:-0.011300674 359:0.00883713 360:-0.0024764724 361:-0.062486004 362:-0.0737516 363:-0.1029748 364:0.0016578662 365:0.0066747186 366:-0.010600504 367:0.019648742 368:-0.04341798 369:0.014774321 370:0.050861534 371:-0.051149685 372:-0.0008997384 373:0.008624009 374:0.05718256 375:-0.016583959 376:0.041874073 377:-0.014105529 378:0.040922824 379:-0.0010803522 380:0.011123715 381:-0.07828999 382:-0.020224076 383:-0.06664637 384:-0.059727702 385:-0.0040705376 386:-0.041526373 387:-0.06050593 388:0.09379712 389:0.02977599 390:-0.030589001 391:0.10901114 392:0.025236407 393:0.029794654 394:-0.045845147 395:0.08606883 396:0.050230436 397:0.08674062 398:-0.024892086 399:0.0292857 400:0.037022933 401:0.021877745 402:0.025532246 403:-0.037009317 404:-0.014927192 405:-0.021444006 406:0.006585412 407:0.02885473 408:0.027005576 409:0.028760534 410:0.06660367 411:-0.026609985 412:0.057445005 413:0.044645738 414:-0.028980795 415:-0.007905833 416:-0.05628784 417:-0.02054853 418:0.033832476 419:0.005066494 420:-0.02411623 421:-0.009693777 422:-0.058441352 423:-0.02540434 424:-0.04676363 425:0.047078986 426:-0.010424998 427:-0.011871054 428:-0.0046503716 429:0.08298957 430:0.00817453 431:0.020011857 432:-0.08951083 433:0.026829539 434:0.070017874 435:0.04533524 436:-0.01311158 437:0.016625952 438:0.032750666 439:-0.040755603 440:0.04249076 441:0.03945835 442:-0.008696418 443:0.028115062 444:-0.0012816563 445:0.03421088 446:-0.09730541 447:-0.028695054 448:0.12304355 449:-0.009262095 450:-0.0019826717 451:-0.019925438 452:-0.05700111 453:-0.06679674 454:0.0231421 455:0.06855393 456:-0.058301583 457:0.042670164 458:0.017582309 459:0.02407606 460:0.020512793 461:7.38481e-05 462:0.02011482 463:-0.04765945 464:0.024698835 465:0.018091341 466:-0.04042289 467:-0.0036313948 468:-0.014324819 469:0.08684307 470:0.00801567 471:-0.0045203804 472:-0.072132 473:-0.04721303 474:0.0043818606 475:-0.022611033 476:0.010766586 477:-0.02339692 478:-0.008278056 479:0.037282653 480:0.017087951 481:-0.04053677 482:-0.019122576 483:0.0043825815 484:-0.0034936385 485:0.020918412 486:-0.02053899 487:-0.007875976 488:0.0413111 489:-0.0005146571 490:-0.012121351 491:0.043788742 492:-0.06991695 493:0.04898865 494:0.017872851 495:-0.03627544 496:-0.05420074 497:0.023128022 498:0.08248249 499:0.0813523 500:-0.06753664 501:-0.010573381 502:0.009583756 503:-0.010602647 504:-0.07509705 505:0.016745124 506:0.10238128 507:-0.06104565 508:0.003934073 509:0.048394177 510:0.09619075 511:0.06706696 
1 0.7987596553205721 0.7137630786188841 0.8953580639879867 0 0.3255963018091495 0.8974520436285152 0.5974171654878149 0.8204243013685035 0.378772746290846 0.7167589671156332 0.8124709447443077 0:-0.053821843 1:0.035447765 2:0.098886535 3:0.042245 4:0.06318518 5:0.014609262 6:-0.07908105 7:-0.08537321 8:0.02369729 9:-0.03489315 10:0.014515444 11:0.0020683222 12:0.027116 13:0.014178569 14:0.01276774 15:0.025661854 16:-0.022225058 17:0.07436714 18:0.023683937 19:0.0026252472 20:0.032767985 21:-0.010751669 22:-0.030764978 23:0.005822237 24:-0.035666686 25:-0.0035230888 26:0.016011238 27:0.06296438 28:0.027848013 29:0.056446925 30:-0.0012492795 31:-0.04756407 32:0.006426644 33:-0.03542843 34:0.013274892 35:-0.027039766 36:0.034825355 37:0.021604445 38:0.0024767423 39:-0.002692551 40:-0.032764696 41:0.03817566 42:0.03250719 43:-0.012165953 44:0.026809193 45:0.008631816 46:-0.04317614 47:-0.07719751 48:-0.037375078 49:0.031977788 50:0.0052935025 51:0.0148718 52:-0.03254199 53:-0.012216806 54:-0.05181176 55:-0.060195107 56:0.048104238 57:-0.014879951 58:-0.025522342 59:0.07349611 60:0.06982811 61:-0.01910768 62:0.02067235 63:0.004731881 64:-0.06722741 65:0.056606043 66:-0.06416053 67:0.048899155 68:-0.07013813 69:0.033584934 70:-0.0029244183 71:0.036038954 72:0.02844337 73:-0.002509783 74:0.0536662 75:-0.037703846 76:-0.06066167 77:0.1033885 78:-0.0056239264 79:-0.033630285 80:0.01832366 81:-0.07181167 82:0.032466505 83:-0.047375448 84:0.017343258 85:-0.060918134 86:-0.039383546 87:0.09373595 88:-0.026214657 89:0.078588665 90:0.06038002 91:-0.0049101883 92:0.023908213 93:0.042177834 94:0.009941718 95:-0.043754652 96:0.08296506 97:0.02192806 98:0.018328115 99:-0.013614288 100:0.0053832284 101:0.0062108906 102:-0.021686582 103:0.049900934 104:0.027589656 105:-0.034875385 106:-0.041682694 107:-0.017864782 108:0.0072803344 109:0.059654456 110:-0.0081905015 111:0.08745077 112:-0.03975351 113:0.06202601 114:0.07012749 115:0.01310976 116:-0.031289645 117:0.028871104 118:0.059202947 119:0.010880953 120:0.057509325 121:0.059395753 122:-0.045556568 123:-0.061090942 124:0.084891304 125:0.013108593 126:-0.021789515 127:0.033511277 128:-0.003901886 129:0.03818981 130:0.0036444196 131:0.0535177 132:0.08257842 133:0.01024784 134:0.010069616 135:-0.016440807 136:-0.0030847276 137:-0.037038717 138:-0.09349905 139:0.0032066328 140:-0.0021419935 141:0.008489796 142:-0.04157243 143:0.050202657 144:-0.034190677 145:-0.078810185 146:-0.007862133 147:-0.00073931104 148:0.01165886 149:-0.028803907 150:-0.035079766 151:-0.0071983244 152:-0.0012419368 153:-0.011947436 154:0.0705715 155:-0.007345054 156:-0.07001268 157:0.043895416 158:0.02211839 159:0.014068952 160:0.00454894 161:-0.0085024955 162:-0.016220482 163:0.051472347 164:0.0038382667 165:0.023049928 166:0.03499642 167:-0.06425753 168:0.048685692 169:0.035488762 170:-0.029272629 171:0.017857622 172:0.011260837 173:-0.014348436 174:0.009285245 175:-0.06687663 176:0.07741904 177:-0.029402765 178:-0.016511137 179:-0.07461441 180:0.0025566116 181:-0.013203991 182:-0.05042567 183:-0.022961615 184:-0.03554599 185:0.016599616 186:-0.030677577 187:0.0046659866 188:-0.0018943567 189:0.030313618 190:-0.029785339 191:0.02931969 192:0.06794596 193:0.01558674 194:-0.023381226 195:-0.049815524 196:-0.019127963 197:0.020841938 198:0.036463164 199:-0.02636109 200:0.038187657 201:-0.0564753 202:-0.016477292 203:-0.0011192963 204:-0.0640333 205:0.06128799 206:-0.04955718 207:-0.010323314 208:0.017295059 209:-0.04426683 210:-0.030054523 211:-0.034068555 212:0.05193296 213:0.016866058 214:0.12224481 215:-0.082829654 216:-0.035093825 217:0.07600087 218:0.0001171719 219:0.025109788 220:-0.040738247 221:-0.015388413 222:-0.061782468 223:-0.0727529 224:0.024587812 225:-0.04485677 226:0.049692355 227:0.01093068 228:-0.04113875 229:0.045348037 230:0.03005931 231:0.035022415 232:-0.010668496 233:-0.019257754 234:0.060458735 235:0.032250505 236:0.013854806 237:0.008221046 238:-0.018903384 239:0.057057805 240:-0.03593935 241:0.07784203 242:0.025141684 243:0.096130215 244:-0.06628869 245:0.007405723 246:0.057212133 247:0.08812419 248:-0.052482683 249:0.027850468 250:-0.016605973 251:-0.054131992 252:0.029581912 253:-0.0275404 254:-0.009373526 255:0.03187206 256:-0.04854211 257:0.019031983 258:0.0355759 259:0.024193902 260:-0.07009554 261:-0.03652781 262:-0.04974385 263:0.06655062 264:0.033224687 265:-0.004467559 266:-0.034239277 267:-0.0015724452 268:-0.022867678 269:0.017667033 270:0.04317292 271:-0.020965884 272:0.099847764 273:0.046279352 274:0.06384317 275:-0.029266655 276:0.049174692 277:0.046054635 278:-0.043486644 279:-0.08166912 280:-0.06420429 281:0.017985677 282:0.0340524 283:0.021398077 284:-0.024372153 285:-0.034460574 286:0.018233953 287:-0.062383357 288:0.010044848 289:-0.07933659 290:-0.03618768 291:-0.048280947 292:-0.07482192 293:-0.003966396 294:0.045949306 295:-0.03300554 296:0.061245378 297:0.023918726 298:0.022682874 299:0.013118903 300:0.060693774 301:0.023741843 302:0.030996578 303:0.027953885 304:-0.005073216 305:0.06286208 306:0.0075800894 307:0.014472044 308:0.042178486 309:-0.019485215 310:0.044150118 311:0.077810146 312:0.045631766 313:0.058011383 314:0.09281766 315:-0.06815226 316:-0.0176592 317:-0.014340996 318:-0.055869017 319:0.018324913 320:-0.0063286717 321:-0.046516348 322:-0.08690825 323:0.038529303 324:-0.04256391 325:0.005778309 326:0.04574756 327:0.028535884 328:0.036896467 329:-0.0047703767 330:-0.040635545 331:-0.10700377 332:-0.02629351 333:-0.037168805 334:-0.06200941 335:0.007236101 336:-0.019198202 337:-0.037236564 338:-0.0075854277 339:0.06544379 340:-0.048844542 341:-0.01464081 342:0.040789753 343:0.043911517 344:0.034106527 345:0.00034570586 346:-0.040159483 347:-0.0071823564 348:0.007033029 349:0.0029921783 350:-0.022876397 351:0.01197863 352:0.0030822023 353:0.07754085 354:-0.055060618 355:3.319187e-05 356:0.04264838 357:0.03731416 358:-0.007505759 359:-0.02782787 360:-0.016481247 361:-0.00052227115 362:-0.05649062 363:-0.016410295 364:-0.009992963 365:-0.03914245 366:-0.052458055 367:0.0073790685 368:-0.03739023 369:0.018459473 370:-0.0032617636 371:-0.00510722 372:-0.019906988 373:0.06733858 374:0.09142942 375:-0.026040366 376:0.11310886 377:-0.10726696 378:-0.058620956 379:0.042287115 380:0.028718974 381:-0.038564153 382:0.031903822 383:-0.028966533 384:-0.028192138 385:-0.0036370773 386:-0.046462413 387:-0.03495754 388:0.0371643 389:-0.028057298 390:0.0036363152 391:0.07757573 392:0.032027762 393:0.0022595269 394:0.031778377 395:0.038420748 396:0.07799004 397:0.09088469 398:-0.05049186 399:0.013406954 400:-0.0079959 401:0.010226823 402:0.036623765 403:-0.0381904 404:0.00069927 405:-0.0663904 406:-5.7221296e-05 407:0.053565115 408:0.015776025 409:0.043714892 410:0.023954153 411:0.053482153 412:-0.0016166599 413:0.0630793 414:0.016774215 415:-0.017868398 416:-0.11662664 417:3.2448366e-05 418:0.0098613035 419:-0.017775664 420:-0.03845693 421:0.0023760372 422:-0.012152841 423:-0.06793179 424:-0.047600973 425:0.08226226 426:-0.013742142 427:-0.08390281 428:-0.059214514 429:0.0842204 430:-0.030689906 431:0.04201131 432:-0.029221207 433:0.062468275 434:0.031308256 435:0.0680292 436:0.028594684 437:0.0287984 438:0.005096604 439:-0.027086455 440:0.05427374 441:0.05943168 442:0.018081624 443:-0.11922231 444:-0.021026766 445:-0.015817467 446:-0.033189498 447:-0.027600853 448:0.046200763 449:0.014552726 450:-0.06518635 451:-0.044823006 452:0.0065981145 453:0.037273504 454:-0.005410508 455:0.07943912 456:0.017654587 457:0.025161702 458:-0.032959472 459:-0.0026505506 460:0.032893125 461:-0.07103653 462:-0.00019415826 463:-0.051806692 464:0.07471605 465:0.008592637 466:-0.03813247 467:-0.082422584 468:-0.04278578 469:-0.0014552373 470:-0.017050281 471:-0.09083467 472:-0.053181887 473:-0.08030482 474:-0.034654744 475:0.022663958 476:0.08411952 477:-0.040334664 478:0.011670561 479:0.027122874 480:0.05807797 481:0.00589652 482:-0.022394652 483:0.026355835 484:0.014529281 485:0.05444839 486:0.002472197 487:-0.07216573 488:-0.0059223142 489:0.032283004 490:-0.034441523 491:0.05855565 492:-0.026750147 493:-0.0008323076 494:0.11636045 495:0.0281038 496:-0.06845904 497:0.010058641 498:-0.025762599 499:0.04260549 500:-0.05545153 501:-0.002645573 502:0.052344497 503:-0.06967861 504:0.002829196 505:0.038422808 506:0.07032647 507:-0.043967642 508:0.06606617 509:0.010113909 510:0.039966464 511:-0.008087712 
0.1680106701327752 0 0 0 0 0 0 0 0 0 0 0 0:-0.04266217 1:0.072236344 2:0.019009003 3:0.044009667 4:0.031173578 5:0.09593998 6:-0.0655672 7:0.0022794064 8:0.00042186445 9:-0.07693801 10:0.05863929 11:0.040573586 12:0.061598126 13:-0.062373895 14:-0.07020405 15:0.009047612 16:0.027261944 17:0.08720142 18:-0.009212997 19:-0.057644606 20:-0.007479992 21:-0.038157597 22:0.018432273 23:-0.02943252 24:0.008056447 25:-0.0067727244 26:0.049711864 27:0.033503532 28:-0.02363107 29:0.11984034 30:0.096893735 31:-0.0286841 32:0.023654845 33:-0.021100478 34:0.01760085 35:0.030278262 36:0.07203725 37:-0.058921125 38:-0.018800447 39:0.04850866 40:0.011932826 41:0.01003136 42:0.03510985 43:0.008409622 44:0.027589211 45:-0.033100013 46:-0.051229797 47:0.021140508 48:-0.008534384 49:-0.08579703 50:-0.08081013 51:0.011951488 52:0.030810654 53:0.03686978 54:-0.01454598 55:0.019044045 56:0.030693432 57:0.02717007 58:-0.019659685 59:-0.0067948163 60:0.10868715 61:0.05992365 62:-0.017876342 63:-0.02138341 64:-0.0052728173 65:0.06957751 66:0.005586525 67:0.002314535 68:0.008259505 69:0.03395733 70:0.044356145 71:0.013043654 72:-0.02341745 73:-0.012389504 74:0.03675764 75:-0.03432076 76:-0.09338205 77:0.06378348 78:-0.013238912 79:-0.011255787 80:-0.029571204 81:-0.04251367 82:0.03353787 83:0.0012082192 84:0.03350037 85:-0.04136755 86:-0.024401406 87:0.11516442 88:0.040909283 89:0.0010189147 90:0.013884524 91:-0.034626715 92:-0.029847266 93:-0.0036637052 94:0.07175886 95:-0.02225008 96:0.04313665 97:0.005099661 98:-0.016777944 99:0.10195407 100:-0.015434964 101:-0.017264402 102:-0.045244504 103:0.031141935 104:0.01190831 105:0.060109008 106:0.025145194 107:-0.020324517 108:0.051100917 109:0.052899376 110:0.047411762 111:0.10145129 112:-0.071368046 113:-0.018522272 114:0.03051356 115:0.027137129 116:-0.03161341 117:0.023802688 118:0.04515609 119:0.02497481 120:-0.008194328 121:-0.025380846 122:-0.032069623 123:0.028134631 124:-0.017504085 125:0.014872612 126:-0.035586074 127:0.025311554 128:-0.022935273 129:-0.02926452 130:0.019340966 131:0.0026369193 132:0.06335639 133:-0.033464655 134:0.014951154 135:0.041989274 136:0.0047329036 137:-0.057863664 138:-0.040775634 139:-0.019897953 140:-0.036223922 141:-0.059987422 142:-0.09370562 143:0.041614436 144:-0.015456302 145:-0.0957331 146:-0.00015835834 147:-0.013488153 148:0.046195142 149:-0.016774472 150:0.0053864797 151:-0.040335406 152:0.020107975 153:0.04407067 154:0.07888525 155:0.024309848 156:0.026743077 157:-0.02034423 158:0.038636446 159:0.012449668 160:0.031524397 161:0.07367 162:-0.028262949 163:0.042873133 164:0.023411827 165:0.02853744 166:0.0014303852 167:0.012733902 168:0.02314714 169:0.035249524 170:-0.053759452 171:0.027902547 172:-0.048328783 173:0.036651835 174:-0.004779733 175:-0.0044797785 176:0.052052684 177:-0.029788045 178:-0.031515203 179:-0.060133908 180:-0.031251878 181:-0.0017207841 182:-0.004602498 183:0.058486138 184:0.054145303 185:0.044866744 186:-0.0023887453 187:0.06308984 188:0.035487674 189:0.004814762 190:-0.073725455 191:-0.03696391 192:-0.007692536 193:-0.059967045 194:-0.017015183 195:-0.07405239 196:0.050833717 197:0.0003204889 198:0.08686313 199:0.05819382 200:0.008924965 201:-0.07085674 202:-0.020439632 203:-0.009147362 204:0.0062168343 205:0.024790114 206:-0.10838372 207:-0.039400462 208:-0.033554427 209:-0.012852984 210:-0.062380623 211:-0.025089296 212:0.06811336 213:0.009745253 214:-0.0020748517 215:0.02376768 216:-0.026298113 217:0.08466866 218:0.04960471 219:-0.06425542 220:-0.061485708 221:-0.081027366 222:-0.03511494 223:-0.018328823 224:0.0021932782 225:-0.022090893 226:0.01234926 227:-0.03971619 228:-0.02828105 229:-0.03807898 230:0.024423324 231:0.06342305 232:0.046915006 233:-0.01883256 234:0.08845005 235:0.010032065 236:0.017778162 237:0.03023581 238:-0.028198954 239:0.011933316 240:-0.021412121 241:0.06799467 242:0.08016704 243:0.00897343 244:0.045779705 245:-0.020091848 246:0.045901272 247:0.023641659 248:-0.04991255 249:-0.02169611 250:0.017588884 251:-0.060135327 252:0.047732346 253:0.022027358 254:0.04944692 255:-0.0050155926 256:0.08741418 257:0.031739965 258:0.11448687 259:0.05786495 260:0.0016333599 261:-0.030016176 262:-0.01308588 263:-0.0013132883 264:-0.009006082 265:-0.03452369 266:-0.006605826 267:0.049668536 268:-0.048045132 269:-0.021174291 270:-0.0005627293 271:-0.029238662 272:0.025793767 273:-0.031266604 274:0.045735486 275:0.009938888 276:0.059245374 277:0.010516397 278:-0.036555484 279:-0.10748734 280:0.043928146 281:0.0049728467 282:0.02146281 283:0.06833549 284:-0.03194087 285:-0.071945004 286:0.01579306 287:-0.03665718 288:-0.00049912796 289:-0.025528075 290:-0.010175907 291:-0.08637982 292:-0.10855548 293:-0.005928769 294:0.009677874 295:0.03614269 296:0.064465925 297:0.062100843 298:0.017016783 299:0.050657045 300:0.06900037 301:0.0034769215 302:0.0074766087 303:0.0055504255 304:-0.0073724873 305:0.030630156 306:0.01165453 307:-0.01270288 308:-0.041509926 309:-0.017074086 310:0.048222918 311:-0.031331927 312:0.062289804 313:0.018498406 314:0.026380958 315:0.0336477 316:-0.013247729 317:-0.010092207 318:-0.03644483 319:-0.0013159089 320:0.024528043 321:-0.097197436 322:-0.055760544 323:0.08597986 324:-0.050732154 325:0.0247031 326:0.11384699 327:0.033210266 328:0.11588483 329:0.03447213 330:0.062791124 331:-0.04990001 332:-0.017426081 333:0.001554892 334:0.02640747 335:0.050218355 336:0.021699825 337:0.005181183 338:0.05467341 339:0.03058329 340:-0.002900945 341:-0.08578961 342:0.023144957 343:0.036901873 344:-0.04767398 345:-0.008491856 346:0.029622747 347:-0.02009723 348:0.011485461 349:-0.021542236 350:-0.014960282 351:0.08040675 352:0.05517692 353:0.026641142 354:0.032571554 355:0.0010950568 356:0.059267223 357:0.040686708 358:0.039937478 359:-0.022521341 360:-0.06811363 361:-0.010820162 362:-0.08490551 363:-0.10718621 364:0.012801684 365:0.055385213 366:-0.021752954 367:0.0006054538 368:-0.045000203 369:0.09158915 370:-0.00046010857 371:-0.077215984 372:0.006886483 373:0.0067238747 374:0.086734906 375:-0.026612865 376:0.11853495 377:-0.027741436 378:0.01494298 379:0.00021694624 380:0.037286878 381:-0.033295892 382:-0.007898081 383:-0.055292524 384:-0.060885336 385:0.014904546 386:-0.0046608914 387:-0.0886504 388:0.07989945 389:0.053053707 390:-0.042128734 391:0.06008103 392:-0.057372853 393:-0.0030366092 394:-0.004414587 395:0.07408578 396:0.06284138 397:0.05884276 398:-0.012512764 399:0.02030346 400:0.017283624 401:0.030082729 402:0.028963206 403:-0.028991293 404:0.017656786 405:0.0040110718 406:-0.020948263 407:0.021083735 408:0.02696622 409:0.0031320984 410:0.080533296 411:-0.012272472 412:0.02393669 413:0.025014186 414:-0.02274963 415:-0.030022683 416:-0.00798526 417:0.025780493 418:0.037007213 419:0.03125564 420:0.031077797 421:0.03536308 422:-0.028077014 423:0.007153228 424:-0.015666937 425:0.058351718 426:-0.025355795 427:-0.010792871 428:-0.010744602 429:0.065002464 430:-0.031684082 431:0.0702063 432:-0.059845313 433:0.057624027 434:-0.03167477 435:3.6181485e-05 436:-0.009989595 437:0.053303454 438:-0.027611384 439:-0.014796283 440:0.03969821 441:0.036085315 442:-0.035934854 443:-0.021994947 444:0.0034752984 445:0.000746701 446:-0.096118815 447:-0.031125385 448:0.01036855 449:0.012133835 450:0.03413799 451:-0.051432233 452:-0.0027706898 453:-0.0067325477 454:-0.011827976 455:0.0072663054 456:-0.034833074 457:0.07491427 458:0.00062940555 459:0.015529163 460:-0.0049888575 461:-7.733271e-05 462:-0.03299239 463:-0.013956074 464:0.062683664 465:0.050270036 466:-0.027900038 467:-0.056956377 468:0.005060728 469:-0.006942249 470:0.008895009 471:-0.036755394 472:-0.030001566 473:-0.07469055 474:-0.04192553 475:-0.0435897 476:-0.01880262 477:-0.04329476 478:0.0048741465 479:0.007398464 480:0.06014918 481:-0.016869122 482:0.0016426872 483:0.008102501 484:-0.039249755 485:0.058957387 486:0.015756603 487:-0.022243043 488:0.0037775016 489:-0.04070603 490:0.017272392 491:0.0832411 492:-0.10817429 493:0.0420546 494:0.06816198 495:-0.0050100293 496:-0.076953694 497:0.020688295 498:0.00037414307 499:0.064326085 500:-0.08375361 501:-0.010969875 502:0.035957586 503:-0.011507313 504:-0.059879106 505:-0.006842456 506:0.09795629 507:-0.015126027 508:0.04134695 509:-0.009713044 510:0.05429657 511:0.029987086 
0 0 0 0.006695732787732226 0 0 0 0.3033252411354043 0 0 0 0.4638821971764975 0:-0.00437626 1:0.045027178 2:0.0058041946 3:0.03614882 4:-0.0349987 5:0.076047584 6:-0.12754534 7:0.07281044 8:-0.06081934 9:-0.08400554 10:0.050265573 11:-0.023241375 12:0.069989726 13:0.0070903413 14:-0.00094005 15:0.0017076008 16:-0.044938978 17:0.04851683 18:-0.02012218 19:-0.018598303 20:-0.020153968 21:-0.008163626 22:-0.07368248 23:-0.049476445 24:-0.00023168135 25:0.013404297 26:0.0308832 27:0.07103757 28:0.07202391 29:0.07751135 30:0.077540204 31:-0.048491046 32:0.030642547 33:0.01827358 34:-0.026510773 35:0.02388643 36:0.037606902 37:0.034247253 38:0.045999356 39:-0.0074202735 40:-0.013903685 41:0.036151633 42:0.07122074 43:-0.0025911133 44:0.04054414 45:-0.057257395 46:-0.05921826 47:-0.022374243 48:-0.00070785236 49:-0.06426931 50:-0.06971546 51:0.06478575 52:0.031924658 53:-0.042432573 54:-0.04662816 55:0.0636996 56:-0.023476666 57:0.019994697 58:0.016615 59:0.0050112465 60:0.11767526 61:0.014548609 62:-0.013082805 63:-0.030558866 64:-0.02885341 65:0.06271158 66:0.0072779236 67:0.038637146 68:-0.016516257 69:0.04388599 70:-0.022783866 71:0.0057878504 72:-0.017078467 73:-0.031012284 74:0.05316569 75:-0.05805998 76:-0.091890424 77:0.021598117 78:-0.024630437 79:-0.08044384 80:-0.006839976 81:0.0058244066 82:0.047367364 83:0.041882206 84:0.013778463 85:-0.06039078 86:0.027372127 87:0.10555054 88:-0.0031738232 89:0.035799664 90:0.020658007 91:-0.07992205 92:-0.02671236 93:0.008209161 94:0.0006825982 95:-0.031109784 96:0.092475675 97:-0.056903508 98:0.0012681494 99:0.0057541733 100:0.010702739 101:-0.0032755702 102:0.037943687 103:0.0024892376 104:-0.021483505 105:-0.0051293424 106:-0.008153674 107:-0.03639048 108:0.03584435 109:0.02740083 110:0.0013025401 111:0.1387392 112:-0.068913855 113:0.026881859 114:0.08246825 115:0.057614636 116:-0.011212819 117:0.025824104 118:0.038829956 119:-0.019170228 120:-0.021832684 121:0.022336252 122:-0.041750804 123:0.022798326 124:-0.016394852 125:0.024933727 126:-0.03518619 127:0.06293846 128:0.014790266 129:0.035053246 130:0.0069985036 131:0.029896943 132:0.066967934 133:0.0013843231 134:0.049916845 135:-0.029261718 136:0.05197336 137:-0.0071424423 138:-0.026534637 139:0.009949348 140:-0.011548192 141:-0.049705513 142:-0.02162252 143:-0.0059778197 144:0.02288382 145:-0.050808817 146:0.0006688286 147:-0.012584935 148:0.03096998 149:-0.007541157 150:0.038323507 151:-0.049975075 152:0.0408347 153:-0.031209802 154:0.06846949 155:0.005872217 156:0.05183483 157:-0.053710442 158:0.0520723 159:-0.009606886 160:-0.010777377 161:-0.0021716387 162:0.015914004 163:-0.0065819887 164:0.056483485 165:0.020559207 166:-0.013262833 167:-0.020515274 168:0.013721859 169:0.07105978 170:0.051835813 171:0.07798982 172:-0.014070497 173:0.026375202 174:-0.011632354 175:-0.07520527 176:0.07107182 177:-0.02944327 178:-0.030641127 179:0.010612949 180:0.0034516114 181:-0.014536171 182:-0.019611495 183:-0.0314062 184:0.0441576 185:0.06550156 186:-0.027636146 187:0.035028722 188:0.0063744118 189:-0.051436793 190:-0.019544642 191:-0.011385628 192:-0.015852174 193:-0.04905255 194:0.012805546 195:-0.014278306 196:0.009250575 197:0.005161133 198:0.038905445 199:0.058104295 200:-0.019956773 201:-0.023135554 202:-0.019564148 203:-0.032843154 204:-0.040509257 205:0.026520634 206:-0.11702251 207:-0.024939649 208:-0.041662995 209:-0.015702868 210:-0.03825562 211:-0.04550681 212:0.080950394 213:0.057428688 214:0.05260379 215:0.033741213 216:-0.03578074 217:0.08196723 218:0.057062346 219:-0.10057251 220:-0.030877773 221:-0.031586938 222:-0.10230063 223:-0.018198656 224:0.028575437 225:-0.022602092 226:0.030694803 227:-0.03224827 228:0.0026319101 229:-0.023168912 230:0.01668416 231:0.023507288 232:0.044824656 233:-0.04535737 234:0.048489776 235:0.022625297 236:0.049269035 237:-0.004415637 238:0.02065144 239:-0.035922628 240:-0.025184521 241:0.059487607 242:0.061769918 243:-0.023890167 244:0.0018428984 245:0.012234668 246:0.040397324 247:0.04088449 248:-0.077042505 249:0.009492529 250:-0.042493533 251:-0.053536907 252:-0.032188796 253:0.025608193 254:0.06990925 255:0.006522768 256:0.09029514 257:0.0042542834 258:0.12315701 259:-0.004096904 260:-0.03318623 261:-0.0964525 262:-0.017486798 263:-0.033048034 264:0.022722214 265:-0.061641734 266:0.034195106 267:-0.0024095848 268:-0.03274769 269:0.015626734 270:0.014274215 271:0.025093136 272:0.026955709 273:0.018872391 274:0.041233663 275:-0.018627932 276:0.036629826 277:-0.02236695 278:-0.027343541 279:-0.05436477 280:-0.007631967 281:-0.052995164 282:0.043639313 283:0.017272664 284:-0.00038327073 285:0.0013075263 286:0.015810046 287:-0.024793351 288:0.019054722 289:-0.045564868 290:0.02930222 291:-0.021966279 292:-0.09655915 293:0.047579158 294:-0.011939961 295:0.023916287 296:0.02225102 297:0.040453725 298:0.03674753 299:0.0814324 300:0.058658186 301:-0.026666243 302:0.04400427 303:-0.02093851 304:-0.0016078142 305:0.008263473 306:0.038772516 307:0.015701778 308:-0.04975381 309:0.020681212 310:0.019528575 311:-0.017894128 312:0.016268428 313:0.017001394 314:0.025575887 315:-0.03256404 316:0.007225352 317:-0.09308506 318:-0.043835625 319:0.045589536 320:-0.015146155 321:-0.07191845 322:-0.11312461 323:0.0104633 324:-0.05607554 325:0.010233534 326:0.06104391 327:0.014899829 328:0.07637701 329:0.015097279 330:0.05074759 331:-0.11667328 332:-0.04929894 333:-0.041252423 334:0.025437249 335:0.01956045 336:-0.031447355 337:-0.023269907 338:0.018189093 339:0.012016646 340:0.009365794 341:-0.028715499 342:0.06361284 343:0.053633023 344:-0.042583868 345:-0.009414309 346:-0.007933135 347:-0.06246889 348:0.04655146 349:0.043007467 350:-0.042161 351:-0.024193622 352:0.04290281 353:0.09122519 354:0.036961433 355:-0.057555683 356:0.0062790504 357:0.018810092 358:-0.035854418 359:-0.014596968 360:-0.053281825 361:-0.024984227 362:-0.08716978 363:-0.06015234 364:-0.0331011 365:-0.0034021433 366:0.023179635 367:0.028307315 368:-0.050403703 369:0.025016777 370:0.072763726 371:-0.03397857 372:0.00013320104 373:-0.027610587 374:0.027810512 375:-0.09337627 376:0.056254394 377:-0.045196492 378:0.034301493 379:-0.045397248 380:0.0042455103 381:-0.042155724 382:0.0013994647 383:-0.046443734 384:-0.011230215 385:-0.042778354 386:0.009442318 387:-0.09772313 388:0.06308443 389:-0.0028336237 390:0.023723705 391:0.06567698 392:-0.014763277 393:-0.06262285 394:-0.038803466 395:0.10440762 396:0.062725805 397:0.077209696 398:-0.031480238 399:0.052179262 400:0.04849527 401:0.07459812 402:0.048882484 403:-0.019059306 404:-0.032400925 405:0.016336087 406:-0.013587232 407:0.034034215 408:-0.0053309607 409:0.01958553 410:0.06754268 411:0.04218283 412:0.03278637 413:0.043624178 414:0.005611749 415:-0.050731573 416:-0.054269154 417:0.031091934 418:0.034080815 419:0.021683017 420:0.010077025 421:0.012655237 422:-0.026489124 423:-0.06336258 424:-0.03161167 425:0.012684648 426:-0.01053004 427:-0.021639839 428:-0.01943671 429:0.058705345 430:0.050403275 431:0.004882682 432:-0.085246764 433:0.043716636 434:-0.00015766112 435:0.059029933 436:0.03021699 437:0.020933047 438:0.013284171 439:0.02271257 440:0.09959783 441:0.06803702 442:-0.045593336 443:-0.063077584 444:-0.0050401264 445:0.025942732 446:-0.09156281 447:-0.021605588 448:0.06641773 449:0.012417238 450:0.032835044 451:-0.014097223 452:0.011365649 453:0.04551054 454:0.059635643 455:-0.00832788 456:-0.01021332 457:-0.013308122 458:-0.032826405 459:0.015377889 460:0.0024601337 461:-0.037299737 462:0.056347292 463:-0.033407792 464:0.053609174 465:0.013932301 466:0.047183014 467:-0.030028202 468:-0.089690976 469:0.034697853 470:-0.04769533 471:-0.034595657 472:0.010752954 473:-0.09789373 474:0.004628311 475:-0.03344615 476:-0.03240865 477:-0.083337925 478:0.0077941553 479:-0.009241172 480:0.0074171736 481:-0.013721502 482:-0.0018127811 483:-0.0042105354 484:-0.02018995 485:0.024468636 486:-0.010655557 487:-0.042273644 488:-0.021833722 489:0.029018745 490:-0.01958382 491:0.081700206 492:-0.04608205 493:0.061482023 494:0.007459806 495:-0.01821799 496:-0.0046738456 497:-0.018892644 498:0.00024869703 499:0.030685825 500:-0.040294476 501:0.0572588 502:-0.024288928 503:-0.06412723 504:-0.065088995 505:-0.042722277 506:0.08109623 507:-0.059024446 508:0.02227845 509:0.06924253 510:0.09572252 511:0.053258955 
0.3070805475211658 0 0 0 0 0 0 0.3565403865683773 0.2367700659815079 0 0.5293935427370572 0.3319499164336093 0:-0.04496491 1:0.05163808 2:0.025476342 3:0.03111033 4:0.0026509545 5:0.043337237 6:-0.07636915 7:0.0066061895 8:-0.013436248 9:-0.08286522 10:0.060210016 11:-0.053313356 12:0.035511345 13:-0.038903736 14:-0.030289885 15:0.025584603 16:-0.06338036 17:0.030417534 18:-0.031236388 19:-0.06814962 20:-0.024944296 21:0.011112582 22:-0.10192492 23:0.013551476 24:-0.034519356 25:0.015793927 26:-0.0043613957 27:0.017310463 28:-0.010559716 29:0.0617831 30:0.067253664 31:-0.007760317 32:0.123504 33:0.010581717 34:-0.006252499 35:0.044187736 36:0.04515936 37:0.030025873 38:0.055774417 39:-0.005630059 40:-0.0036155588 41:-0.021101229 42:0.08577101 43:-0.03874824 44:0.04987256 45:-0.006622713 46:-0.099175215 47:-0.009960599 48:0.003212975 49:-0.02324456 50:0.0030810165 51:0.10729465 52:0.00819712 53:-0.010863489 54:-0.018425656 55:0.019882005 56:0.031908933 57:-0.016974894 58:-0.0040300726 59:9.0260975e-05 60:0.1045865 61:-0.025654346 62:0.021145107 63:-0.056554668 64:-0.08013161 65:0.039338294 66:-0.025162894 67:0.055218864 68:-0.02341533 69:0.08053734 70:0.0097263055 71:-0.016302664 72:-0.03504193 73:0.0006328592 74:0.054891568 75:-0.03860612 76:-0.10684253 77:0.06485502 78:-0.03564059 79:-0.009496296 80:-0.023003684 81:0.03988777 82:0.00342027 83:-0.0017135624 84:0.020544829 85:-0.054572888 86:0.074223615 87:0.07680876 88:0.010666167 89:-0.010757585 90:-0.038140688 91:-0.08052048 92:-0.0040721796 93:0.038253054 94:0.029028844 95:0.0012061892 96:0.075123854 97:-0.028020104 98:0.023076348 99:0.021149417 100:-0.018285416 101:0.012994095 102:-0.0012099531 103:-0.015945105 104:0.003900545 105:-0.030794838 106:-0.0017540563 107:-0.012640949 108:0.047037594 109:-0.014864514 110:0.037762195 111:0.10702839 112:-0.08136277 113:-0.037436362 114:0.11607166 115:0.077428445 116:0.03602852 117:-0.020653216 118:0.013742712 119:-0.03277212 120:-0.044864524 121:0.033593617 122:-0.08777859 123:0.068713665 124:0.012305756 125:0.028940327 126:-0.036790315 127:0.0244947 128:0.032959115 129:0.03652621 130:0.032920692 131:0.019679595 132:0.07630108 133:-0.024956552 134:0.033615123 135:-0.0499156 136:0.03664592 137:-0.017694546 138:-0.04044981 139:0.0061819046 140:0.031732704 141:-0.044067036 142:-0.049699582 143:-0.009015642 144:0.023910234 145:-0.06562929 146:0.0030483417 147:0.0035981266 148:-0.029918259 149:-0.018431326 150:0.0007548195 151:-0.050194673 152:0.005160617 153:-0.06352364 154:0.045225874 155:0.00455087 156:0.03190273 157:-0.0076933103 158:0.08962327 159:0.00017836939 160:-0.019584348 161:0.0049648704 162:0.033540048 163:-0.011117579 164:-0.012025964 165:-0.013472388 166:-0.010489233 167:0.05539186 168:0.034759067 169:0.060237195 170:0.046214297 171:0.072138116 172:-0.0017054331 173:-0.0025081723 174:-0.0068180305 175:-0.005263508 176:0.034503542 177:-0.05129251 178:-0.0077897618 179:-0.02876558 180:0.003351111 181:-0.032570213 182:-0.007881301 183:-0.001507602 184:0.07283621 185:0.072401725 186:-0.037937187 187:0.054784607 188:0.0077990294 189:0.027108097 190:-0.03984222 191:-0.02670674 192:0.0025363034 193:-0.04090565 194:-0.0057310425 195:-0.095342286 196:0.06720295 197:-0.024071123 198:0.0043926314 199:-0.00518349 200:-0.005171172 201:-0.04519711 202:0.025107533 203:-0.011223073 204:-0.04958983 205:0.013664655 206:-0.08973062 207:-0.024162773 208:-0.070724934 209:0.003566306 210:-0.004746289 211:-0.043103777 212:0.07063455 213:0.026951691 214:0.07532397 215:0.03413764 216:-0.008498846 217:0.043521095 218:0.07031697 219:-0.13042894 220:-0.030646432 221:-0.051325478 222:-0.10437634 223:-0.0012988134 224:0.012886901 225:-0.087956734 226:0.04388725 227:0.0038660495 228:-0.0015354146 229:-0.013320863 230:0.011458374 231:0.022995878 232:0.011610379 233:-0.00026593375 234:0.042356633 235:0.006478295 236:0.00966984 237:0.018009083 238:0.043349344 239:-0.04104222 240:0.012990918 241:0.0696686 242:0.044773124 243:-0.032568976 244:0.029917303 245:-0.014598059 246:0.09187583 247:0.04520157 248:-0.051337812 249:-0.041301467 250:-0.040385798 251:-0.064048484 252:0.0024582746 253:0.0010459239 254:0.10845441 255:0.0096387705 256:0.055930924 257:-0.030221876 258:0.07385585 259:0.058933433 260:-0.0038195702 261:-0.07283702 262:-0.01584719 263:-0.01236189 264:-0.009468519 265:-0.05276944 266:0.042018645 267:0.039457466 268:-0.015391472 269:-0.011918868 270:-0.0063914163 271:0.040385164 272:0.00038672014 273:0.004314357 274:0.093855135 275:-0.019496161 276:0.08342417 277:0.02801721 278:-0.022999993 279:-0.0636888 280:-0.033716567 281:-0.03717171 282:0.08112634 283:-0.011058809 284:0.011380784 285:-0.0013678725 286:0.040994395 287:-0.03267791 288:-0.04541666 289:-0.058401417 290:0.00921402 291:0.0017154558 292:-0.02690331 293:-0.005888603 294:0.024689768 295:0.053407807 296:0.014959644 297:0.031778086 298:0.092182875 299:0.065164745 300:0.051108457 301:-0.033583127 302:0.04165774 303:-0.013055343 304:-0.03383393 305:0.025632294 306:0.023747403 307:-0.035458677 308:0.022059783 309:-0.0010986022 310:0.017182624 311:-0.01893422 312:0.08814742 313:-0.0034233753 314:-0.0013712619 315:-0.038150735 316:-0.0041526505 317:-0.04335214 318:-0.03480003 319:0.03127069 320:-0.023779057 321:-0.013500261 322:-0.1044489 323:-0.019541817 324:-0.05554785 325:-0.00038874638 326:0.011659023 327:-0.0024979531 328:0.080841534 329:0.030530851 330:0.017917495 331:-0.0634758 332:-0.004901557 333:0.020908874 334:-0.018207684 335:0.026455304 336:-0.031620987 337:-0.033368163 338:0.030560128 339:0.0011426242 340:-0.008273765 341:-0.07975905 342:0.07475531 343:0.01658136 344:-0.0282321 345:-0.062291626 346:-0.014052626 347:-0.052673627 348:0.03542585 349:-0.017592825 350:-0.07204459 351:0.020895427 352:-0.0092680855 353:0.06932907 354:0.06761641 355:-0.012193429 356:0.0061224606 357:-0.0073399134 358:-0.040356304 359:-0.029814623 360:-0.0588671 361:0.004806384 362:-0.02111198 363:-0.080910645 364:-0.05157206 365:-0.03030444 366:-0.04080812 367:0.07012655 368:-0.051488977 369:-0.023972431 370:0.11509359 371:-0.028041665 372:-0.04521216 373:-0.050697062 374:0.03889333 375:-0.058017552 376:0.052247085 377:-0.052229945 378:-0.0067861327 379:-0.004063318 380:-0.01001944 381:-0.027357869 382:-0.014531636 383:-0.018185899 384:-0.020735463 385:-0.06350219 386:0.0053993734 387:-0.108459 388:0.05547191 389:0.034828573 390:0.0071454244 391:0.040451262 392:0.02063043 393:-0.024536194 394:-0.07860779 395:0.033587217 396:0.069773585 397:0.08270865 398:-0.017473012 399:0.045672268 400:0.03433576 401:0.009543091 402:0.008747972 403:-0.04121896 404:-0.014692854 405:0.023380602 406:-0.004614522 407:0.017057566 408:-0.042688668 409:-0.013583447 410:0.045413163 411:0.014870586 412:0.017521296 413:-0.0051637753 414:-0.022755843 415:0.009315391 416:-0.08185323 417:0.03695199 418:0.019903695 419:0.04884288 420:0.014922624 421:-0.054995935 422:-0.02199687 423:-0.08090402 424:-0.08972261 425:0.03392487 426:0.005485649 427:-0.019297637 428:-0.0065954304 429:0.04191033 430:0.012837592 431:0.0051834895 432:-0.0950866 433:0.024500437 434:0.021642884 435:0.0072317207 436:-0.0043080654 437:0.022079114 438:-0.0029070927 439:0.04531411 440:0.06359685 441:0.09316447 442:-0.036373824 443:-0.0357867 444:-0.01950786 445:-0.0046081655 446:-0.07595777 447:-0.02728507 448:0.070851274 449:-0.02405195 450:-0.038100295 451:-0.042107806 452:0.004734741 453:0.013494496 454:-0.042264305 455:-0.0059284912 456:-0.014629634 457:-0.00088475924 458:-0.058056414 459:0.055651877 460:-0.0520724 461:-0.04552724 462:0.062097818 463:-0.0034579053 464:0.056538742 465:0.03144531 466:0.017179552 467:-0.03455785 468:-0.07289168 469:-0.0015893467 470:-0.02972263 471:-0.057594143 472:-0.098403364 473:-0.06630207 474:-0.063214004 475:-0.0025565366 476:-0.01458566 477:-0.049766302 478:0.046622947 479:-0.00623011 480:-0.004883503 481:-0.05686289 482:-0.02979811 483:-0.041952167 484:-0.0053279176 485:-0.014138914 486:0.037010606 487:-0.030277811 488:-0.013585193 489:-0.02977197 490:-0.001209599 491:0.11642032 492:0.02438578 493:0.018420232 494:0.037695147 495:0.04856089 496:-0.024085885 497:-0.0072128717 498:0.019775381 499:0.0075877663 500:-0.026683992 501:0.04562061 502:0.019879578 503:-0.039209507 504:-0.013125965 505:0.017976772 506:0.10137952 507:-0.10345975 508:0.062180113 509:0.0320808 510:0.061893024 511:0.031173736 
-0 0.4053118895721087 0.1508009952457726 0 0 0.489419891669597 0.4562542395980876 0 0.5293386144794671 0.5538213878217936 0.3427905912888927 0.1087026353367242 0:-0.014511917 1:0.058482707 2:0.014482379 3:-0.005284931 4:0.11726623 5:-0.040644497 6:0.03524908 7:-0.018961566 8:0.013515264 9:0.0674724 10:0.012457727 11:0.017220903 12:-0.0042199185 13:-0.07328161 14:-0.041756533 15:0.00075711915 16:0.0055791363 17:0.021953145 18:-0.050215956 19:0.04889407 20:0.02041593 21:-0.022904813 22:-0.0387586 23:-0.04445364 24:-0.060857587 25:0.007411841 26:0.09892634 27:0.01995057 28:0.01421185 29:-0.018752841 30:0.0033980864 31:-0.03849633 32:-0.03280044 33:-0.06347854 34:-0.027179608 35:-0.062933534 36:0.025067268 37:-0.014339271 38:-0.0083572995 39:-0.03327878 40:-0.0451215 41:0.030847192 42:-0.018994667 43:0.040744733 44:-0.00012211183 45:0.019680927 46:0.0043473244 47:-0.0429709 48:0.035478037 49:-0.004369953 50:-0.026717402 51:-0.049515385 52:-0.028400986 53:-0.027925089 54:-0.034673385 55:0.017192334 56:0.00894218 57:-0.06287664 58:-0.0756974 59:-0.032892026 60:0.006843449 61:0.022268297 62:-0.052608266 63:0.021800803 64:-0.02053855 65:-0.062080454 66:-0.0709431 67:0.0037101947 68:-0.013126968 69:-0.0047596293 70:-0.0066431197 71:0.024770934 72:-0.029232869 73:-0.052506454 74:0.0091892695 75:-0.012518648 76:-0.029377649 77:-0.0034775871 78:-0.003290816 79:-0.032919895 80:-0.05449669 81:-0.02889117 82:0.030241078 83:-0.04103472 84:-0.00400365 85:-0.019592194 86:-0.06638442 87:0.0051683444 88:0.040838182 89:0.0584057 90:-0.043490455 91:-0.008341044 92:-0.004031558 93:0.03952254 94:-0.0069313506 95:-0.018451482 96:-0.00013647397 97:0.021850253 98:0.0034178442 99:-0.03290331 100:-0.04137123 101:0.03307234 102:-0.029625304 103:0.052928355 104:-0.0016193792 105:-0.02577136 106:-0.070080884 107:-0.014850294 108:0.03363532 109:0.0631296 110:0.013689778 111:0.005094767 112:-0.019800495 113:0.077987276 114:0.018574663 115:0.0080175465 116:-0.012872057 117:0.044689864 118:0.069631875 119:-0.0057986677 120:0.095988944 121:-0.06309167 122:-0.011640075 123:-0.023513056 124:0.028093357 125:-0.014491029 126:0.0492494 127:-0.040448014 128:-0.049764697 129:0.011796036 130:-0.017806811 131:0.04634683 132:0.003248376 133:-0.01672458 134:0.017567731 135:-0.03815141 136:-0.014727578 137:-0.047300767 138:-0.07433328 139:0.009908642 140:-0.019782407 141:0.025096502 142:-0.1017869 143:0.045768913 144:-0.048025783 145:-0.009993144 146:0.06341095 147:-0.0585134 148:0.023807537 149:0.022724781 150:-0.059570093 151:0.02765818 152:0.035895012 153:0.006789738 154:0.06613002 155:0.035676062 156:-0.03165117 157:0.015117146 158:0.025523875 159:0.05322582 160:0.060832787 161:-0.027485495 162:-0.036789544 163:-0.011834867 164:-0.07760077 165:-0.024580315 166:0.1001841 167:-0.013777768 168:0.052609768 169:-0.023159254 170:-0.019950012 171:0.015737902 172:-0.036442436 173:0.029818157 174:-0.004177768 175:0.0672842 176:-0.011013367 177:0.02923192 178:0.04277834 179:-0.034434848 180:0.06804877 181:-0.031019812 182:-0.04949298 183:0.004364991 184:0.06095169 185:0.012187593 186:-0.053431842 187:0.014378434 188:0.013372733 189:0.047151227 190:-0.08439243 191:0.010923548 192:-0.059467856 193:-0.038384095 194:0.058148056 195:-0.01643252 196:-0.030266972 197:-0.018042829 198:0.073621385 199:-0.03627754 200:-0.026073433 201:-0.099054374 202:-0.05501638 203:-0.055200715 204:-0.027208429 205:0.06192462 206:0.01090814 207:-0.011321187 208:0.047407236 209:-0.035725493 210:-0.017686144 211:-0.014139868 212:0.04085456 213:-0.08471043 214:0.014730895 215:-0.043844417 216:-0.1128486 217:0.073911965 218:-0.031382576 219:0.040422466 220:0.019960644 221:0.049828082 222:0.021432042 223:0.08202383 224:0.023232307 225:-0.036352742 226:-0.03104534 227:-0.0046286425 228:0.02944693 229:0.005568976 230:-0.093507394 231:-0.055140007 232:0.02806836 233:-0.05498534 234:-0.0041117347 235:0.011723565 236:-0.021937223 237:0.018395402 238:-0.004809978 239:0.08446445 240:0.044823386 241:0.0069619548 242:-0.06034938 243:-0.009485594 244:-0.059785377 245:-0.03984117 246:-0.023243833 247:-0.025445867 248:0.0057616676 249:0.023594053 250:-0.014237983 251:0.011787599 252:0.05644866 253:-0.017631227 254:-0.033014428 255:0.010202316 256:-0.0048648706 257:0.10668272 258:0.0074876305 259:-0.05780597 260:0.0036418287 261:0.07981408 262:-0.07072811 263:0.08113769 264:0.10351995 265:-0.0013196134 266:-0.044526525 267:-0.04031073 268:0.016020797 269:-0.023491343 270:0.020983592 271:-0.027775269 272:0.0692695 273:-0.07414911 274:0.034850206 275:0.09424975 276:0.024516912 277:0.011333989 278:-0.011397406 279:-0.028158862 280:-0.02151078 281:0.056639437 282:0.019572664 283:0.06115879 284:-0.02510802 285:0.013693781 286:0.01690479 287:0.043907728 288:0.053050518 289:-0.016503055 290:-0.09050254 291:-0.08397248 292:-0.09952441 293:0.02599226 294:0.015582208 295:-0.033993986 296:0.06319057 297:-0.0028289566 298:0.030872641 299:-0.0504899 300:-0.024658216 301:0.07297457 302:-0.04169362 303:-0.05774624 304:-0.032895833 305:0.011900585 306:0.053860854 307:-0.027035946 308:-0.0686721 309:-0.010937431 310:0.11589232 311:-0.0018678735 312:-0.054240007 313:-0.011260098 314:0.05808132 315:-0.041216932 316:0.03134975 317:0.056050114 318:-0.029814983 319:-0.033828184 320:0.027064333 321:-0.024745544 322:0.01766416 323:0.07224292 324:0.031050667 325:-0.06419559 326:0.062505506 327:0.029153125 328:0.012556339 329:-0.09808374 330:-0.027118206 331:-0.012326302 332:0.054664247 333:0.021459078 334:-0.042779148 335:0.03429791 336:0.013181371 337:-0.083862536 338:0.0028474794 339:0.048878726 340:-0.022489874 341:0.037140608 342:-0.014264905 343:0.071593605 344:0.0038957922 345:0.04250913 346:-0.00965162 347:0.0049162963 348:-0.0014797233 349:-0.0050868983 350:-0.00045771207 351:0.07939155 352:0.03200983 353:-0.03433463 354:-0.026518596 355:-0.01499902 356:0.004230716 357:0.03596801 358:0.04337005 359:-0.04177551 360:0.0084340535 361:-0.034722224 362:-0.00995108 363:0.000704202 364:0.047884192 365:-0.0042023123 366:0.016143722 367:-0.023747649 368:0.067831874 369:0.020319568 370:-0.033152927 371:-0.09189894 372:0.04015324 373:0.01575602 374:0.016942613 375:-0.05045455 376:0.03752843 377:0.01179782 378:-0.11830232 379:-0.03193434 380:0.033985455 381:-0.0155853 382:0.0057884897 383:-0.008434306 384:-0.06133264 385:0.052627515 386:-0.0054173586 387:0.049271926 388:0.040241923 389:-0.03470751 390:-0.048602812 391:-0.024134528 392:-0.10722067 393:0.015390455 394:0.023154164 395:0.047832143 396:0.04264288 397:-0.0054909913 398:-0.028580649 399:-0.06484118 400:-0.027941324 401:0.014872469 402:-0.0027978772 403:0.004566386 404:0.036592674 405:0.03651737 406:-0.08073188 407:0.05789323 408:0.018890334 409:0.0065530157 410:0.016333427 411:0.07624853 412:-0.03607701 413:0.042432383 414:0.04330443 415:0.03877414 416:-0.004687045 417:0.064006045 418:-0.048102133 419:0.013939611 420:-0.013024669 421:0.050582178 422:0.0015222011 423:-0.015012838 424:0.014109422 425:0.044362605 426:-0.05902077 427:-0.071646735 428:-0.0052059717 429:0.08663094 430:-0.11788027 431:-0.011657495 432:-0.011168863 433:0.047128286 434:-0.056490798 435:-0.019400649 436:-0.056997713 437:0.03960211 438:0.0312877 439:0.001154978 440:0.024346348 441:0.06637799 442:-0.048356604 443:-0.11992624 444:-0.07498906 445:-0.019869193 446:0.051591743 447:-0.02562742 448:-0.047038592 449:-0.013343198 450:0.014681086 451:-0.0011895609 452:0.03850225 453:0.030211046 454:-0.03704199 455:0.021705125 456:0.02394493 457:0.022444785 458:-0.035160013 459:-0.06598249 460:0.11776979 461:0.03760943 462:0.030133989 463:-0.015712103 464:0.017370822 465:0.09227426 466:-0.0002303122 467:-0.026831502 468:0.02207843 469:-0.10773332 470:0.0084514525 471:-0.029107198 472:-0.003032243 473:-0.027334498 474:-0.018789805 475:0.01157521 476:0.067135595 477:0.041451823 478:-0.03653898 479:-0.08132989 480:0.045444097 481:0.039249472 482:-0.04289196 483:-0.029049689 484:0.043941684 485:0.043752227 486:-0.00010380885 487:-0.066408634 488:-0.016637009 489:0.008217117 490:0.055796314 491:-0.033783507 492:-0.030900013 493:-0.006859216 494:0.025253097 495:-0.05191821 496:-0.078117356 497:-0.071309485 498:-0.068289846 499:0.026998362 500:-0.03498371 501:-0.052562486 502:0.023045147 503:-0.061225027 504:-0.0013210209 505:0.057472363 506:0.011058515 507:0.03222066 508:0.06458221 509:-0.1118967 510:0.015630122 511:0.04885113 
