svm_type c_svc
kernel_type linear
nr_class 10
total_sv 92
rho -0.0330796 -0.131198 0.0753307 0.0695825 -0.0957555 0.0891096 -0.144537 0.140419 -0.0183635 -0.229542 0.0203523 0.0145225 -0.149211 0.0750564 -0.158586 0.0891912 0.058275 0.430659 0.215726 0.157922 0.340654 -0.0336954 0.248472 0.410865 0.00331821 -0.262519 -0.0302209 -0.304815 0.0287236 -0.0734729 -0.237568 0.208455 -0.217984 0.101371 0.147135 0.374904 -0.0823073 0.202441 0.210701 -0.21408 0.0078335 -0.0935981 0.339639 0.279361 -0.0769643
label 0 1 2 3 4 5 6 7 8 9
probA -2.75186 -2.53321 -2.68511 -2.65381 -2.55953 -2.66026 -2.52622 -2.71251 -2.59176 -2.49748 -2.59284 -2.63561 -2.61342 -2.61127 -2.49934 -2.66941 -2.59134 -2.74198 -2.41844 -2.5909 -2.60165 -2.37118 -2.72662 -2.82837 -2.68027 -2.67013 -2.87784 -2.5504 -2.62104 -2.92321 -2.59764 -2.56171 -2.51264 -2.48721 -2.64847 -2.63734 -2.42155 -2.65794 -2.59688 -2.52648 -2.58267 -2.42035 -2.65414 -2.46463 -2.72469
probB -0.0969708 -0.0635237 0.0822017 0.235072 -0.0404449 0.250537 -0.111615 -0.00962497 0.0388348 -0.0787008 0.0697038 0.0654129 -0.117078 0.0766656 -0.131554 -0.0510007 0.00755095 0.321494 0.081151 -0.0303598 0.110624 -0.0311014 0.320496 0.243132 -0.0110766 -0.213843 -0.121074 -0.163355 -0.124138 -0.125664 -0.324572 -0.123719 -0.0983014 -0.131306 0.00975867 0.256954 0.0218673 -0.053139 0.0967172 -0.259299 -0.178319 -0.114463 0.0644244 0.105853 0.155965
nr_sv 9 10 10 8 9 10 9 9 9 9
SV
0.2583426138654242 0.6219908113985924 0.3773578956402439 0 0.3599598982343883 0.427357872776489 0.4965154299868478 0.4917442440936088 0.4233171389770143 0:-0.007307088 1:-0.002983124 2:-0.015822308 3:0.050612796 4:0.022698406 5:0.048556026 6:-0.10115267 7:0.035103925 8:-0.084924005 9:-0.027660716 10:0.11009587 11:-0.019511482 12:0.049854033 13:-0.030200588 14:0.03535911 15:0.037619352 16:-0.04039616 17:0.073479176 18:-0.017847313 19:0.016743058 20:0.046813235 21:0.008668337 22:-0.07779522 23:-0.016496938 24:-0.036850143 25:0.035666786 26:0.042683195 27:0.036097188 28:0.025935553 29:0.054824844 30:0.019369395 31:-0.046407126 32:0.028504808 33:0.015484247 34:-0.03402172 35:0.03809697 36:0.044020593 37:0.054003403 38:0.054645497 39:0.035825435 40:-0.0735046 41:0.07998506 42:0.03533789 43:-0.015895221 44:0.012961811 45:-0.007344981 46:0.0022315388 47:-0.014143214 48:-0.026204647 49:0.003954185 50:-0.06138275 51:0.04189654 52:0.019484421 53:0.0026422497 54:-0.01367052 55:0.03301164 56:0.047953304 57:-0.007998258 58:-0.023444552 59:-0.011903007 60:0.11728456 61:0.03540804 62:-0.047730245 63:-0.08420785 64:0.0021148627 65:0.04531783 66:0.014832657 67:-0.023865664 68:0.0007195407 69:0.042920835 70:-0.0036244881 71:-0.006196667 72:-0.037374604 73:-0.047107283 74:0.03355508 75:0.019051112 76:-0.065754205 77:0.06702273 78:-0.031790875 79:-0.06480059 80:-0.018342733 81:0.030256074 82:0.055600572 83:0.019440336 84:0.0252333 85:-0.050336424 86:0.022124454 87:0.13623647 88:-0.034349557 89:0.01675086 90:-0.042057145 91:-0.06516326 92:-0.0814379 93:0.0497834 94:0.031104293 95:-0.047913663 96:0.05394071 97:-0.077380255 98:-0.012156157 99:0.027035244 100:-0.050776366 101:-0.018962895 102:0.027399104 103:-0.011987547 104:0.011857969 105:-0.03994955 106:-0.03536223 107:-0.06370254 108:0.013762081 109:0.003114002 110:-0.028141463 111:0.10022535 112:-0.073195875 113:-0.010193006 114:0.068169594 115:0.06260513 116:0.016470032 117:0.041575056 118:0.024954585 119:-0.0067272754 120:-0.03491706 121:-0.045151707 122:-0.013258361 123:0.037794776 124:-0.0021178138 125:0.01263577 126:-0.092320375 127:0.012207836 128:0.031123396 129:-0.0037870302 130:0.047543004 131:0.024859538 132:0.052132748 133:-0.038031656 134:0.0400199 135:-0.014825615 136:0.06672306 137:0.025480475 138:-0.039925773 139:-0.023491569 140:0.02991064 141:-0.034936134 142:-0.04104396 143:-0.0023759317 144:0.00045876793 145:-0.02635331 146:-0.006233417 147:-0.028756816 148:0.009105786 149:0.023506517 150:-0.007733348 151:-0.07646487 152:-0.019040626 153:-0.020312442 154:0.062683955 155:-0.00056199566 156:0.050753094 157:0.046594724 158:0.039782543 159:-0.031829245 160:-0.042969566 161:-0.010102416 162:-0.045944825 163:0.025628304 164:0.039694704 165:0.013192233 166:-0.030317092 167:-0.03384076 168:0.061038032 169:0.023000235 170:0.025776306 171:0.03385879 172:-0.03219857 173:-0.0057884404 174:0.009618334 175:-0.038281735 176:0.06521745 177:-0.038363017 178:-0.040110953 179:0.0026665537 180:-0.0031940618 181:-0.050888903 182:0.00905322 183:-0.007188364 184:0.031619858 185:0.052254315 186:-0.004137767 187:0.04201252 188:-0.026831113 189:-0.045537908 190:-0.06980349 191:0.00064886705 192:0.051816165 193:0.020479277 194:0.001013633 195:5.5877274e-05 196:-0.014776416 197:0.03301288 198:0.008597685 199:0.09369275 200:-0.008317439 201:-0.009523215 202:-0.017686531 203:-0.042028382 204:-0.065214336 205:0.063977666 206:-0.11357091 207:-0.026334867 208:-0.05558105 209:-0.033538505 210:-0.015439776 211:-0.06741648 212:0.03479603 213:0.023550915 214:-0.0037951663 215:0.0054212045 216:-0.03593259 217:0.07636682 218:0.04417376 219:-0.07417064 220:-0.022593902 221:-0.05124132 222:-0.031780023 223:0.0059400387 224:0.052220784 225:-0.0749604 226:-0.012418624 227:-0.019289928 228:-0.0102701 229:-9.799483e-05 230:-0.02352459 231:0.07062454 232:0.025609039 233:-0.078568086 234:0.083000466 235:-0.0042986223 236:0.03876003 237:-0.0034266606 238:0.024247978 239:-0.008054575 240:-0.02798772 241:0.0476921 242:0.04971125 243:0.027637398 244:-0.017062064 245:0.032395102 246:-0.03150617 247:0.03605016 248:-0.03838141 249:0.022140352 250:-0.027031673 251:-0.0001707614 252:-0.025222404 253:-0.0036267845 254:0.054713786 255:0.00530746 256:0.021451002 257:0.051639408 258:0.10558327 259:-0.019203244 260:-0.043675523 261:-0.12326933 262:-0.03139631 263:0.02858767 264:-0.05246564 265:-0.04521213 266:0.058108028 267:-0.03697999 268:-0.041413147 269:0.027547833 270:-0.008145577 271:-0.008683259 272:-0.013296744 273:-0.022272503 274:0.030348271 275:0.019886266 276:-0.003304928 277:-0.020294378 278:-0.10731742 279:-0.039198413 280:-0.0020553973 281:-0.039121494 282:0.0026682327 283:0.024949232 284:0.00435496 285:0.045418598 286:0.062680274 287:-0.089271106 288:-0.00073408766 289:-0.046720322 290:0.034031324 291:-0.054981615 292:-0.05603782 293:0.06739223 294:-0.02400366 295:-0.011774041 296:0.038317963 297:0.046246476 298:0.043779343 299:0.026515527 300:0.05389921 301:0.011493334 302:0.026088735 303:-0.0012880341 304:-0.030603107 305:-0.009075234 306:0.0046267947 307:0.064219624 308:-0.06652897 309:-0.017763546 310:0.04646594 311:-0.020017177 312:0.033894844 313:0.019672437 314:0.025202047 315:0.039750244 316:0.017953962 317:-0.07461727 318:-0.01851971 319:0.0472189 320:-0.036319513 321:-0.019174615 322:-0.092492945 323:0.006635887 324:-0.040405393 325:0.052495018 326:0.05626196 327:0.04995932 328:0.07992076 329:0.05751239 330:0.026112532 331:-0.08927725 332:-0.056225944 333:-0.0214431 334:0.014355177 335:0.01788734 336:-0.026989162 337:-0.06574058 338:-0.03207404 339:0.059217077 340:0.0073591033 341:0.0010518928 342:0.033591673 343:0.078684226 344:-0.0063340184 345:0.0063866274 346:-0.025999105 347:-0.00875188 348:0.03410068 349:0.005085502 350:-0.034048006 351:0.054296214 352:0.010900182 353:0.053686827 354:0.030559262 355:-0.029368885 356:-0.00055498944 357:-0.02062642 358:-0.037226755 359:-0.00542045 360:-0.02256214 361:-0.0056460504 362:-0.08442996 363:-0.07044816 364:-0.045928147 365:0.045075357 366:0.04564775 367:0.04830423 368:-0.032758877 369:-0.008071602 370:0.00058281777 371:-0.018084574 372:0.022754403 373:-0.050997958 374:0.011077521 375:-0.078585 376:0.050934594 377:-0.071625486 378:-0.0017609518 379:-0.098401904 380:0.04401618 381:-0.0838677 382:-0.00072540843 383:-0.03813393 384:-0.009692656 385:-0.037955593 386:0.008292485 387:-0.13170439 388:0.03503821 389:0.016321598 390:0.0051018465 391:0.059395064 392:-0.022939205 393:-0.090224296 394:-0.040672127 395:0.12130064 396:0.02563478 397:0.041314848 398:-0.0042853383 399:0.043837026 400:-0.00621279 401:0.07888563 402:0.058466107 403:-0.042461056 404:0.011987283 405:0.061106432 406:-0.01657603 407:0.029013244 408:0.01630619 409:-0.0056476523 410:0.061724365 411:0.00082483195 412:0.053821884 413:0.015102019 414:-0.049044427 415:0.008391574 416:-0.030354323 417:-0.019480534 418:0.040645927 419:0.022075694 420:0.020900283 421:-0.018056996 422:-0.066839345 423:-0.054700814 424:-0.052019175 425:0.03260058 426:0.023158954 427:-0.032649994 428:0.020539563 429:0.11729335 430:0.049941927 431:0.014904546 432:-0.087811105 433:0.0270307 434:-0.019800272 435:0.03874281 436:0.014487126 437:0.012853527 438:-0.0011812202 439:0.02088485 440:0.061824 441:0.07275156 442:-0.09019672 443:-0.048749335 444:0.026332242 445:-0.021959491 446:-0.068347335 447:0.028810266 448:-0.01866324 449:-0.01652687 450:0.045846097 451:0.021261271 452:0.017241092 453:0.04094127 454:0.06409921 455:-0.034605466 456:0.03534664 457:0.0431148 458:-0.02195104 459:0.040610667 460:0.016479475 461:-0.0061553703 462:0.058078434 463:-0.0038398793 464:0.059638847 465:0.028224858 466:0.009795613 467:0.008509957 468:-0.097010955 469:-0.0029739183 470:-0.06609635 471:-0.033403043 472:-0.0058151055 473:-0.075446814 474:-0.06046843 475:-0.07521382 476:-0.019015118 477:-0.06077079 478:-0.03763421 479:-0.04351683 480:0.029720979 481:-0.03125889 482:0.00785778 483:-0.04553402 484:0.01103251 485:0.06662997 486:0.02133118 487:-0.043870438 488:-0.029577155 489:0.044233665 490:0.030216223 491:0.030394947 492:-0.00030487205 493:0.1112873 494:0.0004824069 495:-0.03910417 496:0.05267376 497:-0.0039697094 498:-0.018829696 499:-0.0012862252 500:-0.034290813 501:0.057271637 502:0.024197059 503:-0.05500961 504:-0.05024067 505:-0.04799776 506:0.10168881 507:0.016558634 508:0.012130623 509:0.057852186 510:0.058889728 511:0.061647054 
1 0.7096860689491283 0.6808304243148674 0.9796337779159062 1 1 0.6497098023690181 1 0.7968718625932162 0:-0.012975519 1:0.09026838 2:0.006022748 3:0.026552526 4:0.0240251 5:0.09603087 6:-0.024014378 7:0.025683245 8:0.013136177 9:-0.059765045 10:-0.022043375 11:0.021356314 12:0.031379204 13:-0.03744696 14:-0.031649288 15:0.023736205 16:0.07475402 17:0.028953856 18:0.07029888 19:-0.11973301 20:-0.024073705 21:-0.06287889 22:0.017683607 23:-0.0012531487 24:0.06036466 25:-0.034671992 26:0.014637028 27:0.013324888 28:-0.014223365 29:0.09156557 30:0.025320748 31:-0.05813596 32:0.0045515792 33:-0.07150746 34:-0.0063917963 35:0.036139015 36:0.008030856 37:-0.029342525 38:-0.019524263 39:0.0420179 40:-0.018435922 41:0.067496575 42:0.02999278 43:0.021230774 44:0.044126235 45:-0.004780371 46:-0.048973456 47:0.034877446 48:-0.03168712 49:-0.058812328 50:-0.031652696 51:0.040999956 52:0.03257826 53:0.0038185471 54:-0.06805273 55:0.027097583 56:0.09774495 57:-0.009522112 58:-0.042566564 59:-0.022606064 60:0.0576902 61:0.024243014 62:0.0037424713 63:-0.027194344 64:-0.046519704 65:0.047972072 66:-0.0201733 67:-0.00448694 68:-0.016220592 69:0.01772232 70:0.03044258 71:0.0033540358 72:-0.029074775 73:-0.05226679 74:0.02229473 75:-0.013062674 76:-0.06732192 77:0.0735229 78:0.0009365089 79:0.04344426 80:-0.041184194 81:-0.072299294 82:-0.06155961 83:-0.006596138 84:0.041572124 85:-0.025435934 86:-0.072294876 87:0.09871718 88:0.004407323 89:0.022041734 90:0.009981825 91:-0.05137898 92:-0.009264597 93:-0.06140275 94:0.096425354 95:-0.042594176 96:-0.011414674 97:-0.0078569725 98:-0.0023125175 99:0.091462664 100:0.021917447 101:-0.042098623 102:-0.07796057 103:0.016462209 104:0.03594707 105:0.08260218 106:-0.013516176 107:0.023462547 108:0.0746972 109:0.02906258 110:0.026251748 111:0.029523084 112:-0.022628877 113:-0.05131192 114:0.0037529378 115:0.0024284958 116:-0.032543913 117:-0.016323518 118:0.021338478 119:0.007398496 120:-0.031926878 121:-0.032671873 122:0.0043350416 123:-0.001273357 124:0.031389173 125:-0.025202692 126:0.009646748 127:0.027701287 128:-0.036768693 129:0.026372422 130:-0.033182636 131:0.01052189 132:0.0833714 133:-0.061207667 134:0.0075196093 135:0.09505548 136:0.056712575 137:-0.018233756 138:0.007923788 139:-0.03419074 140:-0.022417512 141:-0.07987927 142:-0.054759294 143:-0.010278013 144:-0.0018034155 145:-0.084919244 146:0.06278632 147:-0.010356958 148:-0.004370508 149:-0.021178743 150:-0.011415824 151:-0.0412579 152:0.009366054 153:0.015945882 154:0.08680339 155:0.07113632 156:0.043732107 157:0.042552978 158:0.11543738 159:0.028733242 160:0.070874624 161:0.04134207 162:-0.020679746 163:0.042695682 164:0.012324608 165:0.016524285 166:0.023840157 167:0.03122779 168:-0.0054208864 169:0.020118859 170:-0.033017732 171:0.008787517 172:0.029159913 173:-0.008668525 174:0.022032646 175:-0.0069290986 176:0.05537618 177:-0.077767245 178:-0.039952673 179:-0.06839549 180:-0.07404143 181:-0.017727891 182:-0.056498375 183:0.016189508 184:0.019298902 185:0.017351134 186:-6.351432e-05 187:0.06389376 188:0.016870033 189:0.024280464 190:-0.09432979 191:-0.02853842 192:0.04003971 193:-0.05963735 194:-0.0016674255 195:-0.07017673 196:0.053582598 197:-0.04889892 198:0.04213963 199:0.0062961797 200:0.009239468 201:-0.04123619 202:0.019867113 203:-0.03852694 204:-0.01156325 205:0.023874262 206:-0.07297191 207:-0.07083508 208:-0.025931062 209:0.009609019 210:-0.084329106 211:0.004827277 212:0.040464796 213:-0.06779643 214:0.03670955 215:-0.003578412 216:-0.0012897741 217:0.013921635 218:0.075014845 219:-0.03293865 220:-0.016843148 221:-0.08003382 222:-0.017231446 223:0.0074029136 224:-0.012307677 225:-0.076681025 226:0.00081657356 227:-0.07064016 228:-0.07836555 229:-0.031737156 230:0.011138358 231:0.06777269 232:0.03902181 233:-0.008339933 234:0.07639309 235:-0.015389248 236:0.09273625 237:-0.027326183 238:-0.02328507 239:0.008043033 240:-0.018709978 241:-0.023261962 242:0.03386654 243:-0.029071974 244:0.02817178 245:0.0030073894 246:0.015597661 247:-0.01602909 248:-0.051447585 249:0.008301876 250:0.03916741 251:-0.027365685 252:0.045606382 253:0.037740618 254:0.0016960318 255:0.034849666 256:0.03908219 257:0.039800514 258:0.070279926 259:0.060581874 260:-0.029416235 261:0.020747889 262:0.026733913 263:0.0244349 264:0.02038525 265:0.013629202 266:-0.047960315 267:-0.013664937 268:-0.08500172 269:0.03844515 270:-0.040989816 271:-0.01867089 272:-0.0142551 273:-0.04815082 274:-0.03419779 275:-0.021726305 276:0.02754218 277:0.016487768 278:-0.033683594 279:-0.10642245 280:0.040043168 281:0.016297756 282:0.078928284 283:0.04380768 284:-0.04680528 285:-0.0348577 286:0.02677563 287:-0.019069813 288:-0.015715208 289:-0.052063413 290:0.025624303 291:-0.08488225 292:-0.06788398 293:-0.003414796 294:0.013358451 295:0.0017786188 296:0.051102437 297:0.07853096 298:0.034055363 299:0.020901116 300:0.019485742 301:0.008251379 302:-0.03195979 303:-0.06470214 304:-0.009397475 305:0.05692276 306:0.01676273 307:-0.00206916 308:0.023685414 309:-0.020958059 310:-0.02584457 311:-0.06359925 312:-0.013910006 313:0.0276142 314:0.024083111 315:-0.019035116 316:0.0021674002 317:-0.034228675 318:-0.08418417 319:-0.044925343 320:0.030612629 321:-0.037613947 322:-0.067728855 323:0.015564726 324:-0.06900655 325:0.08878023 326:0.048871633 327:0.029286072 328:0.05721029 329:0.029335799 330:0.016268339 331:0.0286906 332:-0.038404316 333:0.014875575 334:-0.02724651 335:0.04163815 336:0.0047426736 337:0.033563238 338:0.06228759 339:0.028468248 340:-0.06905094 341:-0.04171204 342:0.046035472 343:0.09778672 344:-0.07928628 345:-0.022457238 346:0.086229555 347:-0.04213798 348:-0.009982263 349:-0.03762179 350:-0.04356549 351:0.13640566 352:0.025228852 353:-0.041428916 354:-0.0039945464 355:-0.03979813 356:0.07439015 357:0.049454175 358:0.03137802 359:-0.08126706 360:-0.005712231 361:-0.0019623716 362:-0.0852869 363:-0.05973808 364:-0.019953849 365:0.11782181 366:0.021133507 367:-0.025713818 368:0.013598116 369:0.08407918 370:-0.06444921 371:-0.04248654 372:0.050010234 373:0.053202454 374:0.09716978 375:-0.020433752 376:0.06048313 377:-0.048202436 378:0.0018892362 379:-0.00828448 380:0.04316319 381:-0.05084039 382:-0.05279835 383:0.0029916554 384:-0.056990974 385:0.039530814 386:0.000652733 387:-0.030949404 388:0.040120624 389:-0.0026047344 390:0.02724921 391:0.016101968 392:-0.034983616 393:0.04834041 394:-0.034076195 395:0.01906558 396:0.0207688 397:0.007936928 398:-0.01051306 399:0.03151315 400:-0.007759325 401:0.0028748966 402:-0.02776934 403:-0.034706667 404:0.0057482896 405:0.018308818 406:-0.017266352 407:0.039692976 408:0.044156037 409:-0.029941859 410:0.051831063 411:0.049563274 412:-0.05122346 413:-0.0067234347 414:0.0048221443 415:-0.024296075 416:-0.031324416 417:0.008039411 418:0.071601465 419:0.042650953 420:-0.0071854535 421:0.014610742 422:-0.008645082 423:-0.012560148 424:0.022045366 425:0.05348103 426:-0.009839475 427:-0.0038537385 428:0.03587549 429:0.09426393 430:-0.06471737 431:0.030135559 432:-0.025265478 433:0.008755157 434:-0.029499544 435:-0.02475228 436:-0.015724711 437:0.01602856 438:-0.026934188 439:-0.04482732 440:0.06788748 441:0.012074074 442:0.020760035 443:-0.032670632 444:1.7238077e-05 445:-0.022104442 446:-0.08195339 447:0.0014042387 448:-0.029512852 449:-0.024784239 450:-0.01858164 451:-0.030422507 452:-0.03779884 453:-0.070628524 454:-0.029312672 455:-0.04842148 456:0.029326268 457:0.12019265 458:0.018437525 459:0.01210741 460:-0.026677426 461:0.03646681 462:-0.047083642 463:0.03425113 464:0.055224553 465:0.051803045 466:-0.041696608 467:0.012110857 468:0.013608769 469:-0.009194297 470:-0.013107963 471:-0.076821886 472:-0.02420565 473:-0.050384182 474:-0.052629963 475:-0.06879543 476:-0.0029174844 477:-0.014344436 478:0.0079008825 479:-0.0019912678 480:0.0026622687 481:-0.049897164 482:0.03910705 483:-0.030487236 484:-0.02549475 485:0.12882778 486:-0.01506622 487:0.010546917 488:0.018772092 489:-0.0010773384 490:0.056538954 491:0.028348507 492:-0.07690353 493:-0.009845193 494:0.0238219 495:0.029380992 496:-0.056007702 497:-0.030085277 498:-0.0088294195 499:0.047726743 500:-0.051518757 501:-0.020552175 502:0.055265006 503:0.04588749 504:-0.049860764 505:0.05301402 506:0.11288306 507:0.005948722 508:0.00685346 509:-0.072784625 510:-0.05865355 511:-0.021236844 
0 0.02409433771385861 0 0 0 0.6185429643100397 0.007716584457538277 0 0.04580797743332991 0:-0.061958 1:0.0956179 2:0.0443474 3:0.06695328 4:0.060791563 5:0.09205977 6:-0.068764865 7:-0.046318263 8:0.00021862025 9:-0.037620652 10:0.017173162 11:0.042632382 12:0.029833013 13:-0.012101924 14:-0.019958733 15:0.012557544 16:0.010873474 17:0.07757217 18:0.033778723 19:-0.020064557 20:0.059309766 21:-0.028081939 22:-0.02170793 23:0.0014830892 24:0.013319182 25:0.049160622 26:0.067751855 27:0.06852005 28:0.020502742 29:0.078354344 30:0.0480794 31:-0.04867614 32:0.0018171953 33:-0.008649446 34:-0.0004310491 35:0.030786071 36:0.08004234 37:-0.030341558 38:0.0004040295 39:0.044907033 40:-0.0034117007 41:-0.025157223 42:0.034319557 43:-0.0044786204 44:-0.025502196 45:-0.016826756 46:-0.022960726 47:0.018374417 48:-0.0066986443 49:-0.069424696 50:-0.05019556 51:-0.010871918 52:0.0076530217 53:-0.000881892 54:0.046133112 55:-0.03795646 56:0.050042283 57:0.054279514 58:0.049511164 59:0.020332122 60:0.07245159 61:0.011021413 62:-0.0023837765 63:-0.056073435 64:-0.060501456 65:0.06990033 66:-0.0057033356 67:0.020864537 68:-0.041527476 69:0.02605325 70:0.022570942 71:-0.045297794 72:0.05061961 73:0.014963974 74:0.04399535 75:-0.021213781 76:-0.07299536 77:0.07756861 78:-0.029999672 79:-0.027875299 80:-0.01475257 81:-0.066319354 82:0.076523595 83:0.018891599 84:-0.045423456 85:-0.067281365 86:-0.033833943 87:0.08395454 88:-0.002904732 89:0.010946211 90:-0.01829421 91:0.05323571 92:-0.050771076 93:0.075240366 94:0.07384402 95:-0.037065323 96:0.037086044 97:0.015938947 98:-0.025209982 99:0.07933819 100:-0.019490195 101:-0.010887626 102:-0.027846377 103:-0.019803712 104:0.0020499532 105:-0.023988955 106:0.026494887 107:-0.045051232 108:0.025656195 109:0.053504016 110:0.00374246 111:0.062923476 112:-0.08551695 113:0.027102262 114:0.06123515 115:0.015295183 116:0.00035881286 117:0.011935256 118:0.012177106 119:-0.026108233 120:0.026288848 121:0.03563223 122:0.00600761 123:-0.010069063 124:-0.012380919 125:-0.034583084 126:-0.052613933 127:0.055806648 128:0.018473098 129:0.024234062 130:0.019483961 131:0.055518392 132:0.06513201 133:-0.010168149 134:-0.025119847 135:0.04997885 136:0.029286627 137:-7.495639e-05 138:-0.062699504 139:-0.024385603 140:0.02042298 141:-0.10524356 142:-0.03971512 143:0.03112619 144:0.021627538 145:-0.06993918 146:-0.009404788 147:-0.055663027 148:0.09113269 149:-0.046584055 150:0.03577117 151:0.015232083 152:0.027144114 153:0.026295142 154:0.047822632 155:-0.031921953 156:-0.0014364457 157:-0.023860352 158:-0.027991327 159:0.020681323 160:-0.008111518 161:0.056584958 162:0.0016169302 163:0.09126394 164:0.021123938 165:0.040929418 166:-0.016585073 167:-0.023661928 168:-0.0016905633 169:0.059299935 170:0.013319837 171:0.014775451 172:-0.012604195 173:0.036570005 174:-0.008466466 175:-0.08282778 176:0.074505605 177:-0.048525818 178:-0.0028233808 179:-0.02596183 180:-0.03586001 181:0.03455354 182:-0.021973232 183:-0.0071548154 184:-0.047540978 185:0.018146493 186:0.012348786 187:0.03906227 188:0.03681793 189:0.0029990491 190:-0.027772462 191:0.04309055 192:0.0075089177 193:-0.024018161 194:-0.029111128 195:-0.052245315 196:-0.0041465755 197:0.018387431 198:0.044418357 199:0.036886018 200:-0.017471032 201:-0.05786058 202:-0.015543118 203:0.052713115 204:0.0046293167 205:0.03186418 206:-0.055670418 207:-0.0089292 208:-0.043611623 209:-0.055222522 210:-0.032500066 211:-0.054825567 212:0.04575477 213:0.090989396 214:0.046145108 215:-0.024028582 216:-0.023898127 217:0.07040562 218:0.0041974955 219:-0.044585906 220:-0.08423073 221:-0.081473045 222:-0.014775699 223:-0.08625508 224:0.0030814586 225:0.021064878 226:0.006790962 227:0.008097059 228:0.003948378 229:0.028222073 230:0.0012041935 231:0.047265008 232:-0.0070797848 233:0.016040485 234:0.05993384 235:-0.018319067 236:0.0011272626 237:0.029880213 238:-0.037418183 239:-0.024761282 240:-0.07767594 241:0.073525764 242:0.12135997 243:0.06350272 244:0.03262604 245:0.02545852 246:0.03581923 247:0.0097116735 248:-0.022485102 249:-0.0008819667 250:0.0032507686 251:-0.064459234 252:0.021852769 253:-0.016031358 254:0.023878457 255:0.009606965 256:0.034912746 257:0.06971256 258:0.11443634 259:0.0025915636 260:-0.044609282 261:-0.0029772243 262:-0.032746878 263:0.0061938395 264:-0.020553173 265:-0.06615377 266:0.043028954 267:0.017405692 268:-0.024824582 269:0.030911036 270:0.033334546 271:-0.07123829 272:-0.005969246 273:0.030668724 274:0.028818542 275:-0.0067684725 276:0.03341197 277:0.06452239 278:-0.0005192972 279:-0.03282014 280:0.015977666 281:0.019355962 282:-0.03454243 283:0.043554716 284:-0.053214364 285:-0.044783868 286:-0.047969576 287:-0.08597678 288:0.04068509 289:0.015970169 290:0.029144539 291:-0.04676249 292:-0.09536047 293:-0.0068741245 294:-0.011470461 295:-0.00095355493 296:0.08468137 297:0.029651176 298:-0.0033584975 299:0.028897407 300:0.03655635 301:-0.028794983 302:-0.008512004 303:0.05313617 304:-0.028685007 305:0.016838368 306:-0.001035147 307:0.027128235 308:-0.027222555 309:-0.067077585 310:0.055631448 311:-0.00090023584 312:0.03184355 313:0.03487273 314:-0.008798649 315:0.046934564 316:0.028914986 317:-0.08470815 318:0.020516258 319:0.0323209 320:0.017896775 321:-0.027198186 322:-0.09894226 323:0.08663804 324:-0.03735519 325:0.050555073 326:0.11611753 327:0.03033695 328:0.03714686 329:0.037644304 330:0.036417447 331:-0.09725025 332:-0.023736851 333:-0.08609636 334:-0.027767655 335:-0.040686738 336:0.047807336 337:-0.035245065 338:0.016243953 339:0.0069586015 340:-0.029395072 341:-0.054586887 342:0.021389041 343:0.013755336 344:-0.016687432 345:0.0014383313 346:-0.039197616 347:0.005837889 348:-0.005755628 349:-0.0072137592 350:-0.008552067 351:0.077222236 352:-0.011583253 353:0.045088526 354:-0.0060340925 355:-0.0013368035 356:0.04486371 357:0.11524489 358:0.011277944 359:-0.0015605787 360:-0.010168871 361:0.021362657 362:-0.04900145 363:-0.10331298 364:0.013842643 365:0.010760554 366:-0.06547162 367:0.010596385 368:-0.0712655 369:0.050866283 370:0.013959575 371:-0.071526125 372:-0.0067067654 373:-0.011228244 374:0.08205175 375:-0.022053763 376:0.08263595 377:-0.014153715 378:0.0022184623 379:0.003771934 380:0.0117443 381:-0.027452068 382:0.020561773 383:-0.028883833 384:-0.026436694 385:-0.027835956 386:-0.073268786 387:-0.09901032 388:0.030964877 389:0.04478145 390:-0.00982026 391:0.06120021 392:0.023636693 393:-0.006234395 394:-0.005848242 395:0.06821945 396:0.03570974 397:0.05853702 398:-0.020832103 399:0.061146516 400:0.0058725365 401:0.01619614 402:0.025814539 403:-0.01856443 404:0.007369015 405:0.016348863 406:0.0286458 407:0.030439707 408:0.065131485 409:0.12149368 410:0.040639147 411:-0.0015139522 412:0.059289996 413:0.06558549 414:-0.021827798 415:-0.01013131 416:-0.04373272 417:-0.019233612 418:0.01883584 419:0.00011420609 420:0.0062914984 421:-0.019408593 422:-0.024339143 423:-0.064987175 424:-0.07558265 425:0.07633716 426:-0.03306444 427:-0.01075508 428:0.015043474 429:0.07854116 430:0.032332167 431:0.07226349 432:-0.039320484 433:0.06856411 434:0.019590074 435:0.051631432 436:-0.049227737 437:0.013991961 438:0.049065676 439:-0.015914679 440:0.07296408 441:0.082439706 442:-0.051992327 443:-0.04408878 444:-0.018723061 445:0.05183761 446:-0.1268105 447:-0.018121028 448:0.018113114 449:-0.004822967 450:0.029279022 451:-0.030347208 452:-0.07031384 453:0.021437624 454:0.016874252 455:0.029479329 456:-0.03793907 457:0.015569302 458:0.049111478 459:0.027505279 460:0.007461918 461:-0.013605163 462:-0.031696144 463:-0.024286292 464:0.028863119 465:0.003522351 466:-0.07857028 467:-0.026251988 468:-0.020831328 469:0.03751842 470:-0.03870801 471:-0.060054407 472:0.019410864 473:-0.07924752 474:0.021188453 475:0.005951213 476:0.034444306 477:0.014837263 478:-0.049862534 479:0.04993892 480:0.0512323 481:-0.008129835 482:-0.010629945 483:0.00525424 484:-0.007797419 485:0.036519937 486:-0.01642277 487:-0.007747834 488:-0.024077088 489:-0.0017211621 490:-0.044002894 491:0.0447768 492:-0.10698189 493:0.070722565 494:0.026439551 495:0.024096368 496:-0.06165163 497:0.074905746 498:-0.007398928 499:0.06701513 500:-0.03354394 501:0.016422007 502:0.07790507 503:-0.036943663 504:-0.053891543 505:-0.044569522 506:0.099159226 507:-0.028754704 508:0.015329744 509:0.06474515 510:0.08562387 511:0.03756518 
0.1407736499879224 0 0.561110120881638 0.07006603419791983 0 0 0 0.03007761265171886 0.5412476560732998 0:-0.042807266 1:0.09241842 2:0.02355982 3:0.022177275 4:0.018079935 5:0.10529554 6:-0.05283998 7:-0.020475015 8:-0.035308406 9:-0.07801372 10:-0.01346798 11:-0.011242151 12:0.059858676 13:0.0022737698 14:-0.024692632 15:-0.0074719773 16:-0.008100119 17:0.057564415 18:-0.016210418 19:-0.02048194 20:-0.050571743 21:-0.024673957 22:-0.032602184 23:-0.013315138 24:0.041209303 25:0.004697566 26:0.048924766 27:0.007770755 28:-0.00076042226 29:0.05310768 30:0.09202255 31:0.026241384 32:0.016587121 33:0.059962705 34:-0.03282323 35:0.029844448 36:0.090664364 37:-0.030593162 38:-0.0049603446 39:0.037242297 40:0.03179392 41:-0.007028501 42:0.075769156 43:-0.0010540964 44:0.033074144 45:-0.0323755 46:-0.047457103 47:0.021482123 48:-0.043442808 49:-0.10389049 50:-0.026824854 51:0.04135667 52:-0.0012037292 53:-0.012580762 54:-0.049605533 55:-0.008561355 56:-0.036526542 57:0.03388772 58:0.05945992 59:-0.027105091 60:0.086754166 61:0.036915965 62:0.010185717 63:-0.08411221 64:-0.067070544 65:0.08308255 66:-0.020352995 67:0.03846073 68:-0.031158347 69:0.079282865 70:0.034474082 71:-0.060737837 72:0.006797736 73:0.03927001 74:0.04944041 75:-0.032292504 76:-0.072655074 77:0.0528729 78:-0.04661665 79:-0.07401066 80:0.027870607 81:0.04060085 82:0.017206626 83:0.0032636097 84:0.0010601631 85:-0.034698587 86:0.027071144 87:0.060257778 88:-0.023814183 89:0.012888195 90:-0.0032570618 91:-0.02161913 92:0.011158942 93:-0.00020007773 94:0.07773962 95:-0.06381538 96:0.024139876 97:-0.015448043 98:-0.015693372 99:0.048988666 100:0.0454971 101:0.051213544 102:-0.018527724 103:-0.058693513 104:-0.0358326 105:0.025188658 106:0.033984117 107:-0.040016808 108:-0.017133275 109:-0.011155115 110:0.017591337 111:0.05794339 112:-0.098502696 113:0.010680987 114:0.071287 115:0.07648539 116:0.005048173 117:-0.0009441682 118:0.029078836 119:-0.020568678 120:-0.02906229 121:0.06182179 122:0.0003736917 123:0.021177938 124:-0.02476475 125:-0.047908586 126:-0.012955704 127:0.08209781 128:0.017596144 129:0.014740705 130:0.01870067 131:0.0032319217 132:0.0317271 133:-0.011324023 134:0.00027407013 135:-0.022936266 136:0.04884257 137:-0.09628756 138:-0.06039251 139:-0.015589777 140:0.010513896 141:-0.06836928 142:-0.06034753 143:0.051133577 144:0.04756566 145:-0.086827055 146:0.010194344 147:-0.024783347 148:0.08722874 149:-0.056582645 150:0.026963891 151:-0.04404492 152:0.020262076 153:0.034637816 154:0.08906578 155:-0.0051830146 156:0.0476295 157:-0.05089278 158:0.06108433 159:-0.01422754 160:0.012567054 161:0.097314686 162:0.011625363 163:0.032763854 164:0.07731641 165:0.03344791 166:-0.06718116 167:0.010765153 168:-0.0026955379 169:0.03913513 170:0.0043185046 171:0.07733587 172:-0.0482924 173:0.041113704 174:-0.012729634 175:-0.056137513 176:0.07754434 177:-0.0483404 178:-0.04851088 179:0.019498872 180:-0.0053455597 181:0.023950342 182:-0.0071473997 183:0.0070927693 184:0.040691245 185:0.058083378 186:-0.0075244657 187:0.04853882 188:0.07190903 189:0.008627633 190:0.001287498 191:-0.0099864835 192:0.0022123733 193:-0.044300538 194:0.02859992 195:-0.08090245 196:0.04169478 197:-0.007405726 198:0.069871165 199:0.0640099 200:-0.005807664 201:-0.11077519 202:0.00760558 203:0.057889104 204:0.030912552 205:0.019199269 206:-0.08636148 207:-0.0021668782 208:-0.031345263 209:0.018100614 210:-0.03289588 211:-0.052264392 212:0.04871427 213:0.08044852 214:0.05838471 215:0.026382644 216:0.011006567 217:0.042272825 218:0.04530649 219:-0.087868884 220:-0.040624958 221:-0.07231672 222:-0.06415825 223:-0.04908705 224:0.011031952 225:0.012028047 226:0.05092163 227:0.0074415193 228:-0.019473594 229:0.012896158 230:0.010221793 231:0.059291497 232:0.018175803 233:0.025857218 234:0.05404667 235:0.0065108044 236:0.013825681 237:-0.051252525 238:0.016678508 239:-0.041742645 240:0.0073257214 241:0.056260157 242:0.05353189 243:0.024837507 244:0.038442116 245:-0.02136815 246:0.05638841 247:0.018060705 248:-0.083756186 249:0.022024993 250:-0.002994881 251:-0.04016679 252:-0.001130184 253:-0.032894913 254:0.072301075 255:-0.02513235 256:0.09684691 257:-0.009583802 258:0.06568723 259:0.041269094 260:-0.052608002 261:-0.018261308 262:-0.016304407 263:-0.042546064 264:-0.031736944 265:-0.031156601 266:0.047091845 267:-0.012454003 268:-0.004254875 269:-0.0063721114 270:0.004063944 271:-0.020877903 272:-0.024885247 273:-0.00207971 274:0.029257756 275:-0.026900182 276:0.037083905 277:0.030768126 278:0.04575435 279:-0.04247343 280:0.028626977 281:-0.019637695 282:0.04163039 283:0.03547858 284:-0.00838134 285:-0.077298015 286:-0.0003677801 287:-0.07628701 288:0.011557001 289:-0.03712184 290:-0.0011273467 291:0.024508035 292:-0.08193377 293:-0.040442675 294:0.03824131 295:0.014631337 296:0.030402586 297:0.08091536 298:0.032619465 299:0.079785556 300:0.08009562 301:-0.041084338 302:-0.02102462 303:0.0035740798 304:0.018185047 305:0.027364053 306:-0.020510798 307:-0.022311088 308:-0.016440779 309:0.0031846997 310:0.014059394 311:-0.008197608 312:0.023376247 313:-0.0034711598 314:-0.023860978 315:-0.04134989 316:-0.0036689355 317:-0.056415237 318:-0.0023983603 319:0.053720333 320:0.05366044 321:-0.044108164 322:-0.09232807 323:0.03828031 324:-0.07918509 325:0.035044294 326:0.08023396 327:0.006380301 328:0.049477622 329:-0.0046628816 330:-0.014983043 331:-0.10135283 332:0.008493885 333:-0.029383881 334:-0.008859219 335:-0.009790492 336:0.027373243 337:-0.05649892 338:0.095253795 339:-0.017107714 340:-0.06858886 341:-0.043953948 342:0.04072619 343:-0.022472065 344:-0.03949795 345:0.022103759 346:0.007692119 347:-0.04100634 348:0.033056006 349:0.03145983 350:-0.026863797 351:0.040349673 352:0.021690236 353:0.0619385 354:0.038985845 355:-0.027869282 356:0.024835806 357:0.030062562 358:-0.018277379 359:0.028873913 360:0.0028556227 361:-0.050676495 362:-0.06327109 363:-0.08125614 364:0.0010817967 365:0.01183497 366:-0.008787592 367:0.027442876 368:-0.05384332 369:0.024738105 370:0.05465411 371:-0.056161474 372:-0.0032880127 373:0.0051623634 374:0.06510609 375:-0.031116204 376:0.02127014 377:-0.031733483 378:0.046139233 379:0.0040929415 380:0.007672956 381:-0.069627106 382:-0.039601386 383:-0.05873128 384:-0.065189965 385:-0.0015292396 386:-0.04076198 387:-0.065606005 388:0.10200138 389:0.037824035 390:-0.040385433 391:0.10150675 392:0.02160622 393:0.0025377083 394:-0.05344866 395:0.09131115 396:0.048457578 397:0.071007654 398:-0.03165318 399:0.03751754 400:0.03580883 401:0.02040058 402:0.0152349 403:-0.03589875 404:-0.01278998 405:-0.027872564 406:-0.0018130179 407:0.03802493 408:0.037218973 409:0.022501694 410:0.053955343 411:-0.040861897 412:0.072541066 413:0.050692916 414:-0.03740727 415:-0.01238289 416:-0.07576018 417:-0.0054686912 418:0.020062385 419:0.020449406 420:-0.042580504 421:-0.018760063 422:-0.06308255 423:-0.025671136 424:-0.054308508 425:0.012860109 426:-0.021634646 427:-0.013276552 428:-0.0054461523 429:0.070628844 430:0.015324862 431:0.013225679 432:-0.08329389 433:0.0286284 434:0.03942975 435:0.035560444 436:-0.029737815 437:0.0088577615 438:0.0401735 439:-0.039888218 440:0.04880179 441:0.03628655 442:-0.0068216724 443:0.020418353 444:0.0025603147 445:0.026779719 446:-0.09702721 447:-0.027630022 448:0.10464995 449:-0.0022486597 450:-0.0066591515 451:-0.021990556 452:-0.05868616 453:-0.06546735 454:0.0062702987 455:0.06768903 456:-0.054566555 457:0.028711688 458:0.014717892 459:0.046245355 460:0.00039612013 461:-0.005713952 462:0.03094264 463:-0.051612187 464:0.014985751 465:0.020038795 466:-0.043763757 467:0.010785487 468:-0.012757815 469:0.08213189 470:0.00013325135 471:-0.0073438734 472:-0.070403524 473:-0.049386892 474:0.0016159184 475:-0.030650064 476:0.014699082 477:-0.025040306 478:-0.0040771165 479:0.039947543 480:0.029501827 481:-0.039381977 482:-0.024079211 483:0.00875211 484:0.018951602 485:0.018970981 486:-0.014080469 487:-0.010012833 488:0.050389368 489:0.019956158 490:-0.016203064 491:0.043275394 492:-0.050699845 493:0.05486283 494:-0.0037967488 495:-0.036071442 496:-0.050223295 497:0.011411753 498:0.07622879 499:0.08260758 500:-0.05220197 501:-5.054077e-05 502:0.013705051 503:-0.0018238592 504:-0.076326445 505:0.0029702787 506:0.10877764 507:-0.06622237 508:0.006773975 509:0.048491374 510:0.10080811 511:0.072981685 
0.1422319109807154 0 0 0.426917276730002 0.1810253818303791 0 0 0 0 0:-0.010087422 1:0.053882834 2:-0.018197492 3:0.041570142 4:-0.020761082 5:0.07174583 6:-0.12507343 7:0.08403853 8:-0.050797287 9:-0.079088755 10:0.050819702 11:-0.0046867356 12:0.06953955 13:-0.021469552 14:-0.015228092 15:0.016157681 16:-0.03604871 17:0.039644152 18:-0.004037008 19:-0.041431893 20:-0.0261234 21:0.003034218 22:-0.067601375 23:-0.046606187 24:0.006251379 25:0.024855558 26:0.037230145 27:0.059138164 28:0.05763057 29:0.09112605 30:0.059467424 31:-0.058317028 32:0.033954028 33:-0.0010036711 34:-0.02322891 35:0.031949278 36:0.039607946 37:0.03418983 38:0.038250845 39:0.0026937348 40:-0.020788241 41:0.0314451 42:0.066950895 43:0.0005318083 44:0.029750206 45:-0.049466036 46:-0.061835006 47:-0.007993716 48:-0.0042374553 49:-0.058305815 50:-0.06942443 51:0.0600211 52:0.030401025 53:-0.060764953 54:-0.05528205 55:0.08322721 56:-0.011526044 57:0.021999033 58:-0.0033160003 59:-0.0017498945 60:0.11579288 61:0.018298673 62:-0.02514103 63:-0.03526965 64:-0.045072906 65:0.059088863 66:0.00088215456 67:0.040876772 68:-0.016907608 69:0.030064194 70:-0.0037523373 71:0.008023891 72:-0.022023598 73:-0.03679913 74:0.047570277 75:-0.07078374 76:-0.10745963 77:0.02868739 78:-0.011167399 79:-0.07082325 80:-0.024674408 81:-0.0061180955 82:0.038254894 83:0.029567733 84:-0.00038573486 85:-0.06605025 86:0.013323787 87:0.11254562 88:-0.0011255594 89:0.023453504 90:0.008950033 91:-0.07833217 92:-0.031508867 93:-0.0031687415 94:0.016831568 95:-0.035955396 96:0.096641205 97:-0.060343664 98:-0.01766552 99:0.024168687 100:-0.013522279 101:-0.0037835871 102:0.03390371 103:0.016528772 104:-0.011892004 105:-0.012301991 106:-0.012101327 107:-0.028159171 108:0.05659827 109:0.024122274 110:0.018095138 111:0.11844183 112:-0.06124819 113:0.026113655 114:0.09398462 115:0.04369377 116:0.00672098 117:0.0443267 118:0.030611899 119:-0.028998481 120:-0.020708853 121:0.013250886 122:-0.041146934 123:0.02516396 124:-0.014952748 125:0.025043244 126:-0.039324027 127:0.070014484 128:0.011927397 129:0.030711832 130:0.0001961035 131:0.022175437 132:0.08395087 133:-0.024001237 134:0.035558797 135:-0.018623937 136:0.043967776 137:0.011151351 138:-0.0052485173 139:0.033105545 140:-0.009415522 141:-0.06885006 142:-0.03477896 143:-0.019811671 144:0.017539324 145:-0.057050947 146:-0.0018583847 147:-0.021435631 148:0.04133261 149:-0.0053365654 150:0.0404063 151:-0.04517495 152:0.04456379 153:-0.036922462 154:0.079741985 155:0.007928927 156:0.07640216 157:-0.04268139 158:0.05814752 159:0.017617507 160:-0.00792957 161:-0.0039256397 162:0.014906321 163:-0.0070581185 164:0.042217936 165:0.009628108 166:0.009301035 167:-0.013692199 168:0.009902263 169:0.07617857 170:0.03859595 171:0.08300805 172:-0.0076798936 173:0.032218035 174:0.0018640065 175:-0.060427375 176:0.07086961 177:-0.03571511 178:-0.015352212 179:0.008353444 180:-0.008293722 181:-0.01800007 182:-0.029604686 183:-0.008501635 184:0.041812293 185:0.07402688 186:-0.029772915 187:0.058803882 188:0.004443447 189:-0.024514291 190:-0.025836874 191:-0.024467366 192:-0.009913648 193:-0.052913398 194:0.017549662 195:-0.01330223 196:0.02431164 197:0.013855552 198:0.034062177 199:0.04962537 200:-0.023047058 201:-0.04096266 202:-0.023235498 203:-0.04160125 204:-0.03580131 205:0.037754185 206:-0.10518856 207:-0.030517513 208:-0.053766344 209:-0.032954622 210:-0.046612732 211:-0.05000968 212:0.08275924 213:0.04852147 214:0.057273168 215:0.03546519 216:-0.053267606 217:0.0727831 218:0.05433786 219:-0.11043853 220:-0.046219178 221:-0.040455677 222:-0.096727096 223:-0.017284648 224:0.033907652 225:-0.024351032 226:0.017931823 227:-0.034463305 228:0.012809603 229:-0.0077405716 230:0.0015399142 231:0.029601103 232:0.046537496 233:-0.057255983 234:0.042138807 235:0.02384478 236:0.04297917 237:-0.008921358 238:0.025327679 239:-0.043153275 240:-0.039134942 241:0.05450885 242:0.06760225 243:-0.050654378 244:0.02203228 245:0.021156661 246:0.037001688 247:0.04653564 248:-0.054293316 249:0.0022570551 250:-0.04428882 251:-0.040576417 252:-0.028049018 253:0.025953194 254:0.071985506 255:0.010317172 256:0.10083246 257:0.00956304 258:0.11221528 259:0.0026354168 260:-0.024368882 261:-0.08249131 262:-0.036480673 263:-0.016277423 264:0.02064753 265:-0.068048604 266:0.02771749 267:-0.0073717907 268:-0.040715806 269:0.024713106 270:-0.015792929 271:0.027370661 272:0.028130393 273:0.011506695 274:0.025732564 275:-0.011562373 276:0.049447346 277:-0.02388716 278:-0.032152 279:-0.06780295 280:0.00465532 281:-0.030833356 282:0.049976118 283:0.01210548 284:-0.0065403404 285:0.0037182928 286:0.013956641 287:-0.023687681 288:0.009198088 289:-0.03630852 290:0.02054317 291:-0.04774863 292:-0.08623077 293:0.050651815 294:-0.014453197 295:0.016875727 296:0.028132942 297:0.048109237 298:0.05430763 299:0.08328768 300:0.04368232 301:-0.022747992 302:0.035695266 303:-0.028911943 304:-0.029999036 305:0.008877255 306:0.03983711 307:-0.004222074 308:-0.051189963 309:0.01992707 310:0.028847482 311:-0.024209881 312:0.01673401 313:-0.00088183675 314:0.029885717 315:-0.01931258 316:0.016593758 317:-0.07660335 318:-0.04087769 319:0.023141645 320:0.0019257653 321:-0.063607834 322:-0.13066964 323:0.017823009 324:-0.04928288 325:0.033338137 326:0.059076604 327:0.024380956 328:0.0869254 329:0.025959633 330:0.062863536 331:-0.09238307 332:-0.0458382 333:-0.02117388 334:0.022282355 335:0.019990271 336:-0.035649527 337:-0.016403487 338:0.023154441 339:0.025071034 340:0.018014317 341:-0.03271723 342:0.075556695 343:0.06889205 344:-0.05709127 345:-0.01633794 346:0.0004767127 347:-0.06167639 348:0.03793579 349:0.023165086 350:-0.0598818 351:0.008883111 352:0.03131538 353:0.06158688 354:0.031638 355:-0.06833703 356:0.027019205 357:0.018200548 358:-0.024530955 359:-0.053342972 360:-0.042351823 361:-0.018550076 362:-0.09055265 363:-0.08326871 364:-0.033551082 365:-0.0020191483 366:0.02497131 367:0.018003026 368:-0.05292395 369:0.017246721 370:0.047757465 371:-0.040006157 372:0.0005937523 373:-0.041419275 374:0.04512003 375:-0.091726966 376:0.059461337 377:-0.02893707 378:0.013781213 379:-0.060039736 380:-0.011363636 381:-0.03926466 382:0.004637276 383:-0.035235383 384:-0.0052308836 385:-0.055693023 386:0.005761932 387:-0.10614584 388:0.06171737 389:-0.012585622 390:0.033600815 391:0.058031343 392:-0.020796588 393:-0.06784065 394:-0.041134853 395:0.08954477 396:0.07942943 397:0.07570398 398:-0.035660837 399:0.06921524 400:0.033654172 401:0.074639365 402:0.026820978 403:-0.0064374777 404:-0.02792629 405:0.02918678 406:-0.017935794 407:0.033096746 408:0.0002841549 409:0.015766418 410:0.061989896 411:0.049247794 412:0.017159158 413:0.03156871 414:0.009944035 415:-0.029246973 416:-0.038377285 417:0.0418907 418:0.032252878 419:0.016547447 420:0.03268223 421:0.009945273 422:-0.018893989 423:-0.05801095 424:-0.042788953 425:0.010764981 426:0.0027530128 427:-0.02912296 428:-0.010587167 429:0.06904102 430:0.032336812 431:0.006586755 432:-0.08831846 433:0.044143885 434:-0.01058359 435:0.04315371 436:0.030661982 437:0.01961161 438:0.003836856 439:0.03671188 440:0.09898755 441:0.08840866 442:-0.04523443 443:-0.06115255 444:-0.010968888 445:0.021903899 446:-0.10158568 447:-0.026020458 448:0.061379794 449:-0.009121774 450:0.034394342 451:-0.008982246 452:0.012840893 453:0.047476348 454:0.051341146 455:-0.022057625 456:-0.0021450797 457:0.0029303373 458:-0.033202343 459:0.0075360583 460:0.01070891 461:-0.035507448 462:0.039985314 463:-0.021784414 464:0.06146579 465:0.021523906 466:0.035024 467:-0.033424698 468:-0.073451385 469:0.01248205 470:-0.043770976 471:-0.03712243 472:0.016141362 473:-0.09949289 474:-0.019044861 475:-0.03337998 476:-0.028672308 477:-0.071600564 478:0.0016159428 479:-0.011818972 480:-0.0068105813 481:-0.013741263 482:0.008562747 483:-0.012215609 484:-0.013808479 485:0.03338331 486:-0.012551897 487:-0.039605096 488:-0.038042016 489:0.007812862 490:0.0055993246 491:0.08659053 492:-0.066258706 493:0.036651496 494:0.02369519 495:-0.0016743959 496:-0.009279101 497:-0.012542384 498:-0.004992822 499:0.017531868 500:-0.03714428 501:0.06075511 502:-0.008275361 503:-0.06015235 504:-0.05296067 505:-0.03211556 506:0.082475916 507:-0.05667535 508:0.019197498 509:0.057833485 510:0.08318189 511:0.045109376 
0.8162351408094416 0.3046420620052926 0.7388874759450788 0.4175025503946848 0.6075022005905961 0.7056167989625037 0 0.7793551613937146 0.4682560227062476 0:-0.05743562 1:0.039610177 2:0.11200029 3:0.041186847 4:0.037140768 5:0.015392539 6:-0.07584487 7:-0.08119613 8:0.045804646 9:-0.036745653 10:0.019233804 11:-0.00808122 12:0.02982526 13:0.011008053 14:0.005119654 15:0.031169796 16:-0.03898038 17:0.0580394 18:-0.00018003814 19:0.02671979 20:0.048088674 21:-0.012010327 22:-0.04533776 23:0.0027396018 24:-0.04728182 25:0.01276963 26:0.021323774 27:0.07069916 28:0.010232503 29:0.05050405 30:0.024836335 31:-0.02220543 32:0.013269244 33:-0.033120073 34:0.018229567 35:-0.0065037548 36:0.043528546 37:0.032745034 38:0.016263826 39:0.0015752303 40:-0.013753291 41:0.025192557 42:0.04301902 43:-0.015907977 44:0.019181378 45:-0.009634038 46:-0.03419766 47:-0.061069656 48:-0.039734922 49:0.03162207 50:0.027983418 51:0.019484112 52:-0.045816496 53:-0.0025340698 54:-0.032707945 55:-0.04169596 56:0.050308846 57:-0.030425832 58:-0.018230878 59:0.07258612 60:0.07551967 61:-0.0057641687 62:0.017369997 63:-0.0027476663 64:-0.07342602 65:0.07071723 66:-0.050337918 67:0.045621164 68:-0.048091438 69:0.025110925 70:0.008115062 71:0.032168373 72:0.005226538 73:-0.007662477 74:0.037034243 75:-0.016230686 76:-0.06706726 77:0.09683858 78:-0.030934555 79:-0.049827732 80:0.0256444 81:-0.0699398 82:0.04641113 83:-0.055887092 84:0.014952553 85:-0.06616645 86:-0.028069198 87:0.06710343 88:-0.017452102 89:0.08940485 90:0.042989157 91:0.001942541 92:0.01862254 93:0.047851004 94:0.014567258 95:-0.026228532 96:0.06568538 97:-0.010307256 98:0.01341824 99:-0.024006912 100:0.016660001 101:0.00083360897 102:-0.016882468 103:0.043859117 104:0.028940974 105:-0.0072174207 106:-0.031507537 107:-0.029704385 108:-0.009965044 109:0.07444141 110:-0.019965233 111:0.09576204 112:-0.0306768 113:0.06827466 114:0.06667552 115:0.01364121 116:-0.036925532 117:0.030098945 118:0.057492286 119:0.0022227974 120:0.045377266 121:0.046123058 122:-0.03717106 123:-0.06265785 124:0.061176382 125:0.0014195406 126:-0.038597606 127:0.022454144 128:-0.016233189 129:0.026200337 130:0.017564777 131:0.0649463 132:0.055911 133:-0.017328786 134:0.019530281 135:-0.013329225 136:-0.0057076626 137:-0.05337771 138:-0.092781305 139:0.0032986684 140:0.01808861 141:-0.0066525633 142:-0.04008658 143:0.048293527 144:-0.041470792 145:-0.06906213 146:0.015029107 147:0.009913114 148:-0.020754578 149:-0.023819696 150:-0.029858256 151:-0.021904781 152:-0.006160523 153:-0.023137715 154:0.05690509 155:0.010153212 156:-0.06448151 157:0.059100028 158:0.02075567 159:0.007923862 160:0.019437993 161:-0.0058593997 162:-0.026721906 163:0.036152598 164:0.013476246 165:0.0074934876 166:0.028719846 167:-0.08837733 168:0.06697745 169:0.018591741 170:-0.033409897 171:0.035746146 172:0.0038919486 173:-0.010691891 174:0.031790722 175:-0.072239324 176:0.06855475 177:-0.043310877 178:-0.024580212 179:-0.087533504 180:-0.018473037 181:0.005829015 182:-0.050900944 183:-0.045329213 184:-0.0506448 185:0.02770765 186:-0.020593619 187:0.01831732 188:-0.0042534624 189:0.018883284 190:-0.018309465 191:0.040628456 192:0.069502786 193:0.023223495 194:-0.025541373 195:-0.05237294 196:-0.007897727 197:0.026806252 198:0.029421259 199:-0.03570632 200:0.02097462 201:-0.04469654 202:-0.008153149 203:0.008167289 204:-0.05046008 205:0.053924397 206:-0.046060782 207:-0.0024434521 208:0.0012565735 209:-0.04580882 210:-0.019670682 211:-0.031540964 212:0.06045939 213:0.01128287 214:0.11456857 215:-0.10133993 216:-0.04165905 217:0.079687 218:3.937355e-05 219:0.028189288 220:-0.025376562 221:-0.029708633 222:-0.06521138 223:-0.05766536 224:0.010628814 225:-0.045052763 226:0.051737234 227:-0.0034932883 228:-0.054619603 229:0.038371027 230:0.04523865 231:0.030995209 232:-0.023119746 233:-0.020962749 234:0.05850294 235:0.046291403 236:0.0009833965 237:0.018245908 238:-0.046567224 239:0.056133274 240:-0.03178361 241:0.09996582 242:0.03144193 243:0.10144021 244:-0.07653723 245:0.011353533 246:0.06500167 247:0.097393475 248:-0.065630086 249:0.022412945 250:-0.05225694 251:-0.06967934 252:0.03197934 253:-0.017787423 254:-0.008648097 255:0.03067899 256:-0.055141144 257:0.0048821885 258:0.03852732 259:0.049671065 260:-0.03935391 261:-0.05518477 262:-0.026910342 263:0.057533134 264:0.022360481 265:0.0039059913 266:-0.041883565 267:0.016152203 268:-0.018080706 269:0.016435185 270:0.052485645 271:-0.030664973 272:0.08788673 273:0.046954606 274:0.09289988 275:-0.010529391 276:0.04598727 277:0.0315823 278:-0.066263616 279:-0.082656614 280:-0.09128246 281:0.00036045143 282:0.035113122 283:0.014148862 284:-0.047112428 285:-0.042093355 286:0.021428779 287:-0.05772148 288:-0.0045373356 289:-0.071845 290:-0.017745817 291:-0.028495124 292:-0.09613233 293:-0.009247359 294:0.022424642 295:-0.02874291 296:0.06480934 297:0.0015843847 298:0.0164887 299:0.0072440347 300:0.037498962 301:0.016577562 302:0.034169283 303:0.003626166 304:0.0049594147 305:0.05545476 306:-0.005999996 307:0.042744778 308:0.052269768 309:-0.023532614 310:0.066085204 311:0.05776549 312:0.033925716 313:0.052997094 314:0.068787925 315:-0.064891085 316:-0.032271795 317:-0.009383554 318:-0.05978704 319:0.022769246 320:-0.025732087 321:-0.055066653 322:-0.083373494 323:0.054673813 324:-0.039225675 325:0.017620515 326:0.05443937 327:0.034269344 328:0.0414925 329:0.01146578 330:-0.035168003 331:-0.12359304 332:-0.03607612 333:-0.043284807 334:-0.04873176 335:0.012065107 336:0.003598155 337:-0.044735707 338:0.003340061 339:0.061371133 340:-0.055821158 341:-0.04559019 342:0.03953574 343:0.02747291 344:0.040447768 345:-0.020444158 346:-0.025279917 347:0.013827601 348:-0.013064692 349:0.006543119 350:-0.027811464 351:0.03381054 352:0.014547019 353:0.06847392 354:-0.054135624 355:0.000984737 356:0.046017252 357:0.026853986 358:-0.013002647 359:-0.012959265 360:-0.013853019 361:0.022751916 362:-0.053750724 363:-0.041565344 364:-0.0060128607 365:-0.019585483 366:-0.058140162 367:0.028120989 368:-0.03200383 369:0.010927354 370:-0.001388749 371:-0.013670078 372:-0.014192927 373:0.076744705 374:0.07154927 375:-0.030825196 376:0.12038718 377:-0.10826771 378:-0.046643607 379:0.042835068 380:0.03478741 381:-0.02827328 382:0.04695345 383:-0.0492467 384:-0.031608738 385:-0.015466849 386:-0.027129915 387:-0.041785516 388:0.0013023084 389:-0.035910312 390:0.013452203 391:0.059116986 392:0.00066506723 393:-0.007196573 394:0.028622728 395:0.024662487 396:0.05750843 397:0.09726748 398:-0.04282543 399:0.0060760584 400:-0.004695056 401:0.004645188 402:0.04033912 403:-0.029236557 404:-0.020098628 405:-0.055436842 406:0.010520598 407:0.048660867 408:0.03200141 409:0.037000593 410:0.0073873685 411:0.03126568 412:0.026322408 413:0.056685675 414:-0.005543294 415:-0.011518144 416:-0.12448594 417:-0.018180884 418:0.015044678 419:-0.02788343 420:-0.023901777 421:0.017514182 422:-0.022402087 423:-0.070974715 424:-0.039156985 425:0.06527313 426:-0.02541815 427:-0.07581548 428:-0.04147288 429:0.08126135 430:-0.033399627 431:0.014598448 432:-0.016077742 433:0.048963822 434:0.031220214 435:0.077908106 436:0.029539421 437:0.04805837 438:-0.0023357854 439:-0.036581684 440:0.02879722 441:0.056668393 442:0.011611933 443:-0.11771889 444:-0.020427339 445:-0.008228197 446:-0.01606031 447:-0.031520978 448:0.034164276 449:0.033086102 450:-0.07336473 451:-0.05271008 452:0.009080721 453:0.033968996 454:-0.023656707 455:0.07360278 456:0.02328656 457:0.018652994 458:-0.042049453 459:0.0049662204 460:0.023924174 461:-0.06929289 462:0.015896814 463:-0.044165947 464:0.060849726 465:0.016728895 466:-0.042461656 467:-0.07959218 468:-0.054719284 469:-0.014094522 470:-0.0064990288 471:-0.07910607 472:-0.053395487 473:-0.061960325 474:-0.041319523 475:0.025310982 476:0.08053423 477:-0.016584976 478:0.006088562 479:0.00874591 480:0.080908455 481:-0.008074288 482:-0.02812773 483:0.040456355 484:0.009620552 485:0.07539338 486:0.006412578 487:-0.06976293 488:-0.016721528 489:0.03825343 490:-0.037082408 491:0.055802483 492:0.00014470734 493:0.009437592 494:0.10920984 495:0.03366655 496:-0.06534706 497:-0.027234234 498:-0.030473376 499:0.020820972 500:-0.05190474 501:-0.02494064 502:0.054343708 503:-0.0682547 504:0.0074812137 505:0.024923237 506:0.07389889 507:-0.03350036 508:0.08271258 509:0.03377851 510:0.045342036 511:0.00626545 
0.07033957549566353 0 0.08097634892513432 0.739204713120487 0 0 0 0 0.2095872577072712 0:-0.052627556 1:0.051905625 2:0.012857386 3:0.043314826 4:0.0042321 5:0.050283823 6:-0.08538926 7:0.011255559 8:-0.023674868 9:-0.09641028 10:0.046147984 11:-0.06738363 12:0.027937574 13:-0.044914264 14:-0.0065590814 15:0.013320509 16:-0.06862127 17:0.041731473 18:-0.018593075 19:-0.06806653 20:-0.027953224 21:0.023136804 22:-0.09120465 23:0.02321892 24:-0.021152416 25:0.020877112 26:0.010954166 27:0.011431471 28:-0.007902296 29:0.075268194 30:0.065411 31:-0.0050224173 32:0.10043193 33:0.019265369 34:-0.013791656 35:0.048083108 36:0.056368418 37:0.036859814 38:0.06478628 39:-0.013125332 40:0.0005170841 41:-0.019951835 42:0.08609554 43:-0.047393564 44:0.054449454 45:-0.007393741 46:-0.10149714 47:-0.028512517 48:-0.0019684252 49:-0.023897551 50:0.0071453997 51:0.10971949 52:0.0041692443 53:-0.008369616 54:-0.036465682 55:0.017404087 56:0.034562044 57:-0.020430062 58:0.014843796 59:-0.00713439 60:0.09267262 61:-0.02933332 62:0.019823698 63:-0.057108533 64:-0.07690335 65:0.045885168 66:-0.042145293 67:0.049799766 68:-0.03248165 69:0.08092582 70:-0.012365458 71:-0.015568072 72:-0.02476412 73:-0.0062761866 74:0.06756602 75:-0.041308828 76:-0.12209474 77:0.041058194 78:-0.044075467 79:-0.022579748 80:0.001373066 81:0.036927056 82:0.01624198 83:-0.00978134 84:0.020085363 85:-0.03775816 86:0.0499793 87:0.07258761 88:0.009749717 89:-0.0024735397 90:-0.029787995 91:-0.06342605 92:0.0054324716 93:0.038593482 94:0.029348165 95:-0.010133577 96:0.06909046 97:-0.031551164 98:0.020644411 99:0.007279398 100:-0.015329102 101:0.014335998 102:0.007894693 103:-0.017583283 104:-0.0002582126 105:-0.04204981 106:-0.015838303 107:-0.034294385 108:0.03384346 109:-0.019234886 110:0.026393933 111:0.12185614 112:-0.08704966 113:-0.033661533 114:0.11895487 115:0.07456272 116:0.016544336 117:-0.01680493 118:-0.00023641031 119:-0.026600858 120:-0.053169575 121:0.0393556 122:-0.07252585 123:0.06319926 124:0.025932979 125:0.018562976 126:-0.029354356 127:0.03661178 128:0.032954156 129:0.025761107 130:0.042329364 131:0.021532504 132:0.0759766 133:-0.014831918 134:0.040460236 135:-0.03590795 136:0.03845748 137:-0.024996871 138:-0.059676565 139:0.01281949 140:0.014076146 141:-0.027682755 142:-0.05178334 143:0.010900763 144:0.037936945 145:-0.070356406 146:0.0070456406 147:0.007513445 148:-0.01224801 149:-0.013576781 150:-0.004144477 151:-0.040664747 152:0.02021036 153:-0.06726998 154:0.053242046 155:0.011083433 156:0.034722872 157:-0.0069902614 158:0.10148108 159:-0.007332097 160:-0.011648466 161:0.002855833 162:0.02892865 163:-0.007823814 164:-0.015229365 165:-0.0083357515 166:-0.037967205 167:0.037732087 168:0.036069542 169:0.052187786 170:0.048943445 171:0.073710956 172:0.009225641 173:0.01662625 174:-0.014849767 175:-0.0075837695 176:0.036408614 177:-0.06230669 178:-0.020947935 179:-0.016498618 180:0.0097044315 181:-0.038174637 182:-0.0048292894 183:-0.0022438103 184:0.059457533 185:0.06939274 186:-0.018378768 187:0.06927894 188:0.021930855 189:0.02256561 190:-0.030677885 191:-0.02378067 192:0.013912491 193:-0.03967306 194:-0.004251282 195:-0.10178948 196:0.064444646 197:-0.023486637 198:0.006961022 199:0.0038122996 200:-0.012476503 201:-0.049354613 202:0.029192058 203:-7.549053e-05 204:-0.037550133 205:0.033812087 206:-0.0739112 207:-0.02503215 208:-0.05630817 209:0.005712507 210:0.0031912185 211:-0.029526409 212:0.06617363 213:0.03759664 214:0.07186883 215:0.027704736 216:-0.0061290115 217:0.03324119 218:0.07422757 219:-0.1358517 220:-0.035955194 221:-0.051949874 222:-0.11168899 223:-0.0021776257 224:0.031966083 225:-0.082437925 226:0.04072055 227:0.007280159 228:0.0034071375 229:-0.006032014 230:0.01215079 231:0.034728188 232:0.01287006 233:0.020944588 234:0.040945202 235:-0.0017355375 236:0.014924473 237:0.016238084 238:0.028130127 239:-0.04614273 240:-0.0014997583 241:0.06661329 242:0.03147744 243:-0.019177752 244:0.014967422 245:0.0027120134 246:0.077879585 247:0.05211776 248:-0.057036087 249:-0.022271227 250:-0.040068407 251:-0.069293395 252:-0.0071358737 253:-0.008586782 254:0.11956406 255:-0.007533057 256:0.05587239 257:-0.038357094 258:0.08487241 259:0.036431056 260:-0.007034369 261:-0.08013922 262:-0.011925903 263:-0.007409291 264:-0.0050116447 265:-0.048247334 266:0.041914187 267:0.02434727 268:-0.030567665 269:-0.01606009 270:-0.0082528 271:0.03952794 272:0.0027118744 273:0.008139786 274:0.09342306 275:-0.013210739 276:0.07576985 277:0.031301014 278:-0.00782078 279:-0.04955469 280:-0.041390337 281:-0.046997804 282:0.082237884 283:-0.01664337 284:-0.00054125686 285:0.0032025592 286:0.03927357 287:-0.04308323 288:-0.027478252 289:-0.052283023 290:0.011940962 291:0.0027540112 292:-0.03050559 293:-0.002248221 294:0.010416149 295:0.03855929 296:0.014472734 297:0.027266696 298:0.085539736 299:0.07370759 300:0.051125307 301:-0.02561467 302:0.040777855 303:-0.008525251 304:-0.020351117 305:0.018865513 306:0.02347776 307:-0.020971624 308:0.018738406 309:-0.008563417 310:0.021743588 311:-0.0064827614 312:0.08542268 313:-0.0087548755 314:0.002138373 315:-0.03641329 316:-0.0015385629 317:-0.04929131 318:-0.02772444 319:0.04648298 320:-0.009409141 321:-0.022863083 322:-0.098004326 323:-0.011026911 324:-0.051232997 325:-0.00021095756 326:0.03661083 327:-0.018463189 328:0.07756966 329:0.02775057 330:0.012047283 331:-0.09297922 332:-0.0012158193 333:0.01211561 334:-0.038349323 335:0.02354817 336:-0.036339443 337:-0.033905957 338:0.05220286 339:-0.015257183 340:-0.010290335 341:-0.08012344 342:0.070029065 343:0.023880683 344:-0.026159832 345:-0.05995207 346:-0.0018713344 347:-0.04284302 348:0.031152947 349:-0.0017143128 350:-0.07668393 351:0.017967494 352:-0.019019196 353:0.057787374 354:0.06971556 355:-0.0009159031 356:-0.0055722203 357:-0.01420937 358:-0.057569172 359:-0.039529216 360:-0.03592156 361:-0.011849679 362:-0.021892443 363:-0.06869931 364:-0.02230331 365:-0.042169876 366:-0.028667476 367:0.06069412 368:-0.06053019 369:-0.022138512 370:0.11327165 371:-0.03316903 372:-0.038315292 373:-0.05976889 374:0.037191648 375:-0.06243926 376:0.05069385 377:-0.068354346 378:-0.009443176 379:-0.0024461367 380:-0.012053596 381:-0.039405953 382:0.004893174 383:-0.01603647 384:-0.02586969 385:-0.065525554 386:-0.002945766 387:-0.10026409 388:0.07112679 389:0.035091467 390:0.0065227095 391:0.045332294 392:0.032938387 393:-0.034096826 394:-0.07112706 395:0.04257276 396:0.0723794 397:0.09573165 398:-0.04472653 399:0.041806526 400:0.026932428 401:-0.003095894 402:0.0047173263 403:-0.035504486 404:-0.011203864 405:0.018762805 406:-0.013226435 407:0.03708807 408:-0.04401931 409:-0.0025546353 410:0.041337404 411:0.012394387 412:0.018875824 413:0.011032312 414:-0.0217196 415:0.0050513684 416:-0.08639427 417:0.028670948 418:0.011724616 419:0.04232114 420:-0.011749813 421:-0.06770497 422:-0.02380168 423:-0.08712963 424:-0.10537377 425:0.03137252 426:0.005995533 427:-0.01667338 428:-0.00083628 429:0.03825293 430:0.015731335 431:0.004692914 432:-0.08315875 433:0.031118061 434:0.027503783 435:0.003521329 436:0.005704423 437:0.006083925 438:-0.003888771 439:0.029682187 440:0.060236316 441:0.09618237 442:-0.03603842 443:-0.0337143 444:-0.013312352 445:0.009316867 446:-0.081202514 447:-0.023226589 448:0.084823444 449:-0.019367665 450:-0.04350162 451:-0.03162313 452:0.002706896 453:0.0060103843 454:-0.04110144 455:0.013176363 456:-0.012187775 457:0.0058933976 458:-0.042973775 459:0.06706882 460:-0.050208326 461:-0.03768223 462:0.05581259 463:-0.010021066 464:0.049361505 465:0.027594607 466:0.0015635097 467:-0.033093944 468:-0.058556553 469:0.016910419 470:-0.03919198 471:-0.052973565 472:-0.10514332 473:-0.06600572 474:-0.045707073 475:-0.009877674 476:-0.019355442 477:-0.04925342 478:0.036761723 479:-0.0037575243 480:-0.005748635 481:-0.072982 482:-0.018717496 483:-0.03936449 484:0.0064450377 485:-0.007962008 486:0.02525744 487:-0.028158417 488:-0.009819612 489:-0.018957255 490:0.0020034174 491:0.08720464 492:0.027737273 493:0.02864904 494:0.03507249 495:0.051414993 496:-0.013524321 497:-0.007871014 498:0.04151821 499:0.022473557 500:-0.0147933 501:0.032051485 502:0.023034412 503:-0.026917493 504:-0.019948732 505:0.029055709 506:0.11169021 507:-0.10268669 508:0.06830328 509:0.039480764 510:0.07516304 511:0.02405328 
0 0 0 0 0 0.2525828359493613 0 0 0 0:-0.041691136 1:0.055344492 2:-0.023258397 3:0.048082367 4:-0.031293664 5:0.06317414 6:-0.11838121 7:0.03281711 8:-0.04345459 9:-0.052393597 10:0.0691439 11:-0.013409787 12:0.048433136 13:-0.038615573 14:0.01000753 15:0.034139253 16:-0.03658562 17:0.035125125 18:0.019323297 19:-0.04097738 20:-0.024589505 21:-0.011555172 22:-0.0871611 23:-0.027723338 24:0.0069480543 25:0.016645648 26:0.010206035 27:0.05652006 28:0.013819835 29:0.09678649 30:0.026009886 31:-0.03008476 32:0.053415056 33:0.03647806 34:-0.05546662 35:0.024039716 36:0.046376716 37:0.03814323 38:0.036248345 39:0.0194691 40:-0.011236033 41:0.025187057 42:0.04820213 43:0.0070979074 44:0.018568855 45:-0.013288194 46:-0.036814433 47:0.0015433436 48:-0.0063759144 49:-0.039649345 50:-0.036805127 51:0.057258725 52:-0.0009178223 53:-0.08741041 54:-0.040529292 55:0.05309242 56:-0.0063236495 57:0.020036003 58:-0.011986293 59:0.023071574 60:0.06445954 61:0.04905628 62:-0.031389643 63:-0.06863915 64:-0.042574324 65:0.06302214 66:-0.007127475 67:0.037690315 68:-0.06892342 69:0.02769831 70:0.041984856 71:0.021100048 72:-0.027357401 73:-0.013052523 74:0.050985288 75:-0.048424777 76:-0.10087451 77:0.08158744 78:-0.013433881 79:-0.06274335 80:-0.013753668 81:-0.009581844 82:0.036085762 83:0.027221827 84:0.019635582 85:-0.08061247 86:0.020545907 87:0.11825865 88:-0.02061565 89:0.019889753 90:-0.004540791 91:-0.060298115 92:-0.055052236 93:0.013140608 94:0.05148069 95:-0.043299433 96:0.09873149 97:-0.04343773 98:-0.01619575 99:0.05814525 100:-0.009651828 101:0.0045072567 102:0.013927992 103:0.010389406 104:-0.015808716 105:-0.017237986 106:0.006969576 107:-0.005049465 108:0.050632104 109:0.026636308 110:0.024982316 111:0.06470504 112:-0.054082878 113:0.026032954 114:0.0661001 115:0.08252287 116:0.027397808 117:0.051572748 118:0.050934903 119:0.013710795 120:-0.013372765 121:0.0072874282 122:-0.01552746 123:0.020611731 124:0.00018959187 125:0.012171394 126:-0.030394142 127:0.07707742 128:0.012823595 129:-0.009952021 130:0.015325969 131:0.002071494 132:0.085516945 133:-0.017137751 134:0.019235978 135:-0.0024349054 136:0.05448471 137:0.012728506 138:-0.03664058 139:0.029419603 140:0.006924111 141:-0.07718116 142:-0.043512784 143:-0.02973117 144:0.045772538 145:-0.06622315 146:-0.02732502 147:-0.00543143 148:0.03484993 149:-0.030906366 150:0.027081756 151:-0.033305574 152:0.036594357 153:-0.038541134 154:0.07569892 155:0.005934947 156:0.081609435 157:-0.021373332 158:0.04620967 159:0.013625811 160:-0.013829934 161:0.021324188 162:-0.0074524838 163:0.013915331 164:0.039051946 165:-0.00815693 166:0.011187862 167:-0.00278465 168:-0.015305562 169:0.07682317 170:0.03113682 171:0.10582432 172:-0.00046097746 173:0.010502647 174:0.0027174002 175:-0.048029102 176:0.11286988 177:-0.054041464 178:-0.024579976 179:-0.016929582 180:0.013424086 181:-0.011502539 182:0.0018148257 183:0.048889723 184:0.020644236 185:0.06969557 186:-0.004928636 187:0.0777764 188:0.0057808757 189:0.0035431962 190:-0.020187568 191:-0.03356877 192:0.04749866 193:-0.023629466 194:0.02728519 195:-0.02405634 196:0.028714472 197:0.043426853 198:-0.0018383246 199:0.06710378 200:-0.011032166 201:-0.06111162 202:0.0076781767 203:-0.016181896 204:-0.03512968 205:0.031245686 206:-0.09005548 207:-0.017959606 208:-0.053541526 209:-0.02311861 210:-0.02481382 211:-0.05601805 212:0.055542823 213:0.04744853 214:0.07670427 215:0.013236375 216:-0.03010951 217:0.060721036 218:0.07445841 219:-0.10434681 220:-0.020959672 221:-0.046611764 222:-0.094001934 223:-0.06195269 224:0.015362091 225:-0.03532588 226:0.03376287 227:-0.0057683177 228:-0.02546833 229:0.04807866 230:-0.01752733 231:0.041164566 232:0.0016644171 233:-0.04445858 234:0.033607118 235:0.031380232 236:0.040246524 237:-0.01126595 238:0.004589261 239:-0.039266627 240:-0.044173047 241:0.07666499 242:0.059268758 243:-0.031141324 244:0.038227145 245:0.04575203 246:0.023671396 247:0.08230491 248:-0.013984432 249:0.001288483 250:-0.051789135 251:-0.024652734 252:-0.008670387 253:0.0032386552 254:0.039137032 255:0.04997841 256:0.08358611 257:-0.009761084 258:0.11443001 259:0.03674812 260:-0.07338373 261:-0.08249974 262:-0.048306808 263:-0.0051789624 264:-0.009922689 265:-0.058832526 266:0.035941284 267:-0.010240759 268:-0.022490207 269:0.020174723 270:-0.03231231 271:0.008180373 272:-0.0040615764 273:0.027468318 274:0.01291425 275:-0.03006138 276:0.016993567 277:-0.01414462 278:-0.057985973 279:-0.055241756 280:-0.004094008 281:-0.014730073 282:0.047651365 283:-0.0020392924 284:0.009081081 285:0.008384869 286:0.024163973 287:-0.06227917 288:-0.020595543 289:-0.06415355 290:0.033418547 291:-0.0451069 292:-0.06482015 293:0.04130485 294:-0.023173839 295:-0.025459126 296:0.061296973 297:0.06131397 298:0.072954066 299:0.08277469 300:0.02759287 301:-0.05166476 302:0.009949163 303:-0.013628784 304:-0.029897243 305:0.035516776 306:0.013025385 307:0.013660026 308:-0.014450069 309:-0.0057669594 310:0.01546828 311:0.0024834443 312:0.028617684 313:-0.013363481 314:0.019913571 315:-0.039588876 316:0.007990673 317:-0.08900321 318:-0.009128857 319:0.022500088 320:0.004037192 321:-0.034085892 322:-0.14862165 323:-0.003187962 324:-0.03041894 325:0.03432062 326:0.06441683 327:0.038347878 328:0.09851111 329:0.04879044 330:0.033830315 331:-0.07083992 332:-0.04515575 333:-0.0055202236 334:0.009959607 335:0.027565625 336:-0.043846227 337:-0.038895544 338:-0.0030804658 339:0.043809716 340:-0.0025872875 341:-0.015370584 342:0.07788919 343:0.052718997 344:-0.03179701 345:-0.024839032 346:-0.0028823977 347:-0.03505659 348:0.036048345 349:0.030969113 350:-0.049115058 351:0.035897035 352:-0.024956344 353:0.096332215 354:0.030781189 355:-0.07332166 356:0.022146706 357:0.016236015 358:-0.014924271 359:-0.04937972 360:-0.03657482 361:-0.024234774 362:-0.09526501 363:-0.11621941 364:-0.07565722 365:0.0033874984 366:-0.0039990298 367:0.0036254502 368:-0.08246244 369:-0.00067666965 370:0.042226166 371:-0.03822873 372:-0.025559453 373:-0.044452514 374:0.0711197 375:-0.09798362 376:0.069553725 377:-0.039531816 378:0.0037764425 379:-0.05150696 380:-0.010995015 381:-0.07731973 382:-0.020329349 383:-0.016783496 384:-0.024005143 385:-0.074749775 386:-0.012756354 387:-0.10413899 388:0.06695805 389:-0.0081468485 390:0.010384923 391:0.06789891 392:0.021437665 393:-0.10236156 394:-0.024817428 395:0.06141105 396:0.056387838 397:0.04148637 398:0.00032270481 399:0.07905875 400:0.043502066 401:0.077699274 402:0.033311002 403:-0.02438701 404:-0.013806607 405:0.001030616 406:0.025370251 407:0.035532948 408:0.013963182 409:0.009164731 410:0.043373358 411:0.0055686906 412:0.057638958 413:0.03271936 414:-0.00508362 415:-0.014935364 416:-0.03525193 417:0.04879235 418:0.016783 419:0.018484345 420:0.031193985 421:-0.012041973 422:-0.031648625 423:-0.042393412 424:-0.058795713 425:0.0041947872 426:0.009605599 427:-0.033466104 428:-0.015371908 429:0.07643422 430:0.058955807 431:-0.009239742 432:-0.09245151 433:0.02703973 434:0.004839408 435:0.056604296 436:0.015144792 437:0.0022064142 438:-0.01875272 439:-0.0002604635 440:0.06651908 441:0.09485744 442:-0.01720219 443:-0.036350876 444:0.0025096599 445:-0.006900988 446:-0.07780676 447:-0.012775101 448:0.033876996 449:-0.014041467 450:0.014470097 451:-0.0070599597 452:0.015958235 453:0.045122217 454:0.03402925 455:-0.02178416 456:0.023495894 457:0.023720974 458:-0.010172265 459:0.031163337 460:0.012576 461:-0.0387198 462:0.01954001 463:-0.062210485 464:0.0993933 465:0.030766014 466:-0.0021506308 467:-0.0301517 468:-0.0600826 469:0.01510791 470:-0.019615216 471:-0.06714347 472:-0.006458196 473:-0.0904468 474:-0.044397976 475:-0.046922352 476:0.006920461 477:-0.04606635 478:0.03808015 479:0.040378094 480:0.015541633 481:-0.03449017 482:-0.01686554 483:-0.0015260902 484:-0.008843638 485:0.026362153 486:-0.014322721 487:-0.044011652 488:-0.027644137 489:0.030963194 490:-0.00851538 491:0.10259791 492:-0.055361867 493:0.0381154 494:0.018183934 495:-0.0028123118 496:-0.012169828 497:0.00069244974 498:0.018945334 499:-0.009244059 500:-0.05947706 501:0.0623198 502:0.02859899 503:-0.03915594 504:-0.044152677 505:-0.048553318 506:0.051237807 507:-0.0436443 508:0.026424589 509:0.0619436 510:0.079112194 511:0.043305725 
0.8670951073793147 0.4273441467704294 0 0.001646398647740492 0 0 0.7067012814387573 0.6956630809887803 0.1248844871255013 0:-0.052334983 1:0.052436013 2:-0.003930851 3:0.011324829 4:8.210623e-05 5:0.073548116 6:-0.04998401 7:-0.010238658 8:-0.03354209 9:-0.047657393 10:0.069126494 11:-0.038425066 12:0.034466 13:-0.065463684 14:-0.029852789 15:0.030076364 16:-0.021687638 17:0.06636966 18:-0.044111386 19:-0.04990642 20:0.015462067 21:0.07000511 22:-0.06581185 23:0.015603162 24:-0.03323459 25:0.021413362 26:0.014714639 27:0.02816333 28:-0.027300999 29:0.047796637 30:0.07473956 31:-0.010267033 32:0.089368306 33:0.003961672 34:0.020434638 35:0.0886154 36:0.0795793 37:0.014812713 38:0.09176196 39:-8.443385e-05 40:-0.01691108 41:-0.03339564 42:0.11088994 43:-0.046114847 44:0.039772578 45:0.0050351107 46:-0.058377467 47:-0.044817902 48:0.018361108 49:0.0004651303 50:0.032067098 51:0.06901896 52:-0.030573549 53:-0.009485646 54:0.031873092 55:0.021040732 56:0.056000836 57:-0.06643453 58:0.008540473 59:0.009578557 60:0.11670962 61:0.02965674 62:0.0034885365 63:-0.072420545 64:-0.0793547 65:0.030753057 66:0.009099384 67:0.06283721 68:0.022944503 69:0.07933781 70:0.018616853 71:-0.03415745 72:-0.022128174 73:-0.017408686 74:0.04880138 75:-0.022724086 76:-0.09398021 77:0.07788215 78:-0.062151074 79:-0.06921183 80:-0.04767067 81:0.012965041 82:0.028000237 83:-0.03186754 84:-0.02273636 85:-0.065036 86:0.016257234 87:0.030157056 88:0.014839959 89:-0.008484809 90:-0.072999395 91:-0.03893848 92:-0.03399274 93:0.075068794 94:0.029853987 95:-0.015757179 96:0.00998933 97:-0.07122748 98:-0.008152476 99:0.017933574 100:-0.02701909 101:0.022189291 102:0.021826815 103:-0.044588238 104:-0.017219568 105:-0.023632629 106:-0.023632327 107:-0.08734064 108:-0.0022541303 109:0.027358124 110:-0.03405114 111:0.07848851 112:-0.020258203 113:0.0012410653 114:0.10740424 115:0.025463436 116:0.020128785 117:0.003401426 118:0.012072529 119:-0.04617845 120:-0.04019783 121:-0.013895327 122:-0.043614388 123:0.05767293 124:-0.0346007 125:0.03565895 126:-0.09590196 127:0.04587714 128:0.054057993 129:0.033595797 130:0.068199374 131:0.028613383 132:-0.016022291 133:-0.06361166 134:0.029001115 135:-0.024345646 136:0.0073114308 137:-0.023746131 138:-0.037548516 139:-0.0068618758 140:0.0353989 141:-0.0636351 142:-0.026020624 143:-0.042421997 144:-0.03034657 145:-0.07518875 146:0.030526342 147:-0.061907258 148:-0.00018243334 149:0.018355887 150:-0.00718605 151:-0.08949007 152:0.013144969 153:-0.033409774 154:0.06388466 155:-0.015185365 156:0.02493011 157:-0.002653578 158:0.07288213 159:-0.023550753 160:-0.040629677 161:0.0014559851 162:-0.035948973 163:-0.0054068635 164:0.026374355 165:-0.056525383 166:0.020431336 167:-0.002651115 168:0.06481458 169:0.0017774906 170:-0.020727564 171:0.099225216 172:-0.036334082 173:0.047729485 174:0.014432603 175:-0.016175011 176:0.056976102 177:0.0050499863 178:0.011202945 179:-0.037424996 180:-0.040611196 181:-0.025412055 182:0.010444263 183:-0.025238931 184:0.008031504 185:0.052375056 186:0.016738378 187:0.047149267 188:-0.004578165 189:0.035499588 190:-0.026597504 191:-0.011205402 192:0.023263441 193:0.03883954 194:-0.035802837 195:-0.10022631 196:0.03056552 197:0.024063954 198:0.01825799 199:0.009163792 200:-0.05065814 201:-0.0065876 202:0.02720174 203:-0.00042124125 204:-0.02787192 205:0.00704482 206:-0.07279335 207:-0.033547856 208:-0.09105423 209:-0.024523163 210:0.018040836 211:-0.034220695 212:0.042031236 213:0.03766323 214:0.017745955 215:-0.00093355967 216:-0.03879932 217:-0.0056892084 218:0.03632853 219:-0.09177683 220:0.015294894 221:-0.0644005 222:-0.035618268 223:0.047567897 224:0.021245234 225:-0.10597999 226:0.00946237 227:-0.029725926 228:0.029767 229:0.011645013 230:0.032493155 231:0.034709245 232:0.019974887 233:0.020043777 234:0.0745552 235:-0.032099873 236:-0.038741875 237:0.0011915946 238:0.026641501 239:-0.015118349 240:-0.013753424 241:0.053533375 242:0.084092796 243:-0.02059562 244:-0.0030543485 245:-0.014089472 246:0.04318596 247:0.060442444 248:-0.025288543 249:-0.010006074 250:-0.07493011 251:-0.06659013 252:-0.03351806 253:-0.02525806 254:0.062629744 255:-0.0641455 256:0.07172722 257:-0.025713064 258:0.07539446 259:0.018887423 260:0.0032332113 261:-0.07349583 262:-0.02267877 263:-0.0023207194 264:-0.019386677 265:-0.055658657 266:0.004924148 267:0.026193455 268:-0.012737991 269:-0.002725866 270:0.02837647 271:-0.017268412 272:0.012103735 273:-0.007757565 274:0.10614754 275:0.03252067 276:0.060754795 277:0.027213134 278:-0.08207364 279:-0.057436302 280:-0.009026639 281:-0.044381086 282:0.04364593 283:-0.025348643 284:-0.014943604 285:-0.017747581 286:0.01045497 287:-0.062271114 288:-0.05060512 289:-0.0010030842 290:0.0071454984 291:-0.002150628 292:-0.11003315 293:-0.03679009 294:-0.012976013 295:0.046016324 296:0.031955607 297:0.026695425 298:0.053365685 299:0.00066501717 300:0.046645503 301:0.0032115958 302:0.021387115 303:-0.047510233 304:-0.028331509 305:-0.008237113 306:0.01772444 307:0.011447619 308:0.01020185 309:-0.007100398 310:0.089581065 311:-0.053565104 312:0.046639487 313:-0.013355869 314:0.017217953 315:-0.008180113 316:-0.010184231 317:-0.04036478 318:-0.010021335 319:0.01872371 320:-0.005693251 321:-0.07128948 322:-0.059557326 323:0.026278889 324:-0.013718128 325:0.05952317 326:0.039249435 327:-0.003525735 328:0.098384015 329:0.038415592 330:-0.0036256036 331:-0.10591483 332:-0.028407725 333:0.0095273135 334:-0.016348833 335:0.019712865 336:0.010668544 337:-0.060871962 338:0.02277625 339:0.053287476 340:-0.017357796 341:-0.09178372 342:0.042599812 343:0.020991791 344:0.00853206 345:-0.008083756 346:0.0019690609 347:-0.028889576 348:0.010330433 349:-0.006701697 350:-0.034118906 351:0.06280472 352:0.00087985944 353:0.045993514 354:0.07701394 355:-0.016094945 356:0.006100866 357:-0.00919333 358:-0.059461486 359:-0.062200177 360:-0.021889994 361:-0.016596442 362:-0.051296063 363:-0.1138179 364:-0.0093719335 365:0.01617358 366:0.0009346662 367:0.08735116 368:-0.090366945 369:-0.030008601 370:0.017352378 371:-0.04970819 372:-0.026429627 373:-0.053402927 374:0.013120455 375:-0.033253558 376:0.06311516 377:-0.034709357 378:-0.029875707 379:-0.025849693 380:0.019722605 381:-0.003857888 382:0.013752087 383:-0.044530064 384:-0.030072216 385:-0.038331375 386:-0.02550649 387:-0.11461496 388:-0.0033428774 389:0.022094222 390:-0.0083485 391:0.0359738 392:-0.042602945 393:-0.020906158 394:-0.060554754 395:0.059899084 396:0.035387248 397:0.072364286 398:-0.014769842 399:0.086427025 400:0.0009249783 401:-0.018760534 402:0.011805963 403:0.0043037846 404:0.015433625 405:0.027078772 406:0.0050687385 407:0.04608454 408:0.018419672 409:-0.011879967 410:0.016255042 411:0.009075983 412:0.07928562 413:0.057153378 414:-0.04732468 415:-0.0031615812 416:-0.036563974 417:-0.00090105564 418:0.05331632 419:0.011548575 420:0.0030076208 421:-0.032172136 422:-0.07303497 423:-0.10142558 424:-0.049485516 425:0.04667185 426:0.029435081 427:0.01009985 428:-0.0039357264 429:0.10673032 430:-0.021981992 431:0.0026642499 432:-0.10080808 433:-0.013645979 434:0.024092084 435:0.033397578 436:0.028862173 437:0.036861397 438:-0.0019755368 439:0.023746684 440:0.022760399 441:0.08012931 442:-0.061878115 443:-0.09101027 444:-0.00031817317 445:-0.026172241 446:-0.07320508 447:0.020640599 448:0.042254426 449:-0.024242673 450:0.010716806 451:-0.009118659 452:-0.003374551 453:0.022004146 454:-0.09385561 455:-0.024196392 456:-0.030584572 457:0.050613724 458:-0.054041322 459:0.09154503 460:-0.09130344 461:-0.039852977 462:0.04826703 463:0.059758604 464:0.022253184 465:0.035990447 466:-0.013877475 467:-0.050509647 468:-0.068802156 469:-0.025544925 470:-0.012875415 471:-0.009859166 472:-0.052775003 473:-0.01475743 474:-0.09637424 475:-0.0459495 476:0.00094362063 477:-0.035079625 478:-0.008682823 479:-0.058223568 480:0.0408399 481:-0.06722714 482:-0.015136272 483:-0.033262864 484:-0.03147495 485:0.04684228 486:0.01595637 487:-0.016846532 488:-0.06276749 489:-0.013626907 490:0.026082389 491:0.03358771 492:0.034125835 493:0.037063625 494:0.03282603 495:0.035856813 496:0.012193613 497:0.01620022 498:-0.009127924 499:0.014515189 500:0.010230158 501:-0.0030081535 502:0.08768892 503:-0.020800807 504:0.0022169687 505:0.010487929 506:0.11456639 507:-0.011941994 508:0.058051452 509:0.03612243 510:0.030414937 511:0.04475426 
-0.6680435942070609 0.4389949892943901 0 0.3262458315879905 0.3789088819803736 0.4362543088098628 0.7603430206877537 0.4860869375495665 0.1526697592339111 0:-0.016389608 1:0.04384094 2:0.034419402 3:-0.055597432 4:0.007823415 5:0.014948256 6:-0.037712153 7:-0.021501098 8:0.06293209 9:0.08149605 10:0.014194177 11:-0.030880753 12:-0.017208515 13:-0.055787567 14:-0.09292745 15:-0.014240393 16:0.032833647 17:0.018680848 18:0.032253772 19:-0.006502888 20:0.020759491 21:0.018909877 22:-0.035419606 23:-0.06146805 24:-0.07510862 25:0.06806555 26:0.017458225 27:0.045850284 28:-0.026832437 29:-0.00291526 30:-0.045101408 31:0.012354164 32:0.05840302 33:-0.023612594 34:-0.020873 35:-0.012129047 36:-0.008442683 37:0.038640514 38:0.050070442 39:0.0036054016 40:-0.09033242 41:0.01473221 42:0.02916721 43:0.08321177 44:-0.009040978 45:-0.0451662 46:-0.022883432 47:0.0030164716 48:-0.04049397 49:-0.008814023 50:-0.013414688 51:0.015637338 52:0.011187771 53:0.06312364 54:0.056853075 55:0.056201257 56:0.037281718 57:-0.0012316309 58:-0.07364971 59:-0.04009941 60:0.08294973 61:-0.020473517 62:-0.062648065 63:-0.037359405 64:-0.050639167 65:-0.029010087 66:0.007338152 67:0.06206579 68:-0.02766258 69:0.037927248 70:0.037290733 71:-0.07649873 72:-0.018757049 73:-0.035633367 74:-0.058798995 75:0.022183783 76:-0.028452633 77:0.10759551 78:-0.02562125 79:-0.078477174 80:-0.08434814 81:0.020298915 82:0.03444654 83:-0.05501568 84:-0.06971294 85:0.022004057 86:-0.09114393 87:-0.043316316 88:-0.010585234 89:0.023928523 90:-0.056915008 91:-0.06795609 92:-0.023647489 93:0.06425775 94:-0.011700522 95:0.071511135 96:0.02304167 97:0.007051055 98:0.019340431 99:-0.026389316 100:-0.066090874 101:-0.024602233 102:-0.04568147 103:-0.05080939 104:0.018290794 105:0.010100836 106:-0.013139673 107:-0.01440543 108:-0.029379243 109:0.0016060795 110:-0.031606827 111:-0.03307677 112:0.014114227 113:0.014437074 114:0.044582907 115:0.11788578 116:0.058713354 117:0.06286438 118:0.084554814 119:-0.039904904 120:0.016939983 121:-0.08177814 122:0.028309856 123:0.06632292 124:-0.004644482 125:-0.009459803 126:-0.031240627 127:0.0031511534 128:-0.051662765 129:0.021312224 130:-0.06506868 131:0.08457759 132:-0.022582117 133:-0.071306035 134:0.009768787 135:-0.055866215 136:0.0013647353 137:-0.070583485 138:-0.012315841 139:-0.05687407 140:-0.03651455 141:-0.094115414 142:-0.058224197 143:-0.048629824 144:-0.11726692 145:-0.01343351 146:0.12581463 147:-0.055543423 148:-0.10755292 149:0.032275334 150:-0.016946036 151:-0.012319914 152:-0.032852385 153:-0.0038971726 154:0.041057803 155:0.077572495 156:-0.03862009 157:0.044332255 158:0.10988858 159:-0.015059498 160:0.03841375 161:0.030998642 162:-0.0443662 163:-0.040801562 164:0.007972865 165:-0.03509158 166:0.091305844 167:-0.036767773 168:0.06828345 169:0.09681953 170:-0.0055505983 171:0.021814987 172:-0.04099238 173:-0.008992634 174:-0.0011794815 175:-0.013819129 176:-0.00797653 177:0.050071105 178:0.011735447 179:-0.09493301 180:0.05684449 181:0.048975296 182:-0.03049688 183:0.008607 184:0.046730552 185:0.012904116 186:-0.025913607 187:0.038011905 188:0.059022382 189:0.047662303 190:0.009937449 191:0.04030377 192:-0.07897503 193:0.041068826 194:-0.021086274 195:-0.026852483 196:-0.013851467 197:0.03184918 198:-0.013477134 199:-0.028935777 200:0.03863938 201:-0.012734284 202:0.002680801 203:-0.011233536 204:-0.084582604 205:0.02867868 206:-0.009126658 207:-0.04689716 208:-0.020323921 209:-0.042229615 210:0.052118048 211:-0.04558891 212:0.054746617 213:-0.0317833 214:0.03348592 215:-0.098510616 216:-0.006379426 217:0.025756704 218:-0.049019534 219:0.028949633 220:0.045691833 221:-0.035135083 222:0.08646831 223:0.013895152 224:-0.07245806 225:-0.083776124 226:0.0040078396 227:-0.0048864847 228:0.029580053 229:-0.033791397 230:-1.951302e-05 231:0.0060812496 232:-0.0045339335 233:0.024195828 234:0.021659994 235:0.028164102 236:-0.0011376629 237:-0.09710768 238:0.0030187103 239:0.066770576 240:-0.00767542 241:0.03640004 242:-0.049286205 243:0.026502322 244:-0.087212175 245:-0.013008381 246:-0.0042300103 247:-0.041716654 248:-0.013688575 249:0.00755564 250:-0.03971982 251:0.0017784544 252:0.08968224 253:-0.015722398 254:-0.04992161 255:0.033121753 256:-0.008990567 257:0.008215309 258:-0.024237873 259:-0.022884164 260:0.02210151 261:0.007345913 262:-0.016399657 263:0.10750277 264:-0.06909734 265:0.037859708 266:0.026612168 267:-0.057321686 268:-0.048601106 269:0.041150045 270:0.03345845 271:0.024773147 272:-0.018667804 273:-0.02454752 274:0.055382535 275:0.099284574 276:0.042849053 277:0.04031084 278:-0.04512298 279:-0.06885386 280:-0.017952023 281:0.04055938 282:0.016355151 283:0.029218055 284:-0.004094177 285:0.032803595 286:0.06430711 287:0.029124947 288:-0.03145348 289:-0.029609416 290:0.020366365 291:-0.0018920454 292:-0.0831441 293:0.03577656 294:-0.016746707 295:-0.023800127 296:0.05238803 297:0.04056976 298:0.070047244 299:-0.030679077 300:-0.08752811 301:0.055422254 302:-0.07972383 303:-0.0018136116 304:-0.04046471 305:0.009292616 306:0.00913845 307:0.054913312 308:-0.0037714783 309:-0.006798538 310:0.02845062 311:-0.04475633 312:-0.014908839 313:-0.020530472 314:0.012232121 315:2.9224295e-05 316:0.030599892 317:0.0073911645 318:0.040155474 319:-0.00732546 320:-0.025231954 321:0.046037283 322:-0.006041657 323:0.026484799 324:-0.07400624 325:0.04865243 326:-0.010939794 327:-0.0071736807 328:0.00023728612 329:-0.020747522 330:-0.029745607 331:-0.012322947 332:0.008748667 333:0.030872595 334:0.013610041 335:0.05065085 336:0.011157901 337:-0.06776278 338:0.0035815267 339:-0.013509873 340:-0.045591366 341:0.05003073 342:0.019542854 343:-0.003479976 344:-0.03659608 345:-0.031949453 346:-0.030696662 347:-0.028647235 348:0.002516807 349:-0.01647163 350:-0.032831766 351:0.12473922 352:-0.034733597 353:-0.016857337 354:-0.0035748344 355:-0.065994866 356:0.0722821 357:-0.029415734 358:-0.029740993 359:0.021686181 360:-0.0054371525 361:-0.0046495874 362:0.010482119 363:-0.011641987 364:-0.0040489584 365:0.021583216 366:0.04186208 367:0.036992997 368:0.093897216 369:-0.021823443 370:-0.05686589 371:0.03532037 372:-0.0036428112 373:0.0037531636 374:-0.019654287 375:-0.01371362 376:0.015531612 377:-0.004872971 378:-0.006864685 379:-0.10079163 380:0.096475266 381:-0.011542307 382:0.05827018 383:-0.026318263 384:-0.011973401 385:-0.024212353 386:0.0026720585 387:-0.035510372 388:-0.041892678 389:-0.028381217 390:-0.0010131523 391:-0.01094045 392:0.0070493706 393:0.030342335 394:-0.054081663 395:0.0052265245 396:-0.003286886 397:0.0036322195 398:0.057876397 399:-0.025339892 400:0.0061805625 401:-0.023332158 402:-0.0065410263 403:-0.0060329027 404:0.058976915 405:0.016152691 406:-0.032049086 407:0.05318307 408:0.07108907 409:-0.010220092 410:0.017783327 411:0.067275435 412:-0.012743353 413:-0.017566232 414:-0.005370506 415:0.07450957 416:-0.011532644 417:-0.04772002 418:0.029468257 419:0.020674527 420:0.06797352 421:0.042967517 422:0.0669426 423:-0.014544981 424:-0.018322578 425:0.009208789 426:-0.03708905 427:-0.04803157 428:-0.023719594 429:0.08249045 430:-0.025864273 431:-0.05092468 432:-0.053490732 433:-0.0040622284 434:0.02839235 435:0.02072954 436:0.017428119 437:-0.03136262 438:0.035668585 439:0.030592805 440:0.021146059 441:0.06467391 442:-0.052147865 443:-0.075141616 444:-0.020182693 445:-0.03468444 446:-0.04253559 447:0.02182064 448:-0.034914333 449:-0.04411611 450:-0.003601402 451:0.088260606 452:-0.06415103 453:-0.032844603 454:-0.04017336 455:-0.048980385 456:-0.04205772 457:0.02884616 458:-0.013786273 459:-0.012931922 460:0.057017688 461:0.02181859 462:0.00858387 463:0.07903573 464:0.029891541 465:0.04808138 466:-0.021314688 467:0.015972825 468:-0.04388469 469:-0.059987977 470:-0.022599522 471:-0.06920177 472:-0.03410352 473:0.036723945 474:-0.033429287 475:-0.0059272987 476:0.050145965 477:0.01579556 478:-0.06366233 479:-0.07375986 480:0.06328179 481:-0.016323943 482:-0.033145502 483:-0.025540786 484:-0.02300915 485:0.057022594 486:0.01758077 487:0.03563545 488:-0.08206436 489:0.0036488993 490:0.085936405 491:0.046671476 492:0.023552014 493:0.0091877375 494:-0.012556212 495:0.0376665 496:-0.015698215 497:-0.044582166 498:-0.07330207 499:-0.04908769 500:-0.033429317 501:0.025327573 502:0.050589114 503:0.019834477 504:0.092156015 505:-0.012867307 506:-0.025453705 507:-0.03315851 508:0.0029509142 509:-0.04042567 510:-0.05945062 511:0.057107553 
-0.09780226828694033 0 0.3682256043816338 0.6860558331190485 0.7011096058417947 0.2112212733976452 0.004757557250705266 0 0 0:0.013224442 1:0.053072568 2:0.0009499215 3:-0.014826829 4:0.0012872556 5:0.03113279 6:0.033571552 7:0.015086794 8:0.04181504 9:-0.052708153 10:-0.024617007 11:0.022551747 12:0.009710741 13:-0.036875825 14:-0.069076255 15:-0.013080181 16:0.04081036 17:0.0068663238 18:-0.058979675 19:-0.015570315 20:-0.020677248 21:-0.0332214 22:0.004113986 23:-0.0030436127 24:0.0043731807 25:0.032240067 26:0.02382058 27:0.05277496 28:-0.017526144 29:0.022927057 30:0.09602978 31:-0.011415364 32:-0.025178107 33:-0.01980097 34:-0.015699362 35:0.0072676013 36:-0.044095233 37:-0.016814444 38:-0.002059438 39:0.038034428 40:0.046359807 41:-0.043949254 42:0.009384359 43:0.0342179 44:0.07240497 45:-0.030215172 46:-0.07681576 47:-0.043706603 48:0.048546046 49:-0.08290204 50:-0.038083766 51:-0.0021626442 52:0.024693524 53:0.024629088 54:-0.036056828 55:0.048359647 56:-0.02005082 57:-0.07236943 58:-0.0037838442 59:-0.042566005 60:0.048120026 61:-0.034073472 62:-0.004095931 63:0.049352475 64:-0.006517943 65:0.014056257 66:-0.042238995 67:-0.008197844 68:-0.038182117 69:0.0030383174 70:-0.022749303 71:-0.0218692 72:-0.02330474 73:-0.033859625 74:0.007025887 75:-0.04094993 76:-0.04590261 77:0.0013343979 78:0.0077232597 79:-0.016764296 80:-0.07832598 81:-0.011748638 82:-0.057211608 83:-0.03386903 84:0.010082283 85:0.010307202 86:-0.06009085 87:-0.017384648 88:0.03221992 89:-0.017404614 90:-0.0069243046 91:-0.051700413 92:0.022463832 93:-0.03348851 94:0.02679519 95:0.003503699 96:0.013959603 97:0.011263309 98:0.06292363 99:0.007935164 100:-0.044326905 101:0.038144615 102:-0.025999725 103:0.026371608 104:0.044561673 105:0.036275882 106:-0.029640485 107:0.041839354 108:0.014190909 109:0.046508346 110:0.021950625 111:0.006290954 112:0.024513712 113:0.016034868 114:0.055699512 115:-0.051121447 116:-0.09005151 117:-0.02401499 118:-0.05954177 119:-0.09495127 120:0.015709985 121:0.036374997 122:-0.06539905 123:0.054895084 124:-0.0128959 125:-0.051188838 126:0.008915354 127:-0.008623953 128:-0.0018374138 129:0.01683675 130:-0.05269152 131:0.006300241 132:0.022197299 133:-0.0049624015 134:0.035638362 135:-0.026469193 136:0.04015186 137:-0.10147911 138:-0.0074634277 139:0.014793926 140:0.03924404 141:-0.048086543 142:-0.06060788 143:0.023714883 144:-0.063751675 145:-0.08024615 146:0.02898987 147:-0.017102743 148:-0.040132873 149:0.0051029357 150:-0.0614151 151:0.028997755 152:0.03674887 153:0.010553005 154:0.06869637 155:0.024041306 156:0.028689895 157:-0.0669435 158:0.04898629 159:0.05575983 160:0.041980762 161:0.0709132 162:0.057203185 163:-0.027505996 164:-0.05061949 165:0.002068969 166:0.064940035 167:0.033310514 168:0.056953494 169:-0.009526866 170:-0.0737103 171:0.05779865 172:-0.006129705 173:0.04945862 174:0.018839663 175:0.06933521 176:-0.069998465 177:0.017481185 178:0.04014793 179:-0.011901627 180:0.0058480175 181:0.0041769906 182:-0.044717163 183:0.01820944 184:0.056794137 185:-0.0039385613 186:-0.07248471 187:0.0007696552 188:0.074173234 189:0.05453291 190:-0.05041801 191:-0.051647812 192:-0.10254273 193:-0.055720948 194:-0.03161777 195:-0.027501673 196:0.03675627 197:-0.06024927 198:0.08870417 199:-0.10885721 200:0.023638304 201:-0.047528774 202:-0.017242502 203:-0.017917221 204:0.033390094 205:-0.030145993 206:-0.024449268 207:-0.03405297 208:0.017840013 209:0.0011544451 210:-0.01195622 211:0.022477552 212:0.07015045 213:-0.05168992 214:0.036141716 215:0.0057971356 216:-0.06620847 217:-0.0041352343 218:-0.041952733 219:-0.07359606 220:0.010634965 221:-0.012533577 222:-0.0063066822 223:0.08985295 224:-0.01617968 225:-0.048288904 226:0.06845031 227:0.0021791067 228:0.019910311 229:-0.07256636 230:-0.05972239 231:-0.03176824 232:0.047774233 233:-0.018647052 234:0.0066774813 235:0.00554384 236:-0.036974877 237:0.03672135 238:0.02997581 239:0.019908927 240:0.02065096 241:0.014680766 242:-0.0068052565 243:-0.0669357 244:-0.0071139373 245:-0.058240358 246:0.07610003 247:-0.026977591 248:-0.061432496 249:0.0009992933 250:-0.003951297 251:0.05042413 252:0.06285145 253:-0.020062003 254:0.06406598 255:0.01952995 256:0.049001835 257:0.0032879533 258:-0.056333303 259:0.025570977 260:0.07907265 261:0.062367518 262:-0.06700609 263:0.027739923 264:0.07141989 265:0.0031872154 266:-0.06480249 267:0.01628472 268:-0.055282827 269:-0.06100675 270:-0.036807727 271:-0.01218143 272:0.043038007 273:-0.033259545 274:0.1016795 275:0.06401606 276:0.072962165 277:-0.016056888 278:0.015122988 279:-0.03015829 280:0.018623706 281:0.011037129 282:0.040489823 283:0.07009499 284:0.0044218386 285:-0.0073992684 286:-0.00864968 287:0.097270764 288:0.004752402 289:0.08393252 290:-0.021443943 291:-0.013303941 292:-0.011344086 293:-0.040347394 294:0.08544278 295:0.061313666 296:-0.015973303 297:0.0064902017 298:0.034374744 299:-0.02895801 300:-0.02963116 301:0.024556765 302:-0.043025065 303:-0.10418405 304:-0.064729765 305:0.054873846 306:0.053192448 307:-0.06259598 308:0.05056216 309:0.01641898 310:-0.006442379 311:-0.07618293 312:0.033488344 313:-0.026888551 314:-0.024343438 315:-0.0016768682 316:0.022831231 317:0.07135435 318:-0.010714185 319:-0.025616748 320:-0.033062212 321:-0.07073576 322:0.011254379 323:0.011526037 324:-0.018823726 325:-0.04337069 326:-0.047329336 327:-0.0014162288 328:-0.021317836 329:-0.015451035 330:-0.013193754 331:0.03300366 332:0.038631696 333:0.042951263 334:0.038113777 335:0.039019093 336:0.0061928155 337:0.023739114 338:0.07570803 339:-0.012169308 340:-0.07221201 341:-0.08595715 342:0.05341 343:0.033810623 344:-0.06418194 345:0.0062644365 346:0.093948565 347:-0.050407812 348:-0.06382577 349:-0.012319143 350:-0.029460937 351:0.0761193 352:0.08531192 353:-0.09200835 354:0.07241695 355:-0.0027118686 356:-0.006725838 357:-0.033785217 358:0.047000192 359:-0.052602068 360:-0.038531628 361:-0.022656053 362:0.054083146 363:-0.046655335 364:0.05679443 365:0.016484568 366:-0.0072485656 367:0.03290716 368:0.064897895 369:-0.029609254 370:0.03902535 371:-0.06868125 372:0.072626926 373:0.028439658 374:0.009618304 375:0.0031309247 376:0.0680551 377:0.10141747 378:-0.03253449 379:-0.043391 380:-0.016627738 381:0.023055429 382:-0.017146146 383:-0.037178367 384:-0.07159115 385:0.021253694 386:0.039852705 387:-0.0020723687 388:0.056306567 389:0.0089401 390:-0.0053371177 391:-0.023021527 392:-0.04838042 393:0.12232901 394:-0.07264221 395:0.013725991 396:0.001704847 397:0.04090175 398:-0.06881885 399:-0.044470847 400:0.030987091 401:-0.02578702 402:-0.041709952 403:-0.005827011 404:0.013578252 405:0.07770502 406:-0.06251785 407:0.0012722351 408:-0.028156605 409:-0.023026858 410:0.019010926 411:0.08055552 412:-0.020357532 413:-0.06754768 414:0.07051206 415:0.03452023 416:0.0073811747 417:-0.04292002 418:-0.0020008495 419:-0.010542631 420:0.06322979 421:0.04975969 422:0.022758514 423:-0.016034557 424:-0.0020522478 425:-0.004262319 426:-0.023218524 427:-0.06358511 428:0.036937255 429:0.015917532 430:-0.1345721 431:-0.003947625 432:-0.015682792 433:-0.021614347 434:0.03188572 435:-0.021842059 436:-0.026566196 437:0.047682613 438:0.033000235 439:0.06294053 440:0.020719893 441:0.11064005 442:-0.044749215 443:-0.01811987 444:-0.03886115 445:-0.034212973 446:-0.004710743 447:-0.08855947 448:0.04961468 449:0.021748262 450:-0.027201287 451:-0.09128653 452:-0.034276664 453:0.019145783 454:-0.05960379 455:0.03319245 456:-0.02489843 457:0.009799885 458:-0.022904584 459:-0.08385043 460:0.009181548 461:0.029948125 462:0.020251801 463:0.035904776 464:-0.012708074 465:0.06258154 466:-0.0044447184 467:-0.059182532 468:0.04940576 469:-0.005859921 470:-0.0073011406 471:0.0018974566 472:-0.066579066 473:-0.0011342996 474:0.0099479165 475:0.006904298 476:-0.02334475 477:0.018517293 478:0.028942924 479:-0.0773496 480:0.003549145 481:-0.007059085 482:-0.06851625 483:0.0063040163 484:-0.006856694 485:-0.030077443 486:0.047945555 487:0.015333302 488:-0.02406671 489:-0.07170094 490:0.06978878 491:0.03363895 492:-0.01210976 493:-0.031330343 494:-0.02413034 495:0.0460449 496:-0.09480866 497:-0.04974585 498:0.0281209 499:0.05513625 500:0.0013179622 501:-0.026104152 502:-0.024358947 503:-0.030445008 504:-0.03950575 505:0.051090814 506:0.08080357 507:-0.0400637 508:0.033411205 509:-0.087581895 510:-0.012187406 511:0.05271008 
