svm_type c_svc
kernel_type linear
nr_class 5
total_sv 46
rho 0.31393978403808809 0.32631536177888693 0.21801146414623554 0.05362897960562036 -0.044832356916674233 -0.037886438811501243 -0.27338603268836553 -0.098843289998719719 -0.29650430717791348 -0.28109551033781643
label 0 1 2 3 4
probA -2.5718026824984475 -2.583694797508612 -2.5420362499305784 -2.4448033979061106 -2.9619299093222851 -2.770782116029173 -2.4974021529373904 -2.3526148806712786 -2.5874417115935384 -2.7616859540739349
probB 0.13396324640344898 0.12669263786964435 0.089906043135689742 -0.0055042729312212609 0.026136998887567882 0.013649907595582567 -0.11706225728294591 -0.075589043320572494 -0.14340724143502931 -0.15114888700689866
nr_sv 10 10 8 8 10
SV
0.019566594393691333 0 0.031444429970581056 0 0:-0.099577516 1:0.062557794 2:-0.049087033 3:-0.03676891 4:-0.00065847358 5:-0.036957853 6:0.027921803 7:0.045151874 8:0.037025083 9:0.052890815 10:0.047963999 11:0.050776545 12:0.017453063 13:-0.047160603 14:0.00028240145 15:0.033082537 16:-0.0072969282 17:-0.074663281 18:-0.011267416 19:-0.052103888 20:0.0829513 21:0.0049884431 22:-0.042323336 23:0.099349149 24:0.030933991 25:-0.0060571125 26:0.038227815 27:0.0025372065 28:-0.025691139 29:-0.023938634 30:-0.0090166787 31:-0.026375787 32:0.080831692 33:0.017553724 34:0.0049307337 35:0.058135532 36:0.004188647 37:0.023985391 38:0.03198988 39:0.025394728 40:0.012731607 41:-0.045097604 42:0.033622369 43:0.012815688 44:-0.054558299 45:0.052320492 46:0.028034359 47:0.062924623 48:0.0035140782 49:0.035208311 50:-0.0040802178 51:0.049378 52:-0.010188076 53:-0.033613313 54:0.15904669 55:0.053078741 56:0.029977443 57:-0.026130563 58:-0.0029821475 59:-0.065846793 60:0.0010458286 61:0.060278516 62:-0.016839026 63:-0.059876144 64:0.046859611 65:-0.037944853 66:-0.017849972 67:-0.020186096 68:0.0277618 69:0.033342041 70:0.056037243 71:-0.043278303 72:-0.085830525 73:0.022266228 74:0.038430125 75:0.12172548 76:-0.01366564 77:0.026101664 78:-0.05273813 79:0.016391272 80:-0.0090447115 81:0.045119788 82:-0.0028874543 83:-0.025274336 84:-0.0428463 85:-0.02855427 86:0.021212455 87:-0.0045136716 88:0.038694918 89:-0.095120355 90:-0.1123367 91:0.036385536 92:-0.073701493 93:0.062382109 94:-0.012256355 95:0.033582594 96:-0.086106099 97:-0.044787057 98:0.039190184 99:0.0057395846 100:-0.052773144 101:-0.050769813 102:-0.021849634 103:-0.083486259 104:-0.061291594 105:0.046495143 106:-0.0051938486 107:-0.022857258 108:0.021690711 109:0.01828688 110:-0.040121779 111:-0.019004161 112:-0.012527199 113:-0.014983411 114:0.048069984 115:0.053464133 116:0.040220726 117:0.046235196 118:-0.062710345 119:-0.034823887 120:-0.039931212 121:-0.0526588 122:0.063533545 123:0.0083146431 124:-0.035170019 125:0.033175152 126:-0.027492544 127:-0.043288112 128:-0.0035909934 129:-0.038931329 130:0.042271417 131:0.0075365328 132:0.0093636764 133:-0.07618697 134:-0.0039665275 135:-0.011452097 136:0.020092383 137:0.045258246 138:-0.027180366 139:-0.11162087 140:0.0090574715 141:-0.038482372 142:0.05499237 143:-0.055557899 144:0.019303875 145:0.042574838 146:0.030834703 147:0.044258729 148:-0.045475364 149:-0.034509785 150:-0.050183829 151:-0.054634914 152:-0.011910221 153:0.018676858 154:-0.071533166 155:-0.016766114 156:-0.015352363 157:0.013010678 158:0.027154699 159:-0.023279006 160:0.025653105 161:0.033214044 162:0.0029621914 163:0.030501854 164:0.0011075113 165:-0.030611761 166:-0.0088800816 167:0.029473148 168:-0.0038587325 169:-0.01504469 170:0.019141799 171:-0.03041937 172:0.0059158467 173:-0.015220154 174:-0.037443969 175:0.024427805 176:0.020259911 177:-0.0015428737 178:-0.028034516 179:-0.024496268 180:0.012645663 181:-0.087427415 182:0.074950688 183:0.037620258 184:0.0012104291 185:-0.030497488 186:0.012663801 187:0.033214092 188:-0.034221735 189:-0.01304 190:-0.037031036 191:0.043952864 192:0.030343261 193:0.0042795828 194:-0.043143075 195:-0.043007128 196:0.12027267 197:-0.04599794 198:-0.065759763 199:0.019780936 200:-0.044060014 201:-0.014560284 202:0.10117389 203:-0.054476574 204:-0.0053585251 205:-0.023724342 206:0.013786277 207:-0.05295315 208:-0.055779833 209:-0.018091144 210:0.080019444 211:0.076520219 212:-0.069642656 213:-0.030174982 214:-0.028005498 215:-0.026163483 216:0.0072317547 217:-0.058691505 218:-0.023117602 219:-0.085584283 220:-0.02549994 221:-0.019730987 222:0.035650335 223:0.030889735 224:-0.0094353631 225:-0.073994771 226:-0.036169395 227:-0.007375624 228:0.014133363 229:-0.061129656 230:-0.10612241 231:-0.025192099 232:0.02898659 233:0.004401512 234:-0.0014872748 235:0.052894555 236:0.030767856 237:0.055880815 238:-0.059884138 239:0.015958745 240:0.0062583108 241:0.039175525 242:0.005230472 243:-0.01826784 244:-0.00095049327 245:0.058111336 246:-0.019665519 247:-0.033229843 248:0.017843265 249:-0.049292896 250:-0.04009543 251:0.035588253 252:0.0063587842 253:0.072024733 254:0.00014350936 255:-0.0056217471 256:-0.014271761 257:0.030383674 258:0.028289262 259:0.023088505 260:0.05136155 261:-0.072918259 262:-0.012317728 263:-0.038464777 264:-0.11456004 265:-0.01396774 266:0.029545814 267:0.053286482 268:-0.0014532013 269:0.019089939 270:0.040498372 271:-0.010973221 272:-0.12081534 273:-0.016105076 274:0.036430106 275:0.015995488 276:-0.019457828 277:0.031120714 278:-0.0047036773 279:0.047584761 280:0.018608367 281:-0.11416692 282:-0.022543622 283:-0.074753262 284:0.065818883 285:0.076936848 286:0.047811553 287:-0.026384668 288:-0.064574517 289:-0.012104768 290:0.086704291 291:0.036608554 292:0.01520669 293:0.027831484 294:-0.084432811 295:0.014790025 296:0.03931481 297:-0.026055273 298:0.091543891 299:0.029468855 300:-0.0036597676 301:0.0056427731 302:-0.012868668 303:-0.019923033 304:0.029961556 305:-0.056324918 306:0.024532963 307:0.023616167 308:-0.017114149 309:-0.05986733 310:0.039874397 311:-0.050866876 312:0.043016952 313:0.02083395 314:-0.046655808 315:0.081832685 316:0.064589582 317:-0.005630218 318:0.0030344075 319:-0.037862297 320:-0.046804275 321:-0.0062480527 322:-0.026983362 323:-0.019811256 324:-0.014516197 325:0.045635287 326:0.056229655 327:0.0021296879 328:0.049092565 329:0.081337787 330:0.034142677 331:0.028909553 332:-0.033764958 333:0.033555038 334:-0.036691375 335:0.0038947416 336:-0.033688404 337:-0.016626652 338:-0.0070911008 339:0.074882068 340:0.026419394 341:-0.041807547 342:-0.055371683 343:0.041675732 344:0.056880005 345:-0.075663865 346:-0.014730117 347:0.09191227 348:-0.0063347393 349:0.0093781538 350:0.021731082 351:0.051706508 352:-0.041272491 353:0.022258645 354:0.0041938443 355:0.075956002 356:-0.0099805901 357:-0.041880701 358:0.022068005 359:0.0081848577 360:-0.0051131919 361:0.013173124 362:-0.0001385861 363:-0.037913177 364:-0.021104956 365:0.11356813 366:-0.010535736 367:0.073822975 368:0.036262598 369:0.00061230763 370:0.029277727 371:-0.0076321494 372:0.036770891 373:-0.085720472 374:0.0052880906 375:-0.0073445635 376:-0.0040739938 377:-0.081970423 378:-0.014134636 379:-0.050044153 380:0.039428197 381:0.047662254 382:0.064198956 383:0.0029439053 384:-0.00019718429 385:-0.0266774 386:0.048030924 387:-0.05234959 388:-0.032021541 389:-0.012994655 390:-0.03677579 391:-0.070764445 392:-0.0062190634 393:-0.056686848 394:-0.021584451 395:-0.061116513 396:-0.014499937 397:-0.021877462 398:0.056999844 399:0.053576957 400:0.01675589 401:0.027652191 402:0.089863546 403:-0.020855498 404:-0.041999817 405:0.083590835 406:0.086455815 407:0.043216076 408:0.037434649 409:0.010740883 410:-0.0468527 411:-0.039088339 412:0.023890078 413:-0.0027574219 414:-0.071723267 415:0.060435273 416:0.055716079 417:0.0014285262 418:-0.015083255 419:0.038066447 420:0.03627079 421:0.014074507 422:0.0016087171 423:0.022071436 424:-0.031229753 425:-0.044009473 426:-0.009098554 427:0.052442569 428:0.079204455 429:-0.008564651 430:0.0031295661 431:0.0046224459 432:-0.013175892 433:0.002645059 434:-0.032778066 435:-0.040561195 436:-0.058406692 437:-0.01743626 438:0.00057526282 439:0.035764731 440:-0.010095078 441:-0.030386884 442:-0.013516609 443:0.0034669724 444:0.049819328 445:-0.011433057 446:0.0043023555 447:0.039254326 448:-0.10259517 449:0.0659777 450:0.017646534 451:0.010640481 452:0.0051182308 453:-0.027413905 454:-0.093890555 455:-0.051884253 456:0.033562202 457:0.0068564601 458:-0.021198498 459:0.014590768 460:-0.036851723 461:0.012321091 462:0.012941481 463:0.033816788 464:0.02624215 465:-0.01175213 466:-0.052240171 467:0.065034077 468:-0.059116915 469:-0.051708829 470:-0.021879815 471:0.038411345 472:0.023389 473:0.023146288 474:-0.055062633 475:0.021219337 476:-0.038395032 477:0.11340433 478:0.021468328 479:-0.067217872 480:0.030848037 481:-0.087819993 482:-0.07537806 483:-0.022269009 484:0.0031095045 485:-0.015465276 486:0.037880369 487:0.020042213 488:-0.04272588 489:0.011360305 490:0.055387616 491:-0.022414543 492:0.088745885 493:0.028823778 494:-0.032668591 495:-0.015482128 496:0.064230442 497:-0.024394736 498:-0.062369127 499:-0.077854574 500:0.00080584025 501:0.031417333 502:0.040980503 503:0.0043442855 504:-0.041221946 505:-0.032889448 506:-0.031589229 507:0.052994654 508:0.039454121 509:0.039106272 510:0.0012161289 511:0.010522334 
0 0.21423308797255142 0 0 0:-0.081324786 1:0.036056727 2:-0.069156475 3:-0.090358794 4:0.046155106 5:-0.03526175 6:0.023100579 7:0.013458068 8:0.020007856 9:0.060869262 10:0.0390498 11:-0.0063446551 12:-0.034015656 13:-0.096439682 14:-0.00034707028 15:-0.011920286 16:-0.040145062 17:-0.052260138 18:0.0097349174 19:0.0088682016 20:0.024911741 21:0.054804806 22:-0.015245728 23:0.079166703 24:0.0013279262 25:0.023403905 26:0.032021709 27:-0.015888683 28:-0.059872046 29:0.02044151 30:-0.0075121764 31:-0.025783554 32:0.047517717 33:0.072450563 34:0.065410815 35:0.03796538 36:0.032738987 37:-0.0066360487 38:0.056224242 39:0.060759723 40:0.03107411 41:-0.020202985 42:0.055242296 43:0.058777664 44:-0.066175237 45:0.029708898 46:-0.0020600583 47:0.098017655 48:-0.027796572 49:0.023393732 50:-0.024019672 51:0.042252887 52:-0.009666374 53:0.0079960795 54:0.16862209 55:0.058497049 56:0.021412738 57:-0.032161433 58:-0.011458347 59:-0.072929911 60:0.018838568 61:0.091913007 62:-0.0028023627 63:-0.1154878 64:0.08499521 65:-0.10212836 66:-0.0021928065 67:-0.019067757 68:0.0085010156 69:0.054509565 70:0.07373777 71:-0.034622103 72:-0.10868024 73:-0.038182393 74:0.0077678207 75:0.08038193 76:0.0095383711 77:-0.011344302 78:-0.03376596 79:-0.019100785 80:-0.04412166 81:0.079381973 82:-0.012024237 83:0.0116142 84:-0.063439719 85:-0.022315688 86:-0.0023003225 87:-0.056754351 88:0.031948823 89:-0.098236166 90:-0.027707202 91:-0.0055883215 92:-0.042508185 93:-0.0019588475 94:-0.0044905357 95:0.006340289 96:-0.055255469 97:0.018072911 98:0.027028071 99:-0.0051119379 100:-0.055488531 101:-0.012826567 102:-0.026319759 103:-0.024838647 104:-0.10880696 105:0.029983589 106:0.015724661 107:0.06775216 108:0.031818721 109:0.040454913 110:-0.026252631 111:-0.048045702 112:0.011552021 113:-0.008073152 114:0.021467252 115:0.062711693 116:0.034620084 117:0.090770468 118:-0.023980957 119:-0.043462027 120:-0.053054724 121:-0.078458369 122:0.11022466 123:0.054367132 124:-0.027873002 125:0.10565251 126:-0.068101473 127:-0.028504653 128:-0.047434781 129:-0.017182663 130:-0.0094814859 131:-0.025878565 132:-0.019806864 133:-0.072374932 134:-0.021296358 135:-0.031370394 136:-0.016055042 137:0.050305106 138:-0.033731692 139:-0.05956199 140:-0.034637854 141:-0.092348665 142:0.018050801 143:-0.039613739 144:0.010469341 145:0.024722621 146:0.042420771 147:0.01935485 148:-0.03636774 149:-0.049192041 150:-0.013166402 151:-0.024630954 152:0.0073130219 153:0.032241698 154:-0.11422089 155:-0.038688749 156:0.013795987 157:-0.0032086002 158:0.039155718 159:-0.018192178 160:-0.016479515 161:0.014532237 162:-0.067214012 163:0.0082753757 164:0.0075566787 165:-0.0097211655 166:0.0039368914 167:0.019253029 168:-0.021894502 169:-0.028134126 170:0.044640251 171:-0.016415063 172:-0.025992159 173:0.014795017 174:0.0022392536 175:0.052351568 176:0.03185055 177:0.033648297 178:-0.032189216 179:-0.024543783 180:-0.0063121938 181:-0.0072946954 182:0.079133093 183:0.047991455 184:0.020118887 185:-0.0076479274 186:0.032348868 187:0.046699464 188:-0.0015199368 189:-0.023423729 190:0.04439364 191:-0.030852284 192:0.0036516259 193:-0.0034599598 194:-0.053966869 195:-0.088385403 196:0.082211688 197:0.017061785 198:-0.089580685 199:0.073477626 200:-0.067743607 201:-0.013791018 202:0.050070565 203:-0.056465548 204:0.021601325 205:0.010915766 206:0.030540934 207:-0.06173889 208:-0.055245828 209:0.025642881 210:0.07545089 211:0.0079509588 212:-0.070060261 213:-0.05528333 214:-0.065407127 215:-0.0078681409 216:0.023428435 217:-0.060621161 218:0.016586386 219:-0.089934118 220:-0.035493236 221:-0.08079166 222:0.043737121 223:0.032185499 224:-0.016103033 225:-0.021866951 226:0.012654696 227:-0.01821062 228:0.036999792 229:-0.033795811 230:-0.048800435 231:-0.0014726731 232:0.036106337 233:0.073807985 234:0.05546771 235:-0.0053200172 236:-0.033684984 237:0.032078337 238:-0.061219048 239:0.017376367 240:-0.0095628621 241:-0.019310791 242:-0.0053603821 243:-0.045738339 244:0.019210743 245:0.018413613 246:-0.015497881 247:0.0098692477 248:0.035857614 249:-0.012383145 250:0.014386165 251:0.026205704 252:-0.021167053 253:0.017939091 254:0.041729741 255:-0.020973736 256:0.035326388 257:0.034567267 258:0.028992262 259:-0.011068197 260:0.027932396 261:-0.072636962 262:0.017646646 263:-0.043108553 264:-0.10593686 265:-0.0035530552 266:0.028077677 267:0.08361993 268:-0.0053296234 269:0.0045109526 270:0.038927127 271:-0.0057463194 272:-0.14232482 273:-0.022549381 274:0.0015407284 275:0.020525644 276:0.01118274 277:0.062940806 278:0.014623283 279:0.014958244 280:0.048846565 281:-0.087073915 282:0.043532226 283:-0.043348935 284:0.033545725 285:-0.010050696 286:0.035795316 287:-0.019884726 288:-0.033432763 289:0.031467408 290:0.048141986 291:0.036122438 292:-0.03134682 293:0.023361892 294:-0.053324528 295:0.0026720897 296:0.021798901 297:-0.029402662 298:0.029351607 299:-0.00033936542 300:-0.043057859 301:0.020557472 302:-0.064561322 303:0.0045510144 304:0.053231318 305:-0.044326246 306:0.037091836 307:0.053240452 308:-0.05432127 309:0.014143306 310:0.053163644 311:-0.054541759 312:0.018789906 313:0.023641603 314:-0.04967948 315:0.090425052 316:0.011258241 317:-0.014090399 318:0.039611928 319:-0.0296544 320:-0.012996097 321:0.029143488 322:0.044592202 323:0.015876334 324:-0.034371667 325:0.053152125 326:0.068108708 327:-0.01918021 328:0.026289949 329:0.045062825 330:0.0108325 331:-0.030456061 332:0.012376026 333:0.068966806 334:0.015172665 335:-0.0162076 336:-0.0230597 337:0.033838209 338:-0.022118291 339:0.041311037 340:0.017361512 341:0.012659685 342:-0.053796899 343:0.028850308 344:0.011800272 345:-0.02073727 346:-0.0093375472 347:0.059948385 348:0.019810319 349:0.018891063 350:-0.029040815 351:0.046511021 352:-0.03634803 353:0.027325016 354:0.017294995 355:0.0064478028 356:-0.0073983446 357:-0.082178682 358:0.055440739 359:-0.004191746 360:0.020851035 361:0.0087923501 362:-0.00046099428 363:-0.048267473 364:-0.042157281 365:0.075826898 366:-0.029345665 367:0.045981254 368:0.04184537 369:-0.006025074 370:0.0024612169 371:-0.0030980166 372:-0.037695151 373:-0.12935096 374:-0.042587522 375:0.011175213 376:-0.014907159 377:-0.061083388 378:0.080954857 379:-0.039207321 380:0.10357612 381:9.2701855e-05 382:0.034765583 383:-0.01555728 384:-0.012144578 385:0.0085525373 386:0.069122985 387:-0.049156155 388:0.016900836 389:0.024037899 390:-0.051362801 391:-0.010202817 392:0.0078852419 393:-0.037207656 394:0.018589389 395:-0.060069796 396:-0.024268104 397:-0.025512701 398:0.07638029 399:0.042897485 400:0.072508939 401:0.0034785811 402:0.061829366 403:-0.022875786 404:0.0094221337 405:0.066718861 406:0.013519407 407:-0.0068655359 408:0.029254358 409:-0.013453769 410:-0.05767642 411:0.011957171 412:0.02577872 413:0.00076306105 414:-0.035266966 415:-0.033065807 416:0.081044741 417:-0.0062515936 418:-0.00093801197 419:0.037928052 420:0.026498124 421:-0.02036057 422:-0.031679355 423:0.05232187 424:0.030621478 425:-0.05066764 426:0.044137534 427:0.059516829 428:-0.0043637422 429:0.013609595 430:0.042765629 431:0.016992075 432:-0.035285324 433:-0.0032720394 434:-0.021452209 435:-0.051437024 436:0.0042348248 437:-0.028909121 438:-0.057300359 439:0.044251822 440:-0.051167306 441:-0.065975815 442:-0.060384799 443:0.019734854 444:0.039858241 445:-0.012592493 446:-0.0074283592 447:0.020670272 448:-0.072940007 449:0.026311543 450:0.059142213 451:0.076932885 452:-0.024795588 453:-0.0078487927 454:-0.068852581 455:-0.048968457 456:-0.039216034 457:-0.020633206 458:-0.023103079 459:-0.010509972 460:-0.024382031 461:0.016431464 462:-0.074080944 463:0.059210114 464:0.0080596171 465:-0.0091403211 466:-0.0098446142 467:0.048143759 468:-0.03694015 469:-0.0105899 470:0.0097999014 471:0.11052717 472:-0.0054036686 473:0.019842291 474:-0.033741515 475:0.034250233 476:-0.033533208 477:0.10180612 478:-0.046278089 479:-0.075146519 480:-0.014178463 481:-0.044280026 482:-0.0031531157 483:0.0027081254 484:-0.013463863 485:0.0092293927 486:0.010907849 487:0.033699825 488:-0.070431694 489:-0.031675372 490:0.063528948 491:-0.011255956 492:0.04980934 493:0.042646211 494:-0.057121906 495:0.031363878 496:0.027030533 497:-0.019960804 498:-0.061500262 499:-0.034300581 500:-0.017981334 501:0.021770315 502:0.032507151 503:0.028252639 504:0.016262058 505:-0.052179527 506:-0.075217806 507:0.040503539 508:-0.013529315 509:0.037458736 510:0.035443004 511:-0.039139606 
0 0.14012564063085703 0.43273804224564622 0.074284284111033536 0:-0.058978412 1:0.10302931 2:-0.01526616 3:-0.041709248 4:0.018089224 5:-0.059728887 6:-0.024215072 7:0.081390843 8:0.04032347 9:0.039875783 10:0.056311529 11:-0.0053785611 12:-0.0062850602 13:-0.05226779 14:-0.0080412989 15:0.029676002 16:0.0071243751 17:-0.072390191 18:-0.033394951 19:-0.055924781 20:0.10219584 21:-0.0091456175 22:-0.048292238 23:0.056067031 24:0.01047073 25:0.0037915646 26:0.04183412 27:0.011734855 28:-0.0015812973 29:-0.010888595 30:-0.047314573 31:-0.031154983 32:0.059385974 33:0.055700477 34:0.060187574 35:0.046746168 36:0.0045290561 37:-0.053345669 38:0.025278842 39:0.073828906 40:0.0018555184 41:0.020579714 42:0.04603805 43:0.053301103 44:-0.045047004 45:0.072662063 46:0.03787113 47:0.06671533 48:0.019563697 49:0.022643663 50:-0.040613756 51:0.038894925 52:0.026144218 53:-0.037429847 54:0.16420102 55:0.051139224 56:0.057359777 57:-0.072955139 58:-0.030023726 59:-0.090138987 60:-0.014351476 61:0.053674731 62:-0.050522406 63:-0.08694879 64:0.065274663 65:-0.062292837 66:-0.024471549 67:0.047458459 68:0.03495983 69:-0.029374871 70:0.084374443 71:-0.016810123 72:-0.14224607 73:-0.013005843 74:0.073961921 75:0.078309573 76:-0.0089963228 77:0.066057682 78:-0.095583878 79:-4.836392e-05 80:-0.050104033 81:0.0069416827 82:0.00062661123 83:-0.0011453431 84:-0.08172743 85:-0.010543585 86:0.0066416939 87:-0.011593549 88:0.066957496 89:-0.052226149 90:-0.074001871 91:0.013909752 92:-0.09664157 93:-0.02396805 94:-0.0010576578 95:0.074515887 96:-0.053880192 97:-0.0084455712 98:0.018151119 99:-0.0075903665 100:-0.069174364 101:-0.021120582 102:-0.025845788 103:-0.032895833 104:-0.095454529 105:0.03068517 106:0.04492468 107:-0.0089475447 108:0.0084365569 109:0.037058722 110:-0.0019253927 111:-0.04719897 112:0.042273458 113:0.0029570565 114:-0.015455927 115:0.032906298 116:0.0079271616 117:0.081816666 118:-0.016444953 119:-0.028136471 120:-0.020077379 121:-0.041628353 122:0.061560862 123:0.014538041 124:-0.018525334 125:0.056906242 126:-0.031053104 127:-0.030463802 128:0.0085894233 129:-0.067944877 130:0.014050626 131:0.018582966 132:-0.0030382429 133:-0.064890854 134:0.073480427 135:0.0092239324 136:0.011360355 137:0.01501541 138:-0.052036449 139:-0.060727987 140:-0.011238721 141:-0.058982164 142:-0.023771429 143:-0.11115804 144:0.043500882 145:0.056601372 146:0.022126943 147:0.035594795 148:-0.017983608 149:-0.036107149 150:0.0050447625 151:-0.045244902 152:-0.028974056 153:0.035875417 154:-0.10360247 155:0.039835908 156:-0.0084421476 157:-0.00047810131 158:0.045668282 159:-0.037556812 160:0.0018186608 161:0.022833595 162:-0.074799322 163:0.050514534 164:-0.013926165 165:-0.0044314945 166:0.04188069 167:0.048935901 168:-0.03612566 169:-0.01675424 170:0.034870937 171:-0.0059927544 172:-0.016853137 173:-0.025301604 174:0.01707154 175:0.033251632 176:-0.0020077995 177:-0.011217537 178:-0.033074845 179:-0.061500616 180:0.033470884 181:-0.047504038 182:0.051478907 183:0.065059289 184:0.0071510212 185:0.012487573 186:-0.035481304 187:0.014590934 188:-0.0028817849 189:-0.0030252372 190:-0.0053187683 191:0.034246579 192:-0.00064316293 193:0.013483831 194:-0.062758014 195:-0.072854944 196:0.032269098 197:-0.040226385 198:-0.10720324 199:0.039716911 200:-0.086039431 201:-0.011287959 202:0.071165495 203:-0.030964199 204:-0.0004994013 205:-0.015917018 206:-0.024432464 207:-0.084087133 208:-0.076634049 209:0.0071581393 210:0.096604563 211:0.039333861 212:-0.010921549 213:-0.044080071 214:-0.035714038 215:0.0049250773 216:-0.0071959952 217:-0.077662088 218:0.016398128 219:-0.097475655 220:0.013591912 221:-0.070955418 222:-0.00468136 223:0.038594227 224:-0.030041095 225:-0.0054060146 226:-0.017693141 227:-0.02745574 228:0.031606104 229:-0.022779047 230:-0.097159036 231:-0.022375358 232:0.036012497 233:0.0097169997 234:0.069866426 235:0.0098136598 236:0.028552014 237:0.040947977 238:0.0017767727 239:0.076137044 240:-0.0095691402 241:0.048407078 242:0.027308632 243:-0.073744603 244:-0.008194305 245:0.01862715 246:-0.021595497 247:-0.014202496 248:0.069332659 249:-0.065558389 250:-0.017368734 251:0.026572237 252:-0.010217756 253:0.0055618812 254:0.011859528 255:0.021160148 256:0.057774693 257:0.048199784 258:0.03564132 259:-0.0045889779 260:0.014179826 261:-0.061031654 262:0.011312001 263:-0.046923276 264:-0.10189576 265:-0.039148614 266:-0.011741144 267:0.044120386 268:-0.024650896 269:-0.0051510255 270:0.024026118 271:0.03153681 272:-0.070189774 273:-0.01962295 274:0.030604342 275:-0.012288409 276:-0.032181822 277:0.064346924 278:-0.03289732 279:0.025730016 280:0.028431816 281:-0.094696172 282:0.063835099 283:-0.011021811 284:0.026765583 285:0.045852587 286:0.083735436 287:-0.032293148 288:-0.057491358 289:0.040111613 290:0.05058356 291:0.016122974 292:-0.024040561 293:0.028712284 294:-0.060427386 295:-0.015002491 296:0.022183027 297:-0.021374051 298:0.053885721 299:-0.00081847364 300:-0.072764568 301:-0.028330237 302:-0.069622129 303:-0.0083087822 304:0.024984617 305:-0.040057369 306:0.087899126 307:0.028209185 308:-0.0055050515 309:0.0014505223 310:-0.021034405 311:-0.067816727 312:-0.0045904731 313:0.0045636077 314:-0.02325522 315:0.078309804 316:0.076428182 317:0.0068369368 318:0.069746539 319:-0.039835583 320:-0.051367305 321:0.0091542583 322:0.0075903935 323:-0.063422792 324:-0.013539849 325:0.025684128 326:0.064115964 327:0.041677114 328:0.046202257 329:0.090099275 330:0.011489774 331:0.034621544 332:-0.021577334 333:0.051567227 334:-0.026653958 335:0.032698635 336:-0.069297783 337:0.011010339 338:-0.0073123919 339:0.037536491 340:-0.0075806146 341:0.0024744405 342:-0.027073704 343:0.080799162 344:0.019687572 345:-0.0042987163 346:0.0175479 347:0.078018591 348:-0.019966789 349:-0.014051186 350:-0.016868358 351:0.048979018 352:0.013941776 353:0.036605194 354:0.046517655 355:-0.041843895 356:-0.022160217 357:-0.012924266 358:0.028386943 359:-0.036749545 360:-0.0054118419 361:-0.016467396 362:-0.019759798 363:-0.052144092 364:-0.026259314 365:0.09362191 366:-0.031548243 367:0.049184952 368:0.051580492 369:0.036681708 370:0.022140684 371:-0.0029931313 372:0.01335091 373:-0.14848405 374:-0.065307431 375:0.0056967507 376:0.04937423 377:-0.067608923 378:-0.0014999826 379:-0.046356987 380:0.021458669 381:-0.030020906 382:0.046106786 383:-0.025013389 384:-0.023765879 385:0.046219602 386:0.033611767 387:-0.052755248 388:0.0069812341 389:-0.017677335 390:-0.081158534 391:0.024820518 392:-0.0059031886 393:-0.011191534 394:-0.0014412303 395:-0.057748482 396:0.0027115578 397:-0.0070799985 398:0.077392459 399:0.046213746 400:0.075102851 401:0.015757695 402:0.059294179 403:-0.009998681 404:0.0080019217 405:0.081543915 406:0.026371025 407:0.033178907 408:0.024523776 409:0.0080662221 410:-0.053365301 411:-0.020132206 412:-0.011643054 413:0.018161116 414:-0.042079676 415:6.2551691e-05 416:0.079067543 417:-0.048532557 418:0.032522768 419:0.067200221 420:0.048060931 421:0.061727613 422:0.03237265 423:-0.0049381359 424:-0.013138019 425:-0.03672472 426:0.0069523752 427:0.014613465 428:0.022401894 429:0.0075610112 430:0.027844653 431:0.0074015632 432:-0.049116727 433:0.027044723 434:0.014217418 435:-0.057065472 436:-0.0060380078 437:-0.0006782345 438:0.0089226561 439:0.029109852 440:0.0055675423 441:-0.020125804 442:-0.017975394 443:-0.0039917654 444:0.073385946 445:0.0011088657 446:0.0077172853 447:0.0060989121 448:-0.081368752 449:0.019632049 450:0.012889476 451:0.028622722 452:0.020135738 453:0.010616076 454:-0.050414726 455:-0.037977278 456:0.025686873 457:0.023634229 458:-0.0093458537 459:-0.02107643 460:0.02239015 461:0.023191463 462:-0.049710929 463:-0.015774228 464:0.026152756 465:-0.0068232859 466:-0.016663767 467:0.041212287 468:-0.026840348 469:-0.021369619 470:-0.0015343685 471:0.064652875 472:0.028920779 473:0.026344508 474:0.017153671 475:0.042056832 476:-0.056784574 477:0.082049839 478:0.004634623 479:-0.055865042 480:0.020620493 481:0.0027291584 482:-0.039287668 483:-0.021891508 484:-0.062685929 485:-0.03229453 486:0.066703066 487:0.033201072 488:-0.06667351 489:-0.0053316038 490:0.068708882 491:-0.0030761249 492:0.070698075 493:0.0070350342 494:-0.034396842 495:0.015572468 496:0.036215324 497:0.00691219 498:-0.014506127 499:-0.041655608 500:-0.033567764 501:0.014363409 502:0.072419614 503:-0.015924744 504:-0.031418774 505:-0.025499092 506:-0.068037204 507:0.038261332 508:0.0097729368 509:-0.0071269586 510:-0.0072981487 511:0.024706507 
0.040708031954221617 0 0.42292485145963477 0 0:-0.066729963 1:0.043485887 2:-0.046876695 3:-0.055558123 4:-0.0095630512 5:-0.023737967 6:-0.016365914 7:0.071662657 8:0.011824605 9:0.044316426 10:-0.014890679 11:0.012981563 12:-0.012715872 13:-0.054905016 14:-0.003751439 15:0.0079452042 16:-0.022030301 17:-0.059107397 18:-0.0054975799 19:-0.052383281 20:0.074171893 21:0.015482808 22:-0.030623494 23:0.087684028 24:0.025614209 25:0.042110719 26:0.034274913 27:0.032248225 28:0.0073961443 29:-0.05122827 30:-0.011710177 31:-0.0059379642 32:0.070378304 33:0.024671486 34:0.046727389 35:0.046000801 36:-0.03438374 37:-0.025990244 38:0.014176046 39:0.04475309 40:0.027269555 41:-0.023858275 42:0.039537858 43:0.013772859 44:-0.029889733 45:0.061142206 46:0.021074869 47:0.080181479 48:0.020720681 49:0.016095398 50:-0.042744882 51:0.080256358 52:0.030199194 53:-0.052906044 54:0.15757054 55:0.097763427 56:0.061841872 57:-0.02137783 58:0.046759855 59:-0.089475006 60:-0.031689499 61:0.054085538 62:-0.012147327 63:-0.067817375 64:0.053791482 65:-0.050267231 66:-0.042674985 67:0.0042845854 68:-0.025966309 69:0.0098778857 70:0.03539367 71:-0.024026031 72:-0.089288533 73:0.011160268 74:0.056506895 75:0.07871867 76:-0.037446786 77:0.00070152222 78:-0.097516373 79:-0.032315556 80:-0.031755097 81:0.026319465 82:-0.012784874 83:0.027888717 84:-0.080755636 85:-0.03961461 86:0.025540121 87:-0.01343984 88:0.02192099 89:-0.070559353 90:-0.060698107 91:0.011212738 92:-0.014888261 93:-0.0085532563 94:-0.0030113366 95:0.05836669 96:-0.07873141 97:-0.014448243 98:0.034195494 99:-0.002285966 100:-0.0045186211 101:-0.042006467 102:-0.010491447 103:-0.038539473 104:-0.10678478 105:-0.0083791167 106:0.022856575 107:0.0011332452 108:0.0093926089 109:0.03937101 110:-0.027881894 111:-0.021950252 112:-0.014765074 113:-0.0058804029 114:-0.00082934741 115:0.0053372178 116:-0.005484764 117:0.058979284 118:-0.056639217 119:-0.035356928 120:-0.041747916 121:-0.074775927 122:0.055007741 123:0.02245771 124:-0.030929921 125:0.062556379 126:0.023794714 127:-0.012121283 128:-0.01020802 129:-0.066998191 130:-0.0004731073 131:-0.030406609 132:-0.01244797 133:-0.061906081 134:0.0013609361 135:0.02448827 136:0.033522606 137:0.076515242 138:-0.038378574 139:-0.063071951 140:-0.0030801282 141:-0.074627101 142:0.031928238 143:-0.090036973 144:0.085803352 145:0.018057138 146:0.02614212 147:0.024554394 148:-0.0061929207 149:-0.024839522 150:0.017833406 151:0.017162411 152:0.013473497 153:0.011497539 154:-0.097575843 155:-0.0065445993 156:-0.011208387 157:-0.028161962 158:0.050384834 159:-0.028272701 160:-0.013947746 161:4.3188636e-05 162:-0.037332319 163:0.055691648 164:-0.024218826 165:-0.03070325 166:0.025768928 167:0.022492465 168:-0.052818876 169:-0.025234252 170:0.057583775 171:-0.0092524672 172:0.0062751202 173:-0.04720502 174:-0.0092653781 175:0.030264802 176:-0.013578664 177:0.022729618 178:-0.05329825 179:-0.013132224 180:-0.012683818 181:-0.035342582 182:0.040509697 183:0.048958834 184:0.021873787 185:-0.0091423579 186:-0.020236775 187:0.014992086 188:-0.01625572 189:-0.034486607 190:0.048876129 191:0.044749118 192:0.0036331424 193:-0.033468839 194:-0.057007652 195:-0.058592997 196:0.044417005 197:-0.059699263 198:-0.11533199 199:0.012539567 200:-0.081085645 201:0.055947203 202:0.029274931 203:-0.056068614 204:0.00036159696 205:-0.050773993 206:-0.014648207 207:-0.083090186 208:-0.062994607 209:0.017518604 210:0.1116406 211:0.060932685 212:-0.047137696 213:-0.012372633 214:-0.036562622 215:0.028003786 216:-0.014875943 217:-0.071899794 218:0.012040907 219:-0.092804551 220:0.0072680148 221:-0.016777858 222:-0.023657864 223:0.043957252 224:-0.031691752 225:-0.023068594 226:-0.037145112 227:-0.024168553 228:0.035413053 229:-0.008210022 230:-0.074392319 231:-0.055717189 232:0.041005787 233:0.014798842 234:0.024346661 235:0.0050802976 236:0.046802502 237:0.061394803 238:-0.013457613 239:-0.0075880447 240:-0.029481148 241:0.022106262 242:0.015659241 243:-0.083297476 244:-0.01460589 245:0.013248144 246:-0.012807651 247:-0.024162631 248:0.052580249 249:-0.015349972 250:-0.023069078 251:-0.0090642525 252:-0.027218569 253:0.060080443 254:0.054186318 255:0.042142924 256:0.034415159 257:0.060053855 258:0.057817794 259:0.039974462 260:0.023621166 261:-0.044039503 262:0.023594234 263:-0.038087059 264:-0.071674339 265:-0.1021908 266:0.01310546 267:0.054295205 268:0.0062936442 269:0.020941844 270:0.041838992 271:0.020842005 272:-0.10911152 273:-0.018666128 274:0.047281839 275:-0.035585392 276:-0.030850474 277:0.053098973 278:0.021459397 279:0.084486432 280:0.036594711 281:-0.13435394 282:0.014743701 283:-0.085579462 284:0.035016861 285:0.070982538 286:0.025935257 287:-0.018849749 288:-0.042935371 289:0.015314351 290:0.10225581 291:0.082047097 292:0.016525161 293:0.018397469 294:-0.070968784 295:-0.021998398 296:0.0488334 297:-0.048883613 298:0.062226471 299:0.019891586 300:-0.053558379 301:-0.029913012 302:-0.0093066012 303:-0.013633169 304:0.056324016 305:-0.045922611 306:0.083695374 307:0.02026342 308:-0.015432825 309:-0.032516301 310:-0.023565525 311:-0.079337686 312:-0.056440637 313:0.014897657 314:-0.074928582 315:0.0996361 316:0.051978983 317:-0.044920888 318:0.060381748 319:-0.044476788 320:-0.016795868 321:-0.018948872 322:-0.017465357 323:-0.05702778 324:-0.017457498 325:0.010325372 326:0.054483313 327:-0.032904997 328:-0.0075888676 329:0.061096627 330:-0.0088868411 331:0.015233335 332:0.018037444 333:0.0054807179 334:-0.018110787 335:0.022981334 336:-0.038906101 337:0.027269892 338:-0.048099607 339:-0.010870525 340:-0.030534344 341:0.0061022355 342:0.0048473538 343:0.052472726 344:0.010815312 345:-0.0064465282 346:0.046161406 347:0.10931975 348:0.028448051 349:0.081542529 350:-0.0081783701 351:0.018067628 352:-0.038916558 353:0.056148633 354:0.0063464809 355:-0.028726676 356:-0.014402421 357:-0.024132781 358:0.047808111 359:-0.011531604 360:0.0029474811 361:0.00060964358 362:0.029315637 363:-0.044586603 364:-0.026408894 365:0.099640593 366:-0.0061037731 367:0.060587462 368:0.035955947 369:-0.014413902 370:0.058019027 371:0.0094026076 372:-0.025876585 373:-0.11859278 374:-0.041519463 375:0.0011444058 376:-0.018334536 377:-0.040099114 378:0.010613113 379:-0.0293696 380:-0.0092792325 381:0.030464513 382:0.053861469 383:0.024490736 384:0.0060470961 385:-0.019615669 386:0.054433022 387:-0.088809505 388:-0.02369502 389:-0.014497822 390:-0.037670664 391:-0.021276252 392:0.034468088 393:-0.048553456 394:0.016887171 395:-0.058454532 396:-0.0089306729 397:-0.011946562 398:0.042621542 399:0.054718755 400:0.079219222 401:-0.0069836192 402:0.018148642 403:0.0050554713 404:-0.035504274 405:0.097352475 406:0.024321541 407:0.03939141 408:0.0092958547 409:0.026216855 410:-0.061499003 411:0.019215729 412:0.015839916 413:0.023266317 414:-0.014422092 415:-0.014119957 416:0.097992413 417:-0.00098744978 418:-0.040956464 419:0.059578925 420:0.02394793 421:0.023423193 422:0.015904583 423:0.013500105 424:-0.0060097701 425:-0.082150452 426:0.067106634 427:0.030855449 428:0.040290181 429:-0.047391903 430:0.014951541 431:0.018095942 432:-0.013660133 433:-0.017288757 434:-0.010157402 435:-0.020901753 436:-0.0085280826 437:-0.0055408115 438:0.02881659 439:-0.0033678124 440:0.022588665 441:-0.0046403869 442:-0.039783884 443:-0.020496944 444:0.05208037 445:-0.010606996 446:0.010710026 447:0.031385709 448:-0.12659812 449:0.041324079 450:0.045103867 451:0.066212982 452:0.039315626 453:0.022917086 454:-0.040821224 455:-0.052949827 456:0.019609924 457:-0.020935498 458:0.023061162 459:-0.010638264 460:-0.064948834 461:0.056601092 462:-0.039851476 463:0.015322533 464:0.054714937 465:0.020875629 466:-0.040793676 467:0.059170313 468:-0.001776145 469:-0.0013573058 470:-0.020653266 471:0.082131669 472:0.048352096 473:0.03039754 474:0.026153093 475:0.045428384 476:-0.048814531 477:0.10359814 478:0.024672806 479:-0.050953556 480:-0.0013057358 481:-0.061258256 482:-0.018726714 483:0.0024291656 484:0.0064391606 485:-0.055101976 486:0.023475053 487:0.029575953 488:-0.038803447 489:-0.037803002 490:0.036067501 491:-0.021688618 492:0.089592464 493:0.0029256924 494:-0.052103844 495:-0.00066961406 496:0.03044703 497:-0.037727647 498:-0.045262206 499:-0.056074575 500:-0.033873186 501:0.02794203 502:0.017232262 503:0.0055968352 504:-0.065745987 505:-0.033709489 506:-0.070934303 507:0.020830881 508:-0.010968778 509:0.01277189 510:-0.0032689278 511:-0.0084925704 
0.028817847201862389 0 0 0 0:-0.08397457 1:0.06266921 2:-0.030912641 3:-0.07700339 4:-0.027218319 5:-0.013694866 6:-0.021703333 7:0.0080431569 8:0.024524717 9:0.06415651 10:0.031493932 11:0.032668266 12:0.00079885765 13:-0.041159797 14:0.024356855 15:-0.00094289641 16:0.0082248738 17:-0.056273434 18:0.018615585 19:-0.068731211 20:0.081728913 21:0.027703591 22:-0.013911107 23:0.088083595 24:0.044775069 25:-0.0095983893 26:-0.0075411475 27:0.0076084142 28:-0.045109715 29:0.015402471 30:-0.0084686577 31:-0.029876914 32:0.088511534 33:0.037120204 34:0.040457789 35:0.054876782 36:-0.019087659 37:0.014105349 38:0.03758895 39:0.045500878 40:-0.010314426 41:-0.051834125 42:0.017547632 43:0.045690924 44:-0.048432454 45:0.049704049 46:0.022263452 47:0.021492332 48:0.026001906 49:0.036827516 50:0.015197589 51:0.051050786 52:-0.014452577 53:-0.024208836 54:0.16623668 55:0.04216484 56:0.056000281 57:-0.024419978 58:-0.02906828 59:-0.055723712 60:0.014615393 61:0.05969312 62:-0.023361603 63:-0.089838803 64:0.07477165 65:-0.048837882 66:-0.0095488327 67:-0.00049757108 68:1.2312486e-05 69:0.064395167 70:0.072890289 71:0.015967723 72:-0.11356463 73:-0.021742737 74:0.054985896 75:0.096417829 76:-0.026723227 77:0.045583859 78:-0.027716981 79:0.035590272 80:-0.048867878 81:-0.016639521 82:0.0093004461 83:-0.0467765 84:-0.060804613 85:-0.046371054 86:-0.030138044 87:0.018160148 88:0.035192896 89:-0.052328553 90:-0.052049316 91:-0.0037095766 92:-0.066203631 93:0.039525855 94:-0.0099853491 95:0.0096163675 96:-0.033723723 97:-0.00062589248 98:0.054197054 99:0.016091099 100:-0.01892706 101:-0.057269946 102:0.0059539918 103:-0.071576893 104:-0.051882178 105:0.07371033 106:-0.0032100643 107:-0.00037923901 108:0.0097408025 109:0.057023201 110:-0.070189983 111:-0.043828148 112:0.033030849 113:-0.02420521 114:0.00069251988 115:0.041109782 116:0.032707952 117:0.041470204 118:-0.034867283 119:-0.0082047451 120:-0.042689748 121:-0.057268623 122:0.025293708 123:0.058869734 124:-0.0075117634 125:0.089858525 126:-0.04534309 127:-0.019002251 128:0.0012024218 129:-0.048097271 130:0.040598039 131:0.010937426 132:0.010342409 133:-0.065299727 134:0.020856123 135:-0.010764564 136:0.017198695 137:0.067220025 138:-0.045002829 139:-0.1186182 140:-0.031631999 141:-0.04770815 142:0.04636116 143:-0.09509261 144:0.019191595 145:0.037410371 146:0.041524746 147:0.0044654468 148:-0.052873872 149:-0.018374251 150:-0.067551263 151:-0.054569136 152:-0.0034571246 153:0.0308387 154:-0.079754554 155:-0.028028978 156:-0.0024454193 157:0.010497864 158:0.061395954 159:-0.034736861 160:-0.010542322 161:-0.0089855958 162:-0.046082169 163:0.055354729 164:0.0040637688 165:-0.03789486 166:0.044349447 167:0.0021736466 168:-0.00066270021 169:-0.023885187 170:0.022655794 171:-0.017825944 172:0.0083859945 173:-0.0021866017 174:-0.066200614 175:-0.0060657687 176:0.032361452 177:0.017288132 178:-0.054123595 179:-0.057452872 180:0.020525267 181:-0.080832727 182:0.065495975 183:0.080974467 184:0.018986048 185:-0.0141137 186:0.045073092 187:0.049641158 188:-0.044176195 189:-0.0063412827 190:-0.015516217 191:0.013671689 192:0.034981254 193:0.048862927 194:-0.10744419 195:-0.056844361 196:0.09958408 197:-0.035621073 198:-0.074875422 199:0.031045951 200:-0.037807398 201:0.023393106 202:0.072611764 203:-0.039237708 204:-0.024279445 205:-0.053512413 206:0.0082887542 207:-0.080245636 208:-0.058127459 209:-0.0049689165 210:0.049251862 211:0.053643338 212:-0.060533796 213:-0.031900156 214:-0.018731529 215:-0.030960239 216:0.044667069 217:-0.08553268 218:0.030671978 219:-0.050592311 220:-0.019845601 221:-0.026438653 222:0.023454664 223:0.026389007 224:-0.018008336 225:-0.086362183 226:-0.042310622 227:-0.047799971 228:0.022795735 229:-0.030869741 230:-0.059182677 231:-0.010527626 232:0.035351746 233:0.043917108 234:0.063826673 235:0.022053815 236:0.027109448 237:0.044097994 238:-0.048117723 239:0.015768208 240:-0.019445408 241:0.028340541 242:0.018057352 243:-0.031046502 244:-0.0075335428 245:0.051198974 246:0.0020631298 247:-0.0018218998 248:0.062427342 249:-0.046567902 250:-0.0032404931 251:0.0059933914 252:-0.0057272543 253:0.022800531 254:-0.011093829 255:0.00028449242 256:0.047482651 257:0.021862119 258:0.042617995 259:0.011816137 260:0.039639775 261:-0.066051058 262:0.0040924591 263:-0.0140987 264:-0.072807364 265:-0.017184161 266:-0.0071928846 267:0.072692655 268:-0.024519874 269:0.040164135 270:0.0617676 271:0.0083953058 272:-0.12684339 273:-0.0039380654 274:0.0069707311 275:-0.0015190179 276:0.0041126492 277:0.030679934 278:-0.030840877 279:-0.0033584519 280:0.06296736 281:-0.13698308 282:0.00402861 283:-0.048807308 284:0.069468156 285:0.040021721 286:0.010507326 287:-0.05916027 288:-0.081927836 289:-0.0079649566 290:0.074177749 291:0.038629595 292:0.016041623 293:-0.0068237269 294:-0.10173477 295:-0.0079392334 296:0.034430247 297:-0.015875913 298:0.080110326 299:0.032250289 300:-0.0083381636 301:-0.0013693061 302:-0.033888023 303:-0.011776557 304:0.052608937 305:-0.064287804 306:0.06348259 307:0.056664389 308:-0.011869939 309:-0.018710246 310:0.011351282 311:-0.044368614 312:0.034301057 313:0.022410791 314:-0.019857012 315:0.052473426 316:0.012130565 317:-0.03399431 318:-0.026270045 319:-0.039066982 320:-0.033750378 321:-0.024687992 322:-0.03132074 323:-0.038557269 324:-0.043838907 325:0.053231858 326:0.040644463 327:-0.025037248 328:0.070105009 329:0.10915031 330:0.021430351 331:0.033673078 332:-0.045094088 333:0.017796479 334:-0.047159471 335:0.025174996 336:-0.082046136 337:0.013701152 338:-0.024121789 339:0.072700791 340:-0.011824833 341:-0.0098742088 342:-0.058733348 343:0.070212878 344:0.049462754 345:-0.01423116 346:-0.0091378726 347:0.055050656 348:0.0033910112 349:-0.0028079308 350:-0.00025637352 351:0.031841166 352:-0.047851987 353:0.030801728 354:0.030706497 355:0.042361792 356:-0.0024988318 357:-0.031601019 358:0.012451246 359:-0.029763523 360:-0.033946283 361:-0.0024576338 362:-0.044172902 363:-0.043714166 364:-0.030673696 365:0.073419072 366:0.00052697351 367:0.066487759 368:0.0062971725 369:0.030463815 370:-0.006654162 371:0.0067477245 372:0.0061529484 373:-0.08638411 374:0.0055786641 375:-0.047499031 376:0.0065254262 377:-0.078525759 378:-0.022232646 379:-0.037356421 380:0.0756853 381:0.013860063 382:0.050058 383:-0.015756357 384:-0.020550689 385:-0.008323106 386:0.027661411 387:-0.065134004 388:-0.029832017 389:0.032051213 390:-0.061854649 391:-0.048846323 392:0.021516971 393:-0.0077637201 394:-0.0044413852 395:-0.08066307 396:-0.030048778 397:-0.025682865 398:0.06249069 399:0.07689289 400:0.044555437 401:0.04043651 402:0.10832484 403:-0.032183349 404:-0.022375138 405:0.035660662 406:0.08768747 407:0.034903817 408:-0.013439511 409:0.00087195938 410:-0.079041757 411:-0.022867801 412:0.011337204 413:0.049295198 414:-0.037674654 415:0.010750657 416:0.080178358 417:-0.010660739 418:0.022230478 419:0.014530692 420:0.023926197 421:0.022780841 422:0.0071298373 423:0.047445886 424:0.03002076 425:-0.027306356 426:0.0077095563 427:0.053125486 428:0.022347929 429:-0.0078836493 430:0.017783636 431:-0.0024228883 432:-0.032348834 433:-0.029246278 434:-0.0020624653 435:-0.017189598 436:0.0057548098 437:-0.0035153967 438:-0.038849749 439:0.019311124 440:0.014246186 441:-0.055778846 442:0.012030954 443:-0.015004816 444:0.061715145 445:-0.037955809 446:0.0027082912 447:0.017806154 448:-0.10953131 449:0.063777179 450:0.035877358 451:0.074340254 452:0.00010981483 453:0.005166715 454:-0.085428916 455:-0.075678751 456:0.0087976363 457:0.045452505 458:-0.0020124465 459:0.0090626469 460:-0.081281491 461:-0.0055517233 462:-0.026757829 463:0.045397375 464:0.056640938 465:-0.011951529 466:-0.070509449 467:0.06029091 468:-0.022970382 469:-0.054098409 470:-0.0096442644 471:0.035764702 472:0.03532685 473:0.035640869 474:-0.052202139 475:-0.026275026 476:-0.045502197 477:0.027160926 478:0.035731178 479:-0.035574913 480:0.012416213 481:-0.056344736 482:-0.026474774 483:-0.017899161 484:0.004269517 485:-0.0024267551 486:0.053769462 487:0.011176037 488:-0.040715083 489:-0.011505144 490:0.047160596 491:0.0057888157 492:0.079654969 493:0.033570759 494:-0.045254216 495:0.03766676 496:0.066056646 497:0.010279836 498:-0.061077747 499:-0.044586558 500:-0.0015179273 501:0.030502012 502:0.08866252 503:0.022129269 504:-0.016977949 505:-0.017135311 506:-0.060268216 507:0.042860862 508:0.0089157391 509:0.032154281 510:-0.022464572 511:-0.021990161 
0 0 0.24567630046523942 0 0:-0.059629127 1:0.026498565 2:-0.089566894 3:-0.067859702 4:0.012787648 5:-0.031517118 6:0.032511931 7:0.056839969 8:0.04126725 9:0.091460034 10:0.051537491 11:0.052960724 12:0.025662977 13:-0.059146143 14:0.018519582 15:0.037453987 16:-0.0088905264 17:-0.08591225 18:0.0012787658 19:-0.0052535315 20:0.057867572 21:-0.0045286268 22:-0.03727236 23:0.065133661 24:0.01889082 25:0.0095411735 26:0.011707789 27:0.02030611 28:-0.034131017 29:-0.037765708 30:-0.0082895402 31:-0.05728098 32:0.039985854 33:0.047027566 34:0.015076282 35:0.027122026 36:0.0069919168 37:0.0027546447 38:0.036720116 39:0.02670061 40:0.011731786 41:-0.0015243776 42:0.025721068 43:0.030655285 44:-0.038997583 45:0.083552502 46:0.068286352 47:0.046895836 48:0.023799626 49:-0.0013445911 50:-0.037406314 51:0.019272119 52:-0.025881704 53:-0.063986123 54:0.14260358 55:0.058926813 56:0.021143612 57:-0.076672442 58:-0.039623655 59:-0.053214483 60:-0.041860793 61:0.087390527 62:-0.045870185 63:-0.035567377 64:0.053833913 65:-0.097890556 66:0.013118535 67:-0.045611616 68:0.011650055 69:0.0040146946 70:0.060672671 71:-0.045745835 72:-0.095218249 73:-0.0053605009 74:0.011062345 75:0.090930238 76:0.01161088 77:0.018849907 78:-0.035031788 79:-0.027386641 80:-0.029440979 81:0.055906892 82:-0.021001114 83:0.0075430637 84:-0.068573572 85:-0.0010495958 86:-0.014180895 87:-0.025223846 88:0.018943984 89:-0.088098854 90:-0.089101903 91:0.02297353 92:-0.085118905 93:0.022655342 94:0.0028832331 95:0.063212588 96:-0.069453791 97:-0.0070432853 98:0.048805263 99:-0.035147484 100:-0.075768016 101:-0.017695384 102:-0.012724474 103:-0.029056115 104:-0.090046734 105:-0.0063676829 106:-0.020102097 107:0.009333781 108:0.029675204 109:0.05915447 110:-0.043046035 111:-0.067533635 112:0.031164508 113:0.0048380657 114:0.038110986 115:0.040905457 116:0.02805132 117:0.07111112 118:-0.018464608 119:-0.016965747 120:-0.017482821 121:-0.096218824 122:0.11838143 123:-0.025542589 124:-0.029975977 125:0.052445285 126:-0.038057636 127:-0.044592306 128:-0.04334211 129:-0.069965832 130:0.034794606 131:0.018293897 132:-0.036547661 133:-0.058147125 134:0.0044628726 135:-0.0090669151 136:0.0083016688 137:0.052518945 138:-0.011662156 139:-0.082415476 140:-0.010060613 141:-0.060086686 142:0.049595505 143:-0.073723435 144:0.038420442 145:-0.0044484073 146:0.023067052 147:0.05308656 148:-0.034683384 149:-0.04020923 150:-0.032596577 151:-0.017446728 152:0.043247033 153:0.057753719 154:-0.11207283 155:-0.017654082 156:0.0043448838 157:-0.032824501 158:0.022325117 159:-0.046556171 160:-0.0051223878 161:0.051757965 162:-0.035974957 163:-0.010743686 164:3.141179e-05 165:-0.034534205 166:0.021051239 167:0.018780604 168:-0.0053303586 169:-0.01162864 170:0.013325172 171:0.0090936972 172:0.0071958634 173:-0.0066634933 174:0.015240088 175:0.039507262 176:0.011154175 177:0.029891415 178:0.021245487 179:-0.024226097 180:-0.0063550388 181:-0.037160698 182:0.064249963 183:0.063035086 184:-7.4718802e-05 185:-0.033900011 186:0.025735015 187:0.022259889 188:0.0033063972 189:-0.027328022 190:-0.0099037271 191:0.0058186646 192:0.0093770362 193:0.020298662 194:-0.03689177 195:-0.044078693 196:0.097365141 197:-0.020692533 198:-0.068779364 199:0.037278976 200:-0.044654962 201:-0.016233739 202:0.075592794 203:-0.060360782 204:-0.0076542171 205:0.014054436 206:0.025758954 207:-0.049209278 208:-0.030346999 209:-0.0054219626 210:0.053228389 211:0.069172882 212:-0.085577816 213:-0.086205103 214:-0.0055004181 215:-0.02827388 216:-0.021475451 217:-0.065132886 218:0.0015598636 219:-0.08481659 220:-0.0023190575 221:-0.034879532 222:0.039442066 223:0.039066643 224:-0.019224064 225:-0.054213755 226:-0.00071637012 227:-0.016985442 228:0.026931992 229:-0.045243911 230:-0.097461417 231:-0.045540035 232:0.067148305 233:0.028276503 234:0.0073846271 235:0.013946059 236:0.020701118 237:0.033124283 238:-0.036234695 239:0.038653348 240:0.01186149 241:0.03645147 242:0.02311283 243:-0.072897755 244:-0.04201398 245:0.027030611 246:-0.046419691 247:-0.012168152 248:0.01566875 249:0.019514965 250:-0.026490092 251:0.040410336 252:0.028558651 253:0.067791604 254:-0.022078093 255:0.028933033 256:0.0042951386 257:0.039245434 258:0.037977193 259:-0.014052532 260:-0.0032699583 261:-0.066437244 262:-0.019478714 263:-0.064670667 264:-0.078007475 265:0.00073549966 266:0.028303824 267:0.075473838 268:0.015907323 269:-0.0060462966 270:0.036053579 271:-0.012283206 272:-0.095237218 273:-0.017464383 274:0.01074681 275:0.00097346655 276:-0.033934385 277:0.056467999 278:-0.016840357 279:0.067606278 280:0.006502266 281:-0.084965371 282:0.036931854 283:-0.044525854 284:0.064799026 285:0.058496837 286:0.057484407 287:0.0071395859 288:-0.051028781 289:0.038265593 290:0.11188463 291:0.025412109 292:-0.034669098 293:0.075592332 294:-0.080721073 295:-0.0061549041 296:0.042233199 297:-0.019879753 298:0.058527943 299:-0.038290258 300:-0.061246168 301:-0.0012048665 302:-0.072689027 303:-0.024651729 304:0.022286728 305:-0.029590553 306:0.010637379 307:0.043293487 308:-0.012773714 309:-0.014383768 310:0.023235697 311:-0.069074064 312:-0.014051165 313:0.023743544 314:-0.065498382 315:0.078851826 316:0.061531715 317:0.0013665833 318:0.055587295 319:-0.050922617 320:-0.060455073 321:-0.015273525 322:0.018779851 323:-0.040349662 324:-0.018617922 325:0.048204556 326:0.045892391 327:0.0050739553 328:0.025118109 329:0.057928048 330:0.020305263 331:0.030443246 332:-0.010903363 333:0.012403935 334:-0.0050458149 335:0.0031982611 336:-0.007867015 337:0.014525322 338:-0.029649708 339:0.086562052 340:0.036034513 341:-0.018052645 342:-0.05902056 343:0.061791752 344:0.029829169 345:-0.037429091 346:0.014192526 347:0.065095909 348:-0.016922353 349:0.044720177 350:0.041202292 351:0.058578387 352:-0.018845465 353:0.044676851 354:0.041821737 355:-0.014937039 356:-0.027387172 357:-0.053662248 358:0.051485684 359:-0.030664572 360:0.012396344 361:-0.030891107 362:0.030040657 363:-0.061361644 364:-0.043820936 365:0.11747518 366:-0.013165416 367:0.038173199 368:0.070300981 369:0.014827181 370:-0.0044605033 371:-0.0041072392 372:0.00069889857 373:-0.12028616 374:-0.014340703 375:0.0069476035 376:0.041341443 377:-0.027875233 378:0.046904054 379:-0.029205589 380:0.034031399 381:0.0031101007 382:0.050580628 383:0.0016958066 384:-0.0086770542 385:-0.0078095123 386:0.056291677 387:-0.034037635 388:-0.020265147 389:-0.033427473 390:-0.060741309 391:-0.040002324 392:0.0023387345 393:-0.028105725 394:0.025776772 395:-0.023867715 396:-0.039526761 397:-0.039223343 398:0.085159011 399:0.045086928 400:0.051261086 401:-0.012228961 402:0.086097971 403:0.0089045139 404:0.011784383 405:0.10512177 406:0.05249517 407:0.058095418 408:0.018948346 409:-0.036251072 410:-0.029646536 411:-0.013482236 412:0.055809401 413:-0.0060054669 414:-0.033316951 415:0.026765605 416:0.1250675 417:-0.012826238 418:-0.012308017 419:0.036166862 420:0.050190412 421:0.037249349 422:0.0086700991 423:0.043261256 424:-0.0095452368 425:-0.01529156 426:4.421324e-05 427:0.048745599 428:0.024666669 429:-0.0050641433 430:0.039332841 431:0.015610807 432:-0.022753162 433:0.023438267 434:-0.0055808327 435:0.0092355153 436:-0.040924732 437:-0.0095071401 438:-0.033019427 439:0.050098594 440:-0.040787615 441:-0.032357793 442:-0.019604674 443:0.0050537325 444:0.071231484 445:-0.041626409 446:0.018282365 447:0.010696052 448:-0.090585738 449:0.059246749 450:0.031872392 451:0.032528639 452:0.023542581 453:0.030803194 454:-0.06377726 455:-0.060264479 456:0.03356611 457:-0.01114432 458:-0.028028987 459:-0.044992995 460:-0.025415299 461:0.0071137161 462:-0.031507425 463:0.032620125 464:0.0066733137 465:-0.017839238 466:-0.038311139 467:0.062815912 468:-0.046722334 469:-0.0037222533 470:0.0031570913 471:0.059208773 472:0.027327299 473:0.051977731 474:-0.010519483 475:0.036984809 476:-0.037674587 477:0.095753126 478:0.030947965 479:-0.050019238 480:0.015263944 481:-0.050843 482:-0.07429526 483:-0.017344045 484:-0.030309644 485:-0.021797035 486:0.017155886 487:0.039399631 488:-0.050446052 489:0.0051758848 490:0.046222243 491:-0.034862991 492:0.067324258 493:0.048478059 494:-0.055041291 495:-0.007947525 496:0.048343498 497:-0.037971482 498:-0.056625165 499:-0.068417713 500:0.026682099 501:0.0099409996 502:0.010733604 503:-0.015854817 504:-0.056724373 505:-0.063415334 506:-0.096058264 507:0.0612881 508:0.030000899 509:0.0056246198 510:-0.010334378 511:0.031553242 
0.33926667585256637 0.89904512189597674 0.57079584400477601 0.27731344020366611 0:-0.08340475 1:0.070403427 2:-0.065719701 3:-0.070251696 4:-0.044196796 5:-0.033236921 6:0.041737199 7:0.078368992 8:0.0021350272 9:0.068810411 10:0.050138582 11:0.032788727 12:0.00010464296 13:-0.061124541 14:-0.032232508 15:-0.00029619262 16:-0.0070662261 17:-0.088343173 18:-0.016301887 19:-0.049622077 20:0.058944296 21:0.016984403 22:-0.047953058 23:0.018034719 24:0.038621508 25:-0.066841282 26:0.030678768 27:-0.011532701 28:-0.0038449964 29:-0.012902104 30:0.0084884837 31:-0.031289466 32:0.086837515 33:0.084025711 34:0.026154898 35:0.07147301 36:-0.030173937 37:-0.0047784937 38:0.056469891 39:0.043882705 40:0.030784424 41:-0.029934904 42:0.065533504 43:0.040553402 44:-0.064719759 45:0.08936315 46:-0.0049232007 47:0.049410895 48:0.037844975 49:0.008034314 50:0.0081366105 51:0.049142092 52:0.0282232 53:-0.034387827 54:0.13051759 55:0.043816205 56:0.036054198 57:-0.0038698802 58:-0.044897199 59:-0.060528282 60:-0.022122504 61:0.08312539 62:-0.010854613 63:-0.063688107 64:0.065277107 65:-0.075068913 66:-0.013442729 67:0.0066051986 68:0.015815591 69:0.011327429 70:0.054668609 71:-0.0066382312 72:-0.10857009 73:-0.02418394 74:0.064308628 75:0.079811029 76:-0.035041537 77:0.029609421 78:-0.077379934 79:0.0039121741 80:-0.069711462 81:0.0015639943 82:-0.013962233 83:-0.031184964 84:-0.038631033 85:-0.02393521 86:0.024106806 87:-0.046765555 88:0.04934518 89:-0.035351157 90:-0.067471407 91:-0.012432364 92:-0.11706354 93:-0.030654501 94:-0.00047756816 95:0.022698425 96:-0.035050701 97:-0.0076954747 98:-0.01253154 99:0.019497048 100:0.0081978235 101:-0.024286401 102:0.023205195 103:-0.047913771 104:-0.084423594 105:0.041140277 106:0.040265534 107:0.034111191 108:0.029069202 109:0.042892724 110:-0.024427485 111:-0.025168192 112:0.049989585 113:-0.055647191 114:-0.0016194117 115:0.034835327 116:-0.0050615505 117:0.068816155 118:0.0054432298 119:-0.01846257 120:-0.053709108 121:-0.059414066 122:0.047473539 123:0.016426418 124:-0.06116765 125:0.059830002 126:-0.0018649249 127:-0.018296802 128:-0.01681656 129:-0.053750969 130:0.0071439999 131:0.012151661 132:-0.029473787 133:-0.056158572 134:0.041151047 135:0.00011531634 136:0.027115166 137:0.08280839 138:-0.048623662 139:-0.052141778 140:-0.008319417 141:-0.04769415 142:0.037678704 143:-0.079012401 144:0.0094101364 145:0.054949611 146:0.03303647 147:0.052689355 148:-0.0390172 149:-0.024872648 150:0.022737782 151:-0.048153799 152:-0.035718389 153:0.010132957 154:-0.062056761 155:0.038581688 156:-0.0026873143 157:0.013494981 158:0.030935863 159:0.0036987825 160:0.025115544 161:0.027106848 162:-0.046997443 163:0.020040456 164:0.0027169879 165:-0.010784441 166:0.03107989 167:0.017932659 168:-0.046517365 169:0.0025534455 170:0.022841541 171:-0.0040488411 172:0.021619894 173:-0.028481685 174:-0.0061670453 175:0.029956436 176:0.023962935 177:-0.044449739 178:-0.03778027 179:-0.077042945 180:0.0048663714 181:-0.055442505 182:0.078644916 183:0.059759513 184:0.0097594773 185:0.023078311 186:0.062205382 187:0.0076086246 188:-0.054118555 189:-0.026525993 190:0.005537367 191:0.0097203674 192:0.011792539 193:-0.016906198 194:-0.022263194 195:-0.095199004 196:0.054910421 197:-0.033547368 198:-0.073032022 199:0.027321186 200:-0.10065132 201:0.011779754 202:0.064482614 203:-0.072332077 204:0.014831585 205:-0.037362363 206:-0.018303912 207:-0.093524657 208:-0.055595022 209:0.0047276984 210:0.054033805 211:0.058544528 212:-0.050980978 213:-0.07900463 214:-0.044217568 215:-0.011274218 216:0.024179962 217:-0.06875971 218:0.071289182 219:-0.061475325 220:0.02246079 221:-0.031650994 222:0.0050800527 223:0.020482769 224:0.0017517733 225:-0.058324639 226:-0.0099583566 227:-0.039189838 228:0.0066325814 229:-0.018046927 230:-0.071439207 231:-0.0017334382 232:0.024506556 233:0.031349111 234:0.02870192 235:0.0082213618 236:0.050628155 237:0.0048559569 238:-0.059043605 239:0.033379607 240:0.0070005413 241:-0.0010718914 242:-0.0055958265 243:-0.070296876 244:0.029616956 245:0.02166645 246:-0.042000383 247:-0.032374445 248:0.045288254 249:-0.086999521 250:-0.01918905 251:0.027244866 252:-0.014945135 253:0.056037463 254:-0.0043529011 255:0.010710917 256:0.064776108 257:0.0097007733 258:0.069482401 259:0.061229557 260:0.030270973 261:-0.052281927 262:-0.003765974 263:-0.042987693 264:-0.09026821 265:-0.028727662 266:0.0037690874 267:0.056520775 268:0.0037959041 269:0.0043637627 270:0.049252409 271:0.029337438 272:-0.13046893 273:-0.0030056932 274:0.027220359 275:0.0069748065 276:-0.02737472 277:0.020074112 278:-0.040674284 279:0.016767252 280:0.040273778 281:-0.087335445 282:0.049300846 283:-0.072832309 284:0.0064053573 285:0.020331351 286:0.04622893 287:-0.026782967 288:-0.079052359 289:0.005465996 290:0.071922563 291:0.02667913 292:-0.028109757 293:-0.0040784045 294:-0.086831152 295:-0.011375361 296:0.037695527 297:-0.00030753558 298:0.041347731 299:0.033953611 300:-0.0062756622 301:-0.011252386 302:-0.053373847 303:-0.040043309 304:0.049532183 305:-0.077699937 306:0.062222149 307:0.026306428 308:-0.0026750851 309:-0.025500353 310:0.012763299 311:-0.097679764 312:-0.027114354 313:0.0036932321 314:-0.0133526 315:0.0014219993 316:0.046338171 317:-0.054925203 318:0.027109612 319:-0.055788875 320:-0.038449347 321:-0.0072124335 322:-0.026050216 323:-0.054839991 324:0.0090767853 325:0.036710426 326:0.071720578 327:-0.023718439 328:0.068271495 329:0.067642897 330:0.012022432 331:0.031002896 332:-0.039715726 333:0.049983244 334:-0.0046630655 335:0.045525976 336:-0.032645687 337:-0.005601319 338:-0.025191573 339:0.066729106 340:0.013542201 341:-0.027424591 342:-0.0063443524 343:0.041724052 344:0.02145664 345:-0.032078125 346:0.0091487924 347:0.035006337 348:0.0070157372 349:0.023854582 350:0.00030038255 351:0.049261812 352:-0.0064872997 353:0.056729957 354:0.030140065 355:-0.024501808 356:-0.0067715133 357:0.024396513 358:-0.0085232453 359:-0.033982247 360:-0.0045068399 361:-0.046735503 362:-0.046473909 363:-0.046849243 364:-0.018420406 365:0.10648103 366:0.0030388515 367:0.076693453 368:-0.0090404013 369:0.016121687 370:0.0094297091 371:-0.031959251 372:8.8427705e-06 373:-0.089198001 374:-0.025753917 375:-0.054624442 376:0.0056316736 377:-0.070622474 378:-0.020339476 379:-0.018627673 380:0.044876885 381:0.026183203 382:0.00021559575 383:-0.040268213 384:-0.018956797 385:0.0091112796 386:0.052078247 387:-0.022569798 388:-0.022859624 389:0.027420903 390:-0.027677767 391:-0.0087972637 392:-0.060272448 393:-0.032487568 394:0.00035757391 395:-0.075232856 396:-0.026203139 397:-0.039266214 398:0.10391116 399:0.082805634 400:0.073061705 401:0.029945435 402:0.099689975 403:-0.015831659 404:-0.033843469 405:0.081035025 406:0.065385751 407:0.044774808 408:0.017780082 409:-0.040888127 410:-0.069803894 411:-0.023496987 412:-0.0086394306 413:0.04359895 414:-0.092079952 415:-0.062757418 416:0.059565105 417:0.021025602 418:0.0070190793 419:0.025244838 420:0.031012613 421:0.072021507 422:0.0068126232 423:0.025846479 424:0.033121299 425:-0.050355345 426:0.025526877 427:0.034815777 428:0.050336666 429:-0.0064918632 430:0.024036862 431:0.0033685039 432:-0.0075633093 433:-0.0095517011 434:-0.02005385 435:-0.060228676 436:-0.036236502 437:-0.0083018253 438:-0.024514033 439:-0.015610305 440:-0.027855301 441:-0.045447756 442:0.037784588 443:-0.015852796 444:0.040737983 445:-0.020670505 446:0.022067081 447:0.032537561 448:-0.11577919 449:0.0094475625 450:0.047833301 451:0.0085202875 452:0.038805485 453:-0.0031307417 454:-0.10500141 455:-0.06910494 456:0.052740201 457:0.040994033 458:-0.0050837058 459:0.011178457 460:-0.039292987 461:0.043049414 462:0.028182931 463:0.0023662802 464:0.028819636 465:0.048291467 466:-0.0051093912 467:0.050495412 468:-0.049439099 469:-0.063430749 470:0.01866197 471:0.022322591 472:0.069255516 473:0.027074125 474:-0.041901153 475:0.029606882 476:-0.025435127 477:0.096116588 478:0.042111047 479:-0.074363276 480:0.052986842 481:-0.052877091 482:-0.034439709 483:-0.031858344 484:-0.013244356 485:-0.013360615 486:0.030879337 487:0.026117584 488:-0.060140491 489:0.0090338541 490:0.022401556 491:-0.017971752 492:0.08168526 493:0.012957539 494:-0.037302982 495:0.027927518 496:0.033765119 497:-0.015306556 498:-0.0028698889 499:-0.049348339 500:-0.038769767 501:0.00038170003 502:0.092537142 503:0.031698931 504:-0.035635393 505:-0.025784651 506:-0.031663932 507:0.057383195 508:0.011054382 509:-0.019541239 510:-0.030600576 511:0.021782011 
0.88105009093006681 0.053455592136291551 0.04018965530082462 0.43643759106441837 0:-0.072481915 1:0.037287466 2:-0.083833829 3:-0.089007095 4:0.012708614 5:-0.047058694 6:0.014803902 7:0.039093617 8:0.0045435545 9:0.040505528 10:0.033018552 11:-0.012419254 12:-0.03449351 13:-0.086083107 14:-0.0042304243 15:-0.022811316 16:-0.0041208533 17:-0.025288228 18:-0.0078035099 19:0.019770866 20:0.078643873 21:0.013267826 22:-0.04284963 23:0.070589863 24:0.0066280034 25:0.017271075 26:0.020423999 27:0.035878759 28:-0.020440834 29:0.043215457 30:-0.016119655 31:-0.03292476 32:0.038335774 33:0.068137243 34:0.049832862 35:0.0145987 36:-0.026193038 37:-0.016377164 38:0.065096512 39:0.080904089 40:0.0043854835 41:-0.013166411 42:0.028915871 43:0.06080775 44:-0.061857324 45:0.027054576 46:-0.0020854957 47:0.083063446 48:-0.020561265 49:0.02632202 50:-0.066935301 51:0.012560971 52:0.043658484 53:0.040769573 54:0.18244885 55:0.058182802 56:0.0095497658 57:0.0024058116 58:0.0098214103 59:-0.075020693 60:0.01227221 61:0.10621676 62:-0.033080451 63:-0.089947559 64:0.086276606 65:-0.070804879 66:0.011535485 67:-0.010625257 68:-0.016322123 69:0.02487842 70:0.027132494 71:-0.046966422 72:-0.1149505 73:-0.023720963 74:-0.0027321801 75:0.085388504 76:0.0028396929 77:0.0050205057 78:-0.037050407 79:-0.028855009 80:-0.063249841 81:0.061856594 82:0.023164088 83:0.030448355 84:-0.053912643 85:-0.046220932 86:-0.027543822 87:-0.049086265 88:0.024259422 89:-0.10192815 90:-0.0081718247 91:-0.0011352312 92:-0.043059386 93:-0.009334892 94:0.025188964 95:0.046558455 96:-0.047031909 97:0.0030751482 98:0.034915835 99:0.015215124 100:-0.07389468 101:-0.016142122 102:-0.017091697 103:-0.01466132 104:-0.090226166 105:0.032069992 106:0.021097716 107:0.070072636 108:0.0023534822 109:0.042422 110:-0.028637646 111:-0.016219517 112:0.015562302 113:-0.032519288 114:-0.010187368 115:0.048698802 116:0.010645893 117:0.1023474 118:-0.044228751 119:-0.048893698 120:-0.050976437 121:-0.048777964 122:0.10719249 123:0.051472969 124:-0.025289195 125:0.11213446 126:-0.053143177 127:-0.054767046 128:-0.049135156 129:-0.045760017 130:-0.048140794 131:0.016790349 132:-0.011463229 133:-0.072462291 134:0.014935278 135:-0.035437144 136:0.029201036 137:0.044445142 138:-0.036383297 139:-0.069377184 140:-0.039948594 141:-0.11657067 142:-0.016288325 143:-0.053014971 144:0.0020009191 145:0.035828743 146:0.0041051493 147:0.00041542234 148:-0.056075923 149:-0.038595479 150:0.0059500658 151:-0.027634446 152:-0.021655321 153:0.03733385 154:-0.079533793 155:-0.023893008 156:-0.0084389923 157:-0.0034933928 158:0.021857012 159:-0.0045272307 160:-0.00099200767 161:0.018781392 162:-0.04817526 163:0.036097664 164:0.0084005138 165:0.033647794 166:0.024349248 167:0.017642293 168:-0.03514722 169:-0.0039747483 170:0.025754573 171:-0.0021185868 172:-0.02025722 173:-0.02366082 174:-0.012714088 175:0.055505957 176:0.028998919 177:0.035783403 178:-0.041134704 179:-0.066291392 180:0.017581752 181:-0.021893907 182:0.07102377 183:0.058655452 184:0.0087524019 185:0.0061360942 186:0.003438083 187:0.016612841 188:0.0091314204 189:-0.032957554 190:0.049978271 191:-0.033824183 192:-0.00036007058 193:-0.012538953 194:-0.0680255 195:-0.057346441 196:0.041064207 197:0.027599607 198:-0.12668546 199:0.051099591 200:-0.054691333 201:0.028022848 202:0.055312898 203:-0.068443634 204:0.024866458 205:-0.0007258426 206:-0.017246228 207:-0.073238149 208:-0.052516267 209:0.028326221 210:0.12502415 211:0.026960827 212:-0.056812275 213:-0.035212431 214:-0.075603396 215:-0.015789509 216:0.0097777974 217:-0.038090874 218:-0.019206893 219:-0.10719585 220:-0.02266082 221:-0.069752 222:0.021689987 223:0.020179341 224:-0.036509395 225:-0.020707976 226:0.047800142 227:0.01041727 228:-0.0030046031 229:-0.041852202 230:-0.069233 231:-0.007261503 232:0.0055678845 233:0.023020606 234:0.064056449 235:0.0089921923 236:-0.018770831 237:0.036970004 238:-0.055459745 239:0.016103316 240:-0.021641158 241:0.011681866 242:-0.013478666 243:-0.022887681 244:0.012529333 245:0.018307364 246:-0.0036237282 247:0.0018661208 248:0.014310151 249:-0.025368543 250:-0.0096466905 251:0.054539684 252:-0.010565104 253:0.0083647603 254:0.052361846 255:0.0036214616 256:0.050052214 257:0.04308911 258:0.034270007 259:-0.001890817 260:0.032208588 261:-0.08546821 262:0.027666038 263:-0.024185153 264:-0.11016409 265:-0.027546231 266:0.016719045 267:0.084325127 268:-0.026743613 269:-0.015969284 270:0.015458739 271:-0.027630761 272:-0.11875624 273:0.0051770867 274:0.023183543 275:0.025296031 276:0.010692085 277:0.053227432 278:-0.012712546 279:-0.010903189 280:0.033494923 281:-0.074633837 282:0.018185506 283:-0.021378942 284:0.034125727 285:0.021458291 286:0.06181265 287:-0.024588039 288:-0.056340698 289:0.025342606 290:0.048332013 291:0.032436311 292:-0.0186566 293:0.018717496 294:-0.046984095 295:-0.012769061 296:0.055426892 297:-0.046364699 298:0.022265879 299:0.0032825773 300:-0.031391449 301:-0.0098579256 302:-0.045856673 303:-0.0033224693 304:0.050436575 305:0.0033575504 306:0.049426429 307:0.033341214 308:-0.025099162 309:-0.0046269381 310:0.0031445725 311:-0.05440928 312:0.038213629 313:0.030292297 314:-0.061293811 315:0.09364488 316:-0.023432264 317:-0.016671546 318:0.062560625 319:-0.012622523 320:-0.05957105 321:0.03644954 322:0.022794824 323:0.0029252868 324:-0.027015712 325:0.018611846 326:0.058306735 327:-0.016563611 328:-0.020176211 329:0.059612349 330:-0.00041161978 331:-0.0084818471 332:-0.020038445 333:0.066572025 334:0.020155428 335:-0.035351649 336:-0.033559326 337:0.0075248685 338:-0.042163104 339:0.036352772 340:0.019318165 341:0.018722866 342:-0.020516451 343:0.012705932 344:0.005520734 345:-0.021819908 346:0.021833414 347:0.069508016 348:0.015015365 349:0.026236756 350:-0.017589649 351:0.066992097 352:-0.015500352 353:0.0027507886 354:0.020184824 355:0.0088310568 356:0.012006802 357:-0.069367468 358:0.060731757 359:0.0026899332 360:-0.013602694 361:0.016612401 362:-0.0062494935 363:-0.040137429 364:-0.021131875 365:0.09773393 366:-0.026189355 367:0.041895043 368:0.03584183 369:-0.021191847 370:0.01700441 371:-0.0060515474 372:0.004216319 373:-0.11614394 374:-0.053631593 375:0.027366839 376:-0.003840137 377:-0.054150254 378:0.050437961 379:-0.071797557 380:0.10834426 381:-0.029959472 382:0.043546692 383:-0.015649308 384:-0.012341943 385:0.0035429243 386:0.091483369 387:-0.069697782 388:0.0069637848 389:0.03821728 390:-0.046414368 391:0.027845999 392:0.016172599 393:-0.021716455 394:0.014100846 395:-0.020121673 396:-0.037931662 397:-0.01529374 398:0.10167769 399:0.035586514 400:0.082556352 401:0.029842919 402:0.069062442 403:-0.035919506 404:-0.0047629164 405:0.086187735 406:0.015433366 407:-0.007733623 408:0.035069183 409:-0.011367517 410:-0.058025077 411:0.026043145 412:0.012245543 413:-0.033545651 414:-0.05215152 415:-0.026734838 416:0.10938895 417:-0.024698168 418:0.022063199 419:0.019799266 420:0.040285144 421:0.0030526845 422:-0.028808141 423:0.05211971 424:0.030929852 425:-0.073240176 426:0.057348911 427:0.041142199 428:0.0097964564 429:0.021465184 430:0.042711545 431:0.012706818 432:-0.021316316 433:-0.0052140937 434:0.021375297 435:-0.044490378 436:0.0095236087 437:-0.026870148 438:0.0021700722 439:0.01879725 440:-0.028429141 441:-0.049490612 442:-0.065752752 443:0.029854678 444:0.055199973 445:0.032974154 446:0.018065918 447:0.036595915 448:-0.089045241 449:0.033428047 450:0.050648194 451:0.053044748 452:-0.018833386 453:-0.027348464 454:-0.0444219 455:-0.046710644 456:-0.012563624 457:-0.022635449 458:0.001604276 459:-0.026612053 460:-0.0097075664 461:0.041532725 462:-0.089521125 463:0.018331684 464:0.053401861 465:0.018201409 466:-0.023864485 467:0.028437139 468:-0.038673595 469:0.011277691 470:-0.013768496 471:0.095429726 472:0.0088570174 473:0.028531481 474:-0.0025302449 475:0.031541865 476:-0.044575259 477:0.1080771 478:-0.040441349 479:-0.072757095 480:0.020314643 481:-0.06492798 482:-0.01569606 483:0.018471124 484:-0.028298307 485:-0.0084539745 486:0.0013912531 487:0.023861747 488:-0.056019716 489:-0.0087617943 490:0.049094003 491:0.00075962214 492:0.04454546 493:0.06029297 494:-0.053845145 495:0.018625082 496:0.04581077 497:-0.026717074 498:-0.059140522 499:-0.028225014 500:-0.059535619 501:0.014569786 502:0.040928215 503:0.008870001 504:0.0081296125 505:-0.040882315 506:-0.054757696 507:0.072724588 508:-0.016196489 509:0.04970587 510:0.02622148 511:-0.037632704 
0.53256636323172135 0.65585385896029635 0 0.041623724824202332 0:-0.080784641 1:0.085461989 2:-0.03571802 3:-0.061230835 4:0.0060913502 5:0.0077509969 6:0.016303247 7:-0.014129448 8:0.041740138 9:0.076147482 10:0.0049668443 11:0.046080876 12:-0.040722467 13:-0.058677506 14:0.003235626 15:-0.03662011 16:0.032074075 17:-0.057449512 18:0.0071492032 19:-0.063987024 20:0.056585401 21:-0.00088041532 22:-0.0046151988 23:0.098965928 24:0.02513621 25:0.012266903 26:0.027261551 27:0.031272978 28:-0.044929754 29:0.0084513044 30:-0.0055913487 31:-0.025377279 32:0.076880321 33:0.013821978 34:0.044951234 35:0.01630036 36:-0.017651442 37:-0.037404243 38:0.036533996 39:0.051361825 40:-0.0039570914 41:-0.049631417 42:-0.017188519 43:0.029208569 44:-0.0014780753 45:0.05360654 46:0.039040554 47:0.047801174 48:0.052567139 49:0.014688592 50:0.0070161372 51:0.052488029 52:-0.017982587 53:-0.017027568 54:0.16606009 55:0.044483598 56:0.035357319 57:-0.011451035 58:-0.01837666 59:-0.028958153 60:-0.0065148054 61:0.049134348 62:-0.0064756284 63:-0.098279685 64:0.058121484 65:-0.046469077 66:0.0039616469 67:0.011721205 68:-0.01202571 69:0.036851153 70:0.091118641 71:0.019965995 72:-0.11724926 73:0.023300607 74:0.036267072 75:0.093488574 76:-0.00054947491 77:0.027270315 78:-0.036408052 79:0.06063842 80:-0.063955463 81:0.010195624 82:0.02199042 83:-0.022576928 84:-0.077283405 85:-0.053558338 86:-0.026675966 87:-0.023028826 88:0.063099414 89:-0.060599752 90:-0.059850805 91:0.00019922877 92:-0.032376766 93:0.023883441 94:0.0060692923 95:0.054282635 96:-0.071366638 97:0.046713568 98:0.05458279 99:0.011043316 100:-0.020506999 101:-0.057252768 102:-0.024266427 103:-0.077097833 104:-0.053226206 105:0.090902574 106:-0.0044413838 107:0.028581537 108:0.0059197298 109:0.020313183 110:-0.0085436162 111:-0.068802714 112:0.0053793546 113:-0.0073146923 114:0.035007935 115:0.055599172 116:0.048675802 117:0.010010461 118:-0.013821985 119:-0.015656259 120:-0.02792052 121:-0.03191556 122:0.078439891 123:0.041392013 124:-0.007693144 125:0.04611415 126:-0.057399202 127:-0.042090233 128:-0.027997365 129:-0.05870172 130:0.014020315 131:0.012380655 132:0.0023364385 133:-0.084393814 134:-0.032891449 135:-0.038945474 136:-0.013456216 137:0.039375041 138:-0.031958282 139:-0.097389348 140:-0.018595871 141:-0.048266564 142:0.017347464 143:-0.072778262 144:0.033599682 145:0.024421472 146:0.028417794 147:0.0037660575 148:-0.058647279 149:-0.038346842 150:-0.072760336 151:-0.0015804602 152:0.00067752856 153:0.064787894 154:-0.10173123 155:-0.036667183 156:0.0057445909 157:-0.023692872 158:0.048530504 159:-0.048607729 160:0.035825364 161:0.038692236 162:-0.049419764 163:0.028769845 164:0.0084313275 165:-0.018278589 166:0.077125981 167:0.033217654 168:-0.019376507 169:0.013245782 170:-0.0060781171 171:0.0062054335 172:-0.00082497473 173:-0.050960235 174:-0.053276654 175:0.013540236 176:0.013200336 177:0.00068114797 178:-0.013263162 179:-0.071731247 180:0.022218863 181:-0.056142353 182:0.051705536 183:0.0902858 184:0.020398937 185:-0.040803023 186:-0.0064091985 187:0.01153454 188:-0.015481622 189:0.02705968 190:-0.026533304 191:-0.0021537063 192:0.026159963 193:0.027602248 194:-0.098467574 195:-0.10541578 196:0.12513079 197:-0.066004887 198:-0.069418862 199:0.013751708 200:-0.054835156 201:-0.011956258 202:0.057615794 203:-0.015365577 204:0.004093477 205:-0.071429513 206:0.0074231466 207:-0.10070135 208:-0.068441331 209:0.034657974 210:0.061801843 211:0.038501021 212:-0.084428869 213:-0.069185555 214:-0.015267322 215:-0.011119392 216:0.0050049555 217:-0.05590535 218:0.0014827779 219:-0.059385799 220:-0.026817717 221:-0.051834326 222:0.028079554 223:-0.0036365695 224:-0.055099498 225:-0.048547909 226:0.0032406976 227:0.00046812845 228:0.035378281 229:-0.021382036 230:-0.042343039 231:-0.044590201 232:0.028268779 233:0.051652677 234:0.057099428 235:0.031390753 236:-0.011114447 237:0.042349074 238:-0.057790551 239:0.028442336 240:0.0049372441 241:0.03091736 242:0.040046077 243:-0.04293498 244:0.039372794 245:0.011214754 246:-0.0077147279 247:-0.029654594 248:0.055873469 249:-0.071909606 250:0.020258877 251:0.037639081 252:0.028947487 253:0.04649175 254:0.002866223 255:-0.0073357411 256:0.049960047 257:0.057545908 258:0.043333523 259:0.040528893 260:0.059103649 261:-0.02587427 262:0.01537184 263:-0.040474538 264:-0.077743217 265:-0.00024312962 266:0.015752342 267:0.10319185 268:-0.011438465 269:0.015692007 270:0.036922779 271:-0.001292099 272:-0.11986294 273:-0.0064383824 274:0.030331736 275:-0.021380048 276:-0.0060830121 277:0.085800767 278:-0.013328465 279:-0.017800946 280:0.058242127 281:-0.09202081 282:-0.0048882077 283:-0.035025313 284:0.042147525 285:0.014856572 286:0.03715058 287:-0.0082958229 288:-0.11765778 289:-0.019604648 290:0.054427594 291:0.028098095 292:-0.0076394454 293:-0.041337553 294:-0.0990915 295:0.025765844 296:0.037136942 297:0.0021671562 298:0.069553435 299:-0.0029045772 300:0.0053878701 301:-0.035254084 302:-0.05357784 303:-0.0091318665 304:0.036246102 305:-0.070741706 306:0.057142269 307:0.038500607 308:-0.013198105 309:0.0013277925 310:0.019824753 311:-0.084764943 312:0.03609376 313:0.034090038 314:-0.051157687 315:0.065879136 316:-0.011075963 317:-0.014440197 318:-0.01337554 319:-0.028250504 320:-0.0093632741 321:-0.0004852282 322:0.0041316827 323:-0.0059565078 324:-0.017864073 325:-0.0077427891 326:0.068468742 327:-0.041179594 328:0.048247349 329:0.10319749 330:0.014081012 331:0.044709079 332:0.00063231133 333:0.062490862 334:-0.04249106 335:-0.010353196 336:-0.057748083 337:0.030988695 338:0.015268148 339:0.06582734 340:0.013167631 341:-0.030660557 342:-0.046996076 343:0.050340232 344:0.040891603 345:-0.023713274 346:-0.0020263242 347:0.062711276 348:0.011919554 349:0.0013188788 350:0.020822771 351:0.037941758 352:-0.061361294 353:0.015102617 354:0.022126259 355:0.073445298 356:0.026880842 357:-0.015314928 358:0.028437542 359:-0.0065913838 360:-0.042827953 361:-0.00025554842 362:-0.014287536 363:-0.044252682 364:-0.046176072 365:0.073460579 366:-0.014650248 367:0.042907294 368:0.030911898 369:0.054551516 370:0.001881157 371:0.01325656 372:0.0089983968 373:-0.097417228 374:0.027233606 375:0.014857625 376:0.021434123 377:-0.05091634 378:-0.0017122498 379:-0.03179298 380:0.040102609 381:0.013594039 382:0.0099892206 383:-0.018793169 384:-0.038763382 385:0.015712874 386:0.028986607 387:-0.067345656 388:-0.040278547 389:0.038719676 390:-0.096626639 391:-0.01510522 392:-0.00026528945 393:-0.0080957124 394:0.010182897 395:-0.059812315 396:-0.010758383 397:-0.046221968 398:0.092424333 399:0.081761636 400:0.034858838 401:0.012625932 402:0.069215372 403:-0.0080828127 404:-0.038286585 405:0.028314283 406:0.07370995 407:0.010230122 408:0.00066639559 409:0.002928531 410:-0.067563847 411:-0.034989983 412:0.009460601 413:0.038944822 414:-0.043445196 415:0.011465052 416:0.079842322 417:0.013722745 418:0.010254918 419:0.020489097 420:0.04871437 421:0.04777744 422:0.025490992 423:0.055473085 424:0.021265918 425:-0.025918927 426:-0.013572519 427:0.065876395 428:0.0010512711 429:-0.0367277 430:0.012828006 431:0.014626428 432:-0.021054473 433:-0.020903746 434:-0.060340825 435:-0.055696622 436:-0.033793639 437:0.019211994 438:-0.0025658375 439:0.034274545 440:-0.030245533 441:-0.041706733 442:-0.02463145 443:-0.0086785341 444:0.030044785 445:-0.0038679687 446:0.0052214842 447:0.00064080069 448:-0.10219263 449:0.024231222 450:0.059996448 451:0.054447595 452:-0.0026611504 453:-0.0098989205 454:-0.10639871 455:-0.059517357 456:0.0048015341 457:0.050216112 458:0.024339769 459:0.00046309599 460:-0.093607567 461:-0.020437103 462:-0.080463581 463:0.039844308 464:0.048503008 465:-0.0099175489 466:-0.09014383 467:0.061023071 468:0.01907867 469:-0.05729026 470:-0.0087634576 471:0.050086502 472:0.038156223 473:0.0468679 474:-0.023486685 475:0.027679196 476:-0.0074696294 477:0.033933472 478:0.047504883 479:-0.017842935 480:0.057931401 481:0.0022130492 482:-0.049942158 483:-0.0005222382 484:0.0040272241 485:-0.016687682 486:0.012905687 487:0.015527072 488:-0.0020014758 489:-0.024938477 490:0.016674891 491:0.042888362 492:0.034106076 493:0.0081104329 494:-0.019454924 495:0.043476414 496:0.015997311 497:-0.011614766 498:-0.068824895 499:-0.020650897 500:-0.0068333219 501:0.021590166 502:0.080387749 503:0.023949247 504:-0.00057912304 505:-0.025638795 506:-0.072653361 507:0.057091005 508:0.022311728 509:0.0023631589 510:-0.0078439629 511:-0.034241833 
0 0.095850572737323531 0 0.59853529734939914 0:-0.060726669 1:0.070088618 2:-0.062988237 3:-0.076955788 4:-0.042225044 5:-0.046322949 6:0.0046237381 7:0.057215828 8:0.032947846 9:0.056094769 10:0.076296337 11:0.011606653 12:-0.023872122 13:-0.073273301 14:-0.0056015225 15:0.028154856 16:0.0088115185 17:-0.068533927 18:-0.01627706 19:-0.02375727 20:0.086327866 21:-0.031763546 22:-0.051711805 23:0.052851588 24:0.0092396336 25:-0.018396625 26:0.0018395274 27:0.044159949 28:0.0050411895 29:0.007047602 30:-0.0047780867 31:-0.037816044 32:0.074067749 33:0.079920582 34:0.010965411 35:0.049785607 36:0.0021374223 37:0.0037385775 38:0.077994503 39:0.069421403 40:0.019302282 41:-0.051385101 42:0.045426022 43:0.073868603 44:-0.049307276 45:0.055360977 46:0.010230733 47:0.059961911 48:0.033531785 49:0.031356864 50:-0.02481064 51:0.036164109 52:0.017728176 53:-0.014422596 54:0.1897573 55:0.073744416 56:0.018331878 57:-0.017136473 58:-0.0024892518 59:-0.058568649 60:-0.032066662 61:0.080188505 62:-0.07976076 63:-0.056848038 64:0.066428952 65:-0.06620945 66:-0.0064954152 67:0.017529428 68:-0.015013331 69:-0.013908286 70:0.039032947 71:-0.032225642 72:-0.11879276 73:-0.010853967 74:0.029297909 75:0.060280304 76:-0.032549217 77:0.040220819 78:-0.080634885 79:-0.011214666 80:-0.081488393 81:0.017044079 82:-0.0063702473 83:0.0070217689 84:-0.045979358 85:-0.024932364 86:-0.023538038 87:-0.016735997 88:0.030541014 89:-0.06045616 90:-0.064334489 91:-0.018599449 92:-0.096646346 93:-0.00093998556 94:-0.015596947 95:0.058380153 96:-0.029953465 97:0.016640749 98:0.050962418 99:0.018265368 100:-0.072804473 101:-0.0087558925 102:-0.015447133 103:-0.050133925 104:-0.062411051 105:0.013828206 106:0.015543673 107:0.01419854 108:0.016759567 109:0.046830382 110:-0.016165376 111:-0.025195727 112:0.033509113 113:-0.030252479 114:0.021121638 115:0.081232682 116:0.042414159 117:0.04153144 118:-0.036773663 119:-0.043527875 120:-0.0281424 121:-0.01910493 122:0.072014913 123:0.045315918 124:-0.02768424 125:0.057883322 126:-0.014143504 127:-0.056914855 128:-0.015549449 129:-0.050534133 130:-0.029291794 131:0.049735624 132:-0.00077541271 133:-0.053354461 134:0.039370663 135:-0.034739472 136:0.014805766 137:0.033992674 138:-0.014610705 139:-0.075518265 140:0.0022029798 141:-0.11495848 142:0.017983202 143:-0.083364181 144:0.013714213 145:0.035609711 146:0.019592768 147:0.046980336 148:-0.048566267 149:-0.042126365 150:0.027365766 151:-0.020165935 152:0.0016929231 153:0.0067645628 154:-0.079987228 155:0.014312896 156:-0.030364379 157:0.00019041901 158:0.039589044 159:-0.017865079 160:0.023870053 161:0.022350276 162:-0.027071455 163:0.031841815 164:8.8358334e-05 165:0.0074952049 166:0.033811819 167:0.023442971 168:-0.037835833 169:0.022668269 170:0.018932765 171:0.006762234 172:0.0031516484 173:-0.029227497 174:0.0063754027 175:0.034073845 176:0.021060558 177:0.013138073 178:-0.014711728 179:-0.08320304 180:0.034007177 181:-0.04899472 182:0.065599442 183:0.054108463 184:0.0026097423 185:-0.0062876693 186:0.013705447 187:0.032204948 188:-0.011678275 189:-0.00047251116 190:0.01894097 191:0.027599158 192:-0.0061556962 193:-0.019688135 194:-0.061014045 195:-0.058006093 196:0.056262832 197:-0.0020083026 198:-0.10515134 199:0.0048862384 200:-0.061193127 201:0.0085794404 202:0.11752757 203:-0.081631355 204:0.022485983 205:-0.016912855 206:-0.013181749 207:-0.058527134 208:-0.056294695 209:0.018692095 210:0.076237299 211:0.056806806 212:-0.02662552 213:-0.058991738 214:-0.040379271 215:-0.030630479 216:0.013404857 217:-0.076108553 218:-0.0063454863 219:-0.091570199 220:-0.0013904612 221:-0.054549132 222:0.028480943 223:0.0013011383 224:-0.061264288 225:-0.049343042 226:0.022545204 227:0.015430829 228:-0.002113444 229:-0.030900475 230:-0.10487923 231:-0.045091201 232:-0.0018092226 233:0.024767842 234:0.041256003 235:0.012137429 236:0.036849651 237:0.049599841 238:-0.041100126 239:0.026749531 240:-0.015494784 241:0.061657 242:0.033090748 243:-0.048562299 244:-0.0047083902 245:0.032942113 246:-0.024755705 247:-0.0046340125 248:0.0086096488 249:-0.051475007 250:-0.031567045 251:0.051857982 252:0.029517179 253:0.024586653 254:-0.0029149558 255:0.024143994 256:0.038976338 257:0.018879157 258:0.072659671 259:0.028191496 260:0.027236555 261:-0.092263989 262:-0.0053544235 263:-0.022368772 264:-0.093857497 265:-0.051843744 266:0.013088097 267:0.067894876 268:-0.028745845 269:-0.031522606 270:0.017899524 271:0.025084609 272:-0.11746959 273:0.023208845 274:0.019979978 275:0.00712262 276:-0.030951167 277:0.046358149 278:-0.017295968 279:0.023066154 280:-0.026061375 281:-0.072896622 282:0.031419504 283:-0.04033583 284:0.069639742 285:0.035857763 286:0.069976762 287:0.0038736167 288:-0.061241314 289:0.012971696 290:0.089812838 291:0.061665099 292:-0.022009796 293:0.056497715 294:-0.061467737 295:0.010488073 296:0.043216813 297:-0.025267053 298:0.07389579 299:0.00083985721 300:-0.064139239 301:-0.013523594 302:-0.077167638 303:-0.025706284 304:0.048895754 305:-0.032397553 306:0.082022227 307:0.036405772 308:0.023922749 309:-0.031777069 310:0.0015169655 311:-0.078549311 312:0.0086235758 313:-0.0014817879 314:-0.034911118 315:0.058085922 316:0.045728255 317:-0.037193894 318:0.069321685 319:-0.044241413 320:-0.077853203 321:0.0026173617 322:-0.028023744 323:-0.014377712 324:-0.024684792 325:0.033629708 326:0.029334413 327:0.010020361 328:0.0069657615 329:0.084259324 330:0.0024163227 331:0.018041356 332:-0.053412288 333:0.039415691 334:0.0052858572 335:0.022970803 336:-0.040839691 337:0.0037026927 338:-0.035350099 339:0.06153718 340:0.014552699 341:-0.037913434 342:-0.027761996 343:0.055102229 344:0.022478191 345:-0.060791697 346:0.025869856 347:0.052389387 348:0.015968177 349:0.043937426 350:0.021834722 351:0.063188471 352:-0.014701052 353:0.046656929 354:0.059306752 355:-0.0069951215 356:-0.0071279095 357:-0.013695303 358:0.0017498438 359:-0.024926405 360:-0.032132585 361:-0.026495423 362:-0.01492669 363:-0.083523087 364:-0.029115358 365:0.100849 366:-0.034197532 367:0.060530093 368:0.025931012 369:-0.012759497 370:0.030367719 371:-0.039307777 372:-0.017448012 373:-0.12254338 374:-0.026301555 375:-0.0054352731 376:0.029812727 377:-0.058357801 378:0.01548097 379:-0.054690119 380:0.036928751 381:0.0025418596 382:0.029608894 383:0.018893123 384:0.0015943696 385:-0.036673103 386:0.065009065 387:-0.036429979 388:-0.035262775 389:-0.011640435 390:-0.028079778 391:0.0033355097 392:0.0084693553 393:-0.0062501635 394:-0.016221916 395:-0.079920836 396:-0.019169357 397:-0.017414721 398:0.09718062 399:0.039694641 400:0.11067708 401:0.024313955 402:0.11663923 403:-0.031567093 404:-0.029525248 405:0.077625722 406:0.059378613 407:0.0073009217 408:0.025148313 409:0.00049102836 410:-0.036213305 411:-0.0037379595 412:-0.019716403 413:-0.015613662 414:-0.058433585 415:-0.0012892907 416:0.097408034 417:-0.0038165327 418:0.016583985 419:0.01939138 420:0.078490406 421:0.052178308 422:-0.00056859723 423:0.024106819 424:-0.021684406 425:-0.040578712 426:0.031108098 427:0.032488212 428:0.039440677 429:-0.0021256562 430:0.037452362 431:0.033312179 432:-0.017361296 433:-0.010917308 434:0.022328584 435:-0.010805096 436:-0.017783338 437:-0.030087795 438:-0.021951582 439:0.027507331 440:0.00027763477 441:0.010116548 442:-0.012661531 443:-0.0046289274 444:0.045362771 445:0.0048531066 446:0.043253873 447:0.010496727 448:-0.090341866 449:0.042043753 450:0.033402126 451:0.022970764 452:0.0039473753 453:0.025565717 454:-0.070167005 455:-0.054226931 456:0.028445173 457:-0.00018620102 458:0.0053691426 459:-0.026347755 460:-0.015003389 461:0.032536522 462:-0.014032255 463:0.010602973 464:0.01488718 465:-0.0081444895 466:-0.02375257 467:0.041087225 468:-0.047191218 469:0.006662087 470:0.013561065 471:0.043695707 472:0.042981427 473:0.011441797 474:-0.0043454277 475:0.029054632 476:-0.034040157 477:0.11404753 478:0.020381855 479:-0.05890812 480:0.026595963 481:-0.064694978 482:-0.062005732 483:-0.0012432584 484:-0.040361945 485:-0.026642993 486:0.034789044 487:0.055510432 488:-0.053272124 489:-0.028890636 490:0.038688548 491:-0.0043134368 492:0.054371014 493:0.042569377 494:-0.042702816 495:0.046023868 496:0.036053438 497:-0.019940471 498:-0.042218041 499:-0.066819474 500:-0.046765927 501:0.022690766 502:0.046525616 503:0.0058313352 504:-0.030195387 505:-0.043042131 506:-0.061672956 507:0.062604763 508:0.022430334 509:0.023572776 510:0.0076585165 511:0.010525038 
-0 0.73466406202612666 0 0.43355318324661829 0:0.0079024788 1:0.02904083 2:-0.023108389 3:-0.088697985 4:0.011985254 5:-0.061080668 6:0.023068221 7:0.044655219 8:-0.0042930096 9:-0.028691767 10:-0.059783429 11:-0.073131084 12:-0.030437989 13:0.017468523 14:0.019520991 15:-0.10977238 16:-0.05642128 17:-0.060335986 18:-0.018952215 19:-0.0086383307 20:0.068474501 21:-0.025069376 22:0.016037742 23:0.058226869 24:0.021851392 25:-0.0054584146 26:0.045807015 27:0.028684743 28:0.029619228 29:0.029994151 30:0.052746005 31:-0.020314129 32:-0.017186174 33:0.0045046988 34:0.070226774 35:0.0016879528 36:-0.071508951 37:0.075854957 38:0.0077809608 39:-0.012428069 40:-0.019097896 41:0.019937556 42:0.027797934 43:0.073851123 44:0.033645689 45:-0.0061637461 46:-0.0908686 47:-0.057139561 48:-0.053671122 49:-0.047888663 50:0.010190631 51:-0.011505271 52:0.00025004183 53:0.020922652 54:-0.05477776 55:0.072205164 56:-0.016069075 57:0.023510864 58:0.051196709 59:0.023014685 60:-0.0031809569 61:-0.050470509 62:-0.007663134 63:-0.067252897 64:0.021140648 65:0.016609572 66:-0.0332308 67:0.0063140341 68:-0.028625272 69:0.042596776 70:-0.055546541 71:-0.043095715 72:0.018221172 73:-0.063177697 74:0.036723595 75:-0.0031708917 76:-0.0083474191 77:-0.024316151 78:-0.0074353218 79:0.10896084 80:-0.021602264 81:0.044449154 82:0.05668468 83:0.043822676 84:-0.011195938 85:-0.014186101 86:-0.048609097 87:0.029167894 88:0.018819638 89:0.04635638 90:-0.012169578 91:-0.014168604 92:0.082304701 93:-0.050848924 94:-0.019908376 95:-0.10493562 96:-0.03457262 97:0.039179012 98:0.057253476 99:-0.07533659 100:0.033433866 101:0.049445957 102:0.042136077 103:0.064273149 104:0.047327805 105:0.082594357 106:-0.03008228 107:0.031881846 108:-0.0082380604 109:-0.036458675 110:-0.070899472 111:0.089751057 112:-0.0064572906 113:-0.059607647 114:0.036457133 115:-0.038316194 116:-0.041613005 117:0.0032459369 118:-0.046589535 119:-0.091297552 120:-0.025258653 121:0.064921133 122:-0.052554209 123:0.05784139 124:0.020690272 125:0.011939175 126:-0.037128285 127:0.006407286 128:0.055364393 129:0.05901441 130:-0.085387811 131:0.095685109 132:0.073255241 133:0.010167964 134:0.09914016 135:-0.054916866 136:0.069123261 137:-0.020944018 138:-0.087352388 139:0.0090385126 140:-0.017687293 141:-0.022399038 142:-0.031742945 143:0.023120295 144:-0.030756123 145:0.0098042162 146:-0.046412796 147:-0.0064541758 148:0.0067569292 149:0.0065234099 150:-0.041176952 151:-0.02252046 152:0.0025397127 153:0.02099012 154:-0.059458788 155:-0.047356479 156:-0.023147354 157:-0.019345433 158:-0.00094776641 159:-0.043654945 160:0.078524671 161:-0.02594969 162:0.0021903627 163:-0.031616341 164:0.06126114 165:0.025753768 166:0.01827273 167:-0.033735406 168:0.022926347 169:0.012404363 170:0.03822336 171:-0.029424055 172:-0.058543626 173:-0.041366842 174:-0.075559415 175:-0.012466953 176:0.037365001 177:-0.044632483 178:-0.03222771 179:-0.074952699 180:0.083057329 181:0.021800827 182:-0.020186445 183:-0.033179756 184:0.025160545 185:0.04937594 186:-0.057959009 187:-0.043607514 188:-0.011832247 189:-0.0013111727 190:0.053011596 191:-0.031254422 192:-0.01630854 193:-0.043970473 194:0.031371579 195:-0.015191412 196:0.025447058 197:0.0048193722 198:-0.021907285 199:-0.0037209564 200:-0.029254125 201:0.047912072 202:0.014935527 203:-0.03527851 204:0.012226008 205:0.081450678 206:-0.0026077449 207:-0.046093032 208:0.071759395 209:0.052958533 210:0.072894894 211:0.022808259 212:-0.058259446 213:-0.0064570233 214:-0.010295743 215:-0.016623976 216:-0.049434323 217:-0.0067585809 218:-0.016920492 219:-0.011453136 220:-0.036128573 221:0.0088756578 222:-0.053241689 223:0.024251791 224:-0.031872239 225:-0.023487827 226:0.042892441 227:0.055890806 228:-0.034188364 229:-0.017531395 230:-0.071134105 231:-0.028086251 232:-0.062673278 233:0.012739824 234:0.061686914 235:-0.013077015 236:-0.024012314 237:-0.026816022 238:-0.046219762 239:-0.034317717 240:0.054616705 241:0.0021056184 242:-0.013779312 243:-0.0079325885 244:-0.017114609 245:0.016674299 246:-0.020460222 247:0.076843888 248:-0.068579994 249:0.0087708626 250:0.062927134 251:0.099532127 252:-0.052674226 253:-0.085924298 254:0.056418236 255:-0.031733621 256:0.046461895 257:0.059935153 258:0.003939583 259:-0.05910258 260:0.083648622 261:-0.062615037 262:-0.013441907 263:0.082223363 264:0.054367639 265:0.015643587 266:0.011617547 267:0.067242704 268:-0.012341664 269:0.021955213 270:-0.031945392 271:-0.041564595 272:-0.026803955 273:0.053262427 274:0.026718915 275:-0.020589836 276:0.070378594 277:0.045816388 278:-0.01752663 279:-0.067442931 280:-0.0075500137 281:-0.0026960098 282:0.041745566 283:-0.065273486 284:0.022641158 285:-0.02676829 286:0.03189598 287:-0.0037271306 288:0.0034281912 289:-0.040840611 290:0.033247136 291:0.024817655 292:-0.011614892 293:-0.074916147 294:0.025339998 295:0.031534202 296:0.042377368 297:-0.003874674 298:0.010260151 299:0.036261335 300:0.027754987 301:0.032801777 302:-0.027708169 303:-0.12877288 304:-0.0062365737 305:0.004417337 306:0.086993344 307:-0.045691032 308:0.07025589 309:0.031349313 310:-0.061838031 311:-0.032467242 312:0.020414008 313:-0.025906719 314:-0.021147074 315:-0.0410919 316:-0.050320458 317:0.022358602 318:0.010814211 319:0.004262805 320:-0.098202825 321:-0.029946085 322:0.024127172 323:-0.044222429 324:-0.04499181 325:-0.051836178 326:-0.010975919 327:-0.03286789 328:-0.0082016243 329:-0.032387689 330:-0.013853504 331:-0.019524537 332:-0.013175223 333:0.055062495 334:0.01357102 335:-0.098649152 336:-0.088467933 337:0.012321187 338:0.0087879021 339:-0.04469559 340:-0.013848983 341:0.035978585 342:-0.0051113935 343:0.013424789 344:-0.064149171 345:0.016567362 346:-0.0098446589 347:0.022387167 348:0.00057683012 349:0.048994232 350:0.030831598 351:-0.028266935 352:0.056649093 353:-0.067575715 354:-0.025190098 355:0.013609012 356:-0.071729846 357:0.0169587 358:-0.064715825 359:-0.032608766 360:-0.0089989463 361:0.043458033 362:-0.032794774 363:0.016061252 364:0.040287644 365:-0.065448597 366:0.078399688 367:0.016135916 368:0.027468311 369:-0.072657578 370:0.020236704 371:-0.028284647 372:0.042783387 373:0.034754537 374:-0.015225329 375:-0.028427806 376:0.014319289 377:-0.050825678 378:-0.038407851 379:0.00062801532 380:0.060867831 381:-0.048428465 382:-0.050823029 383:-0.014915147 384:-0.086492158 385:0.033361752 386:0.086455666 387:-0.026146833 388:0.03049159 389:-0.0057336143 390:0.0065041757 391:0.022132972 392:-0.014056829 393:0.03941321 394:0.066272184 395:0.0021245226 396:0.05146493 397:0.068136811 398:-0.004606171 399:-0.036279641 400:0.012022432 401:0.044697292 402:0.055984888 403:-0.050999783 404:-0.024503864 405:0.085342951 406:-0.01984318 407:-0.072501585 408:-0.0110992 409:0.028355526 410:-0.030493949 411:0.10054179 412:-0.067947447 413:0.0014101919 414:-0.017441377 415:-0.0095118908 416:-0.032434072 417:-0.044925589 418:-0.061459791 419:0.024169346 420:0.005955861 421:0.023991561 422:-0.029138705 423:-0.012954329 424:-0.0056837937 425:-0.025117278 426:-0.031309139 427:-0.074253634 428:0.039745409 429:-0.0021723758 430:-0.055029549 431:-0.035352174 432:0.010577807 433:0.015359277 434:-0.014204615 435:-0.040642265 436:0.029130967 437:0.083619267 438:0.065444946 439:0.026334547 440:-0.014605291 441:-0.014546191 442:0.020267893 443:-0.02191616 444:0.069383658 445:0.08655069 446:-0.0208975 447:-0.031682301 448:0.037211794 449:0.0085447365 450:0.013854805 451:0.03255209 452:-0.004693558 453:-0.041885108 454:-0.049521104 455:0.081976309 456:-0.043751482 457:0.042156477 458:0.052035291 459:-0.053715259 460:0.032698158 461:0.0033105472 462:0.023408698 463:-0.064854153 464:0.023684643 465:-0.03029892 466:-0.10743415 467:-0.0010024584 468:-0.047994979 469:0.016529473 470:-0.050226998 471:0.071109667 472:-0.018110083 473:-0.066519484 474:0.029819928 475:0.057642423 476:0.048937727 477:0.017575154 478:-0.018540964 479:-0.059171755 480:-0.0053690993 481:-0.019253988 482:-0.052418534 483:0.012643317 484:0.062763035 485:-0.016062777 486:-0.058825765 487:0.0030964715 488:0.029241761 489:-0.043172903 490:0.0077793049 491:-0.068253845 492:0.056300361 493:0.026641173 494:-0.020946866 495:0.07499589 496:0.0027381433 497:-0.072417751 498:0.0034023374 499:0.0062545869 500:-0.06287048 501:-0.034625791 502:0.0029007629 503:-0.0078965705 504:0.0012119251 505:0.053306922 506:0.083610341 507:0.010217362 508:-0.020376066 509:0.046861906 510:0.06021481 511:-0.087759554 
