svm_type c_svc
kernel_type linear
nr_class 2
total_sv 11
rho 0.3139397907166534
label 0 1
probA -2.65943477332155
probB 0.13910373643005955
nr_sv 6 5
SV
-0.019566627616259512 0:-0.099577516 1:0.062557794 2:-0.049087033 3:-0.03676891 4:-0.00065847358 5:-0.036957853 6:0.027921803 7:0.045151874 8:0.037025083 9:0.052890815 10:0.047963999 11:0.050776545 12:0.017453063 13:-0.047160603 14:0.00028240145 15:0.033082537 16:-0.0072969282 17:-0.074663281 18:-0.011267416 19:-0.052103888 20:0.0829513 21:0.0049884431 22:-0.042323336 23:0.099349149 24:0.030933991 25:-0.0060571125 26:0.038227815 27:0.0025372065 28:-0.025691139 29:-0.023938634 30:-0.0090166787 31:-0.026375787 32:0.080831692 33:0.017553724 34:0.0049307337 35:0.058135532 36:0.004188647 37:0.023985391 38:0.03198988 39:0.025394728 40:0.012731607 41:-0.045097604 42:0.033622369 43:0.012815688 44:-0.054558299 45:0.052320492 46:0.028034359 47:0.062924623 48:0.0035140782 49:0.035208311 50:-0.0040802178 51:0.049378 52:-0.010188076 53:-0.033613313 54:0.15904669 55:0.053078741 56:0.029977443 57:-0.026130563 58:-0.0029821475 59:-0.065846793 60:0.0010458286 61:0.060278516 62:-0.016839026 63:-0.059876144 64:0.046859611 65:-0.037944853 66:-0.017849972 67:-0.020186096 68:0.0277618 69:0.033342041 70:0.056037243 71:-0.043278303 72:-0.085830525 73:0.022266228 74:0.038430125 75:0.12172548 76:-0.01366564 77:0.026101664 78:-0.05273813 79:0.016391272 80:-0.0090447115 81:0.045119788 82:-0.0028874543 83:-0.025274336 84:-0.0428463 85:-0.02855427 86:0.021212455 87:-0.0045136716 88:0.038694918 89:-0.095120355 90:-0.1123367 91:0.036385536 92:-0.073701493 93:0.062382109 94:-0.012256355 95:0.033582594 96:-0.086106099 97:-0.044787057 98:0.039190184 99:0.0057395846 100:-0.052773144 101:-0.050769813 102:-0.021849634 103:-0.083486259 104:-0.061291594 105:0.046495143 106:-0.0051938486 107:-0.022857258 108:0.021690711 109:0.01828688 110:-0.040121779 111:-0.019004161 112:-0.012527199 113:-0.014983411 114:0.048069984 115:0.053464133 116:0.040220726 117:0.046235196 118:-0.062710345 119:-0.034823887 120:-0.039931212 121:-0.0526588 122:0.063533545 123:0.0083146431 124:-0.035170019 125:0.033175152 126:-0.027492544 127:-0.043288112 128:-0.0035909934 129:-0.038931329 130:0.042271417 131:0.0075365328 132:0.0093636764 133:-0.07618697 134:-0.0039665275 135:-0.011452097 136:0.020092383 137:0.045258246 138:-0.027180366 139:-0.11162087 140:0.0090574715 141:-0.038482372 142:0.05499237 143:-0.055557899 144:0.019303875 145:0.042574838 146:0.030834703 147:0.044258729 148:-0.045475364 149:-0.034509785 150:-0.050183829 151:-0.054634914 152:-0.011910221 153:0.018676858 154:-0.071533166 155:-0.016766114 156:-0.015352363 157:0.013010678 158:0.027154699 159:-0.023279006 160:0.025653105 161:0.033214044 162:0.0029621914 163:0.030501854 164:0.0011075113 165:-0.030611761 166:-0.0088800816 167:0.029473148 168:-0.0038587325 169:-0.01504469 170:0.019141799 171:-0.03041937 172:0.0059158467 173:-0.015220154 174:-0.037443969 175:0.024427805 176:0.020259911 177:-0.0015428737 178:-0.028034516 179:-0.024496268 180:0.012645663 181:-0.087427415 182:0.074950688 183:0.037620258 184:0.0012104291 185:-0.030497488 186:0.012663801 187:0.033214092 188:-0.034221735 189:-0.01304 190:-0.037031036 191:0.043952864 192:0.030343261 193:0.0042795828 194:-0.043143075 195:-0.043007128 196:0.12027267 197:-0.04599794 198:-0.065759763 199:0.019780936 200:-0.044060014 201:-0.014560284 202:0.10117389 203:-0.054476574 204:-0.0053585251 205:-0.023724342 206:0.013786277 207:-0.05295315 208:-0.055779833 209:-0.018091144 210:0.080019444 211:0.076520219 212:-0.069642656 213:-0.030174982 214:-0.028005498 215:-0.026163483 216:0.0072317547 217:-0.058691505 218:-0.023117602 219:-0.085584283 220:-0.02549994 221:-0.019730987 222:0.035650335 223:0.030889735 224:-0.0094353631 225:-0.073994771 226:-0.036169395 227:-0.007375624 228:0.014133363 229:-0.061129656 230:-0.10612241 231:-0.025192099 232:0.02898659 233:0.004401512 234:-0.0014872748 235:0.052894555 236:0.030767856 237:0.055880815 238:-0.059884138 239:0.015958745 240:0.0062583108 241:0.039175525 242:0.005230472 243:-0.01826784 244:-0.00095049327 245:0.058111336 246:-0.019665519 247:-0.033229843 248:0.017843265 249:-0.049292896 250:-0.04009543 251:0.035588253 252:0.0063587842 253:0.072024733 254:0.00014350936 255:-0.0056217471 256:-0.014271761 257:0.030383674 258:0.028289262 259:0.023088505 260:0.05136155 261:-0.072918259 262:-0.012317728 263:-0.038464777 264:-0.11456004 265:-0.01396774 266:0.029545814 267:0.053286482 268:-0.0014532013 269:0.019089939 270:0.040498372 271:-0.010973221 272:-0.12081534 273:-0.016105076 274:0.036430106 275:0.015995488 276:-0.019457828 277:0.031120714 278:-0.0047036773 279:0.047584761 280:0.018608367 281:-0.11416692 282:-0.022543622 283:-0.074753262 284:0.065818883 285:0.076936848 286:0.047811553 287:-0.026384668 288:-0.064574517 289:-0.012104768 290:0.086704291 291:0.036608554 292:0.01520669 293:0.027831484 294:-0.084432811 295:0.014790025 296:0.03931481 297:-0.026055273 298:0.091543891 299:0.029468855 300:-0.0036597676 301:0.0056427731 302:-0.012868668 303:-0.019923033 304:0.029961556 305:-0.056324918 306:0.024532963 307:0.023616167 308:-0.017114149 309:-0.05986733 310:0.039874397 311:-0.050866876 312:0.043016952 313:0.02083395 314:-0.046655808 315:0.081832685 316:0.064589582 317:-0.005630218 318:0.0030344075 319:-0.037862297 320:-0.046804275 321:-0.0062480527 322:-0.026983362 323:-0.019811256 324:-0.014516197 325:0.045635287 326:0.056229655 327:0.0021296879 328:0.049092565 329:0.081337787 330:0.034142677 331:0.028909553 332:-0.033764958 333:0.033555038 334:-0.036691375 335:0.0038947416 336:-0.033688404 337:-0.016626652 338:-0.0070911008 339:0.074882068 340:0.026419394 341:-0.041807547 342:-0.055371683 343:0.041675732 344:0.056880005 345:-0.075663865 346:-0.014730117 347:0.09191227 348:-0.0063347393 349:0.0093781538 350:0.021731082 351:0.051706508 352:-0.041272491 353:0.022258645 354:0.0041938443 355:0.075956002 356:-0.0099805901 357:-0.041880701 358:0.022068005 359:0.0081848577 360:-0.0051131919 361:0.013173124 362:-0.0001385861 363:-0.037913177 364:-0.021104956 365:0.11356813 366:-0.010535736 367:0.073822975 368:0.036262598 369:0.00061230763 370:0.029277727 371:-0.0076321494 372:0.036770891 373:-0.085720472 374:0.0052880906 375:-0.0073445635 376:-0.0040739938 377:-0.081970423 378:-0.014134636 379:-0.050044153 380:0.039428197 381:0.047662254 382:0.064198956 383:0.0029439053 384:-0.00019718429 385:-0.0266774 386:0.048030924 387:-0.05234959 388:-0.032021541 389:-0.012994655 390:-0.03677579 391:-0.070764445 392:-0.0062190634 393:-0.056686848 394:-0.021584451 395:-0.061116513 396:-0.014499937 397:-0.021877462 398:0.056999844 399:0.053576957 400:0.01675589 401:0.027652191 402:0.089863546 403:-0.020855498 404:-0.041999817 405:0.083590835 406:0.086455815 407:0.043216076 408:0.037434649 409:0.010740883 410:-0.0468527 411:-0.039088339 412:0.023890078 413:-0.0027574219 414:-0.071723267 415:0.060435273 416:0.055716079 417:0.0014285262 418:-0.015083255 419:0.038066447 420:0.03627079 421:0.014074507 422:0.0016087171 423:0.022071436 424:-0.031229753 425:-0.044009473 426:-0.009098554 427:0.052442569 428:0.079204455 429:-0.008564651 430:0.0031295661 431:0.0046224459 432:-0.013175892 433:0.002645059 434:-0.032778066 435:-0.040561195 436:-0.058406692 437:-0.01743626 438:0.00057526282 439:0.035764731 440:-0.010095078 441:-0.030386884 442:-0.013516609 443:0.0034669724 444:0.049819328 445:-0.011433057 446:0.0043023555 447:0.039254326 448:-0.10259517 449:0.0659777 450:0.017646534 451:0.010640481 452:0.0051182308 453:-0.027413905 454:-0.093890555 455:-0.051884253 456:0.033562202 457:0.0068564601 458:-0.021198498 459:0.014590768 460:-0.036851723 461:0.012321091 462:0.012941481 463:0.033816788 464:0.02624215 465:-0.01175213 466:-0.052240171 467:0.065034077 468:-0.059116915 469:-0.051708829 470:-0.021879815 471:0.038411345 472:0.023389 473:0.023146288 474:-0.055062633 475:0.021219337 476:-0.038395032 477:0.11340433 478:0.021468328 479:-0.067217872 480:0.030848037 481:-0.087819993 482:-0.07537806 483:-0.022269009 484:0.0031095045 485:-0.015465276 486:0.037880369 487:0.020042213 488:-0.04272588 489:0.011360305 490:0.055387616 491:-0.022414543 492:0.088745885 493:0.028823778 494:-0.032668591 495:-0.015482128 496:0.064230442 497:-0.024394736 498:-0.062369127 499:-0.077854574 500:0.00080584025 501:0.031417333 502:0.040980503 503:0.0043442855 504:-0.041221946 505:-0.032889448 506:-0.031589229 507:0.052994654 508:0.039454121 509:0.039106272 510:0.0012161289 511:0.010522334 
-0.040708035441639631 0:-0.066729963 1:0.043485887 2:-0.046876695 3:-0.055558123 4:-0.0095630512 5:-0.023737967 6:-0.016365914 7:0.071662657 8:0.011824605 9:0.044316426 10:-0.014890679 11:0.012981563 12:-0.012715872 13:-0.054905016 14:-0.003751439 15:0.0079452042 16:-0.022030301 17:-0.059107397 18:-0.0054975799 19:-0.052383281 20:0.074171893 21:0.015482808 22:-0.030623494 23:0.087684028 24:0.025614209 25:0.042110719 26:0.034274913 27:0.032248225 28:0.0073961443 29:-0.05122827 30:-0.011710177 31:-0.0059379642 32:0.070378304 33:0.024671486 34:0.046727389 35:0.046000801 36:-0.03438374 37:-0.025990244 38:0.014176046 39:0.04475309 40:0.027269555 41:-0.023858275 42:0.039537858 43:0.013772859 44:-0.029889733 45:0.061142206 46:0.021074869 47:0.080181479 48:0.020720681 49:0.016095398 50:-0.042744882 51:0.080256358 52:0.030199194 53:-0.052906044 54:0.15757054 55:0.097763427 56:0.061841872 57:-0.02137783 58:0.046759855 59:-0.089475006 60:-0.031689499 61:0.054085538 62:-0.012147327 63:-0.067817375 64:0.053791482 65:-0.050267231 66:-0.042674985 67:0.0042845854 68:-0.025966309 69:0.0098778857 70:0.03539367 71:-0.024026031 72:-0.089288533 73:0.011160268 74:0.056506895 75:0.07871867 76:-0.037446786 77:0.00070152222 78:-0.097516373 79:-0.032315556 80:-0.031755097 81:0.026319465 82:-0.012784874 83:0.027888717 84:-0.080755636 85:-0.03961461 86:0.025540121 87:-0.01343984 88:0.02192099 89:-0.070559353 90:-0.060698107 91:0.011212738 92:-0.014888261 93:-0.0085532563 94:-0.0030113366 95:0.05836669 96:-0.07873141 97:-0.014448243 98:0.034195494 99:-0.002285966 100:-0.0045186211 101:-0.042006467 102:-0.010491447 103:-0.038539473 104:-0.10678478 105:-0.0083791167 106:0.022856575 107:0.0011332452 108:0.0093926089 109:0.03937101 110:-0.027881894 111:-0.021950252 112:-0.014765074 113:-0.0058804029 114:-0.00082934741 115:0.0053372178 116:-0.005484764 117:0.058979284 118:-0.056639217 119:-0.035356928 120:-0.041747916 121:-0.074775927 122:0.055007741 123:0.02245771 124:-0.030929921 125:0.062556379 126:0.023794714 127:-0.012121283 128:-0.01020802 129:-0.066998191 130:-0.0004731073 131:-0.030406609 132:-0.01244797 133:-0.061906081 134:0.0013609361 135:0.02448827 136:0.033522606 137:0.076515242 138:-0.038378574 139:-0.063071951 140:-0.0030801282 141:-0.074627101 142:0.031928238 143:-0.090036973 144:0.085803352 145:0.018057138 146:0.02614212 147:0.024554394 148:-0.0061929207 149:-0.024839522 150:0.017833406 151:0.017162411 152:0.013473497 153:0.011497539 154:-0.097575843 155:-0.0065445993 156:-0.011208387 157:-0.028161962 158:0.050384834 159:-0.028272701 160:-0.013947746 161:4.3188636e-05 162:-0.037332319 163:0.055691648 164:-0.024218826 165:-0.03070325 166:0.025768928 167:0.022492465 168:-0.052818876 169:-0.025234252 170:0.057583775 171:-0.0092524672 172:0.0062751202 173:-0.04720502 174:-0.0092653781 175:0.030264802 176:-0.013578664 177:0.022729618 178:-0.05329825 179:-0.013132224 180:-0.012683818 181:-0.035342582 182:0.040509697 183:0.048958834 184:0.021873787 185:-0.0091423579 186:-0.020236775 187:0.014992086 188:-0.01625572 189:-0.034486607 190:0.048876129 191:0.044749118 192:0.0036331424 193:-0.033468839 194:-0.057007652 195:-0.058592997 196:0.044417005 197:-0.059699263 198:-0.11533199 199:0.012539567 200:-0.081085645 201:0.055947203 202:0.029274931 203:-0.056068614 204:0.00036159696 205:-0.050773993 206:-0.014648207 207:-0.083090186 208:-0.062994607 209:0.017518604 210:0.1116406 211:0.060932685 212:-0.047137696 213:-0.012372633 214:-0.036562622 215:0.028003786 216:-0.014875943 217:-0.071899794 218:0.012040907 219:-0.092804551 220:0.0072680148 221:-0.016777858 222:-0.023657864 223:0.043957252 224:-0.031691752 225:-0.023068594 226:-0.037145112 227:-0.024168553 228:0.035413053 229:-0.008210022 230:-0.074392319 231:-0.055717189 232:0.041005787 233:0.014798842 234:0.024346661 235:0.0050802976 236:0.046802502 237:0.061394803 238:-0.013457613 239:-0.0075880447 240:-0.029481148 241:0.022106262 242:0.015659241 243:-0.083297476 244:-0.01460589 245:0.013248144 246:-0.012807651 247:-0.024162631 248:0.052580249 249:-0.015349972 250:-0.023069078 251:-0.0090642525 252:-0.027218569 253:0.060080443 254:0.054186318 255:0.042142924 256:0.034415159 257:0.060053855 258:0.057817794 259:0.039974462 260:0.023621166 261:-0.044039503 262:0.023594234 263:-0.038087059 264:-0.071674339 265:-0.1021908 266:0.01310546 267:0.054295205 268:0.0062936442 269:0.020941844 270:0.041838992 271:0.020842005 272:-0.10911152 273:-0.018666128 274:0.047281839 275:-0.035585392 276:-0.030850474 277:0.053098973 278:0.021459397 279:0.084486432 280:0.036594711 281:-0.13435394 282:0.014743701 283:-0.085579462 284:0.035016861 285:0.070982538 286:0.025935257 287:-0.018849749 288:-0.042935371 289:0.015314351 290:0.10225581 291:0.082047097 292:0.016525161 293:0.018397469 294:-0.070968784 295:-0.021998398 296:0.0488334 297:-0.048883613 298:0.062226471 299:0.019891586 300:-0.053558379 301:-0.029913012 302:-0.0093066012 303:-0.013633169 304:0.056324016 305:-0.045922611 306:0.083695374 307:0.02026342 308:-0.015432825 309:-0.032516301 310:-0.023565525 311:-0.079337686 312:-0.056440637 313:0.014897657 314:-0.074928582 315:0.0996361 316:0.051978983 317:-0.044920888 318:0.060381748 319:-0.044476788 320:-0.016795868 321:-0.018948872 322:-0.017465357 323:-0.05702778 324:-0.017457498 325:0.010325372 326:0.054483313 327:-0.032904997 328:-0.0075888676 329:0.061096627 330:-0.0088868411 331:0.015233335 332:0.018037444 333:0.0054807179 334:-0.018110787 335:0.022981334 336:-0.038906101 337:0.027269892 338:-0.048099607 339:-0.010870525 340:-0.030534344 341:0.0061022355 342:0.0048473538 343:0.052472726 344:0.010815312 345:-0.0064465282 346:0.046161406 347:0.10931975 348:0.028448051 349:0.081542529 350:-0.0081783701 351:0.018067628 352:-0.038916558 353:0.056148633 354:0.0063464809 355:-0.028726676 356:-0.014402421 357:-0.024132781 358:0.047808111 359:-0.011531604 360:0.0029474811 361:0.00060964358 362:0.029315637 363:-0.044586603 364:-0.026408894 365:0.099640593 366:-0.0061037731 367:0.060587462 368:0.035955947 369:-0.014413902 370:0.058019027 371:0.0094026076 372:-0.025876585 373:-0.11859278 374:-0.041519463 375:0.0011444058 376:-0.018334536 377:-0.040099114 378:0.010613113 379:-0.0293696 380:-0.0092792325 381:0.030464513 382:0.053861469 383:0.024490736 384:0.0060470961 385:-0.019615669 386:0.054433022 387:-0.088809505 388:-0.02369502 389:-0.014497822 390:-0.037670664 391:-0.021276252 392:0.034468088 393:-0.048553456 394:0.016887171 395:-0.058454532 396:-0.0089306729 397:-0.011946562 398:0.042621542 399:0.054718755 400:0.079219222 401:-0.0069836192 402:0.018148642 403:0.0050554713 404:-0.035504274 405:0.097352475 406:0.024321541 407:0.03939141 408:0.0092958547 409:0.026216855 410:-0.061499003 411:0.019215729 412:0.015839916 413:0.023266317 414:-0.014422092 415:-0.014119957 416:0.097992413 417:-0.00098744978 418:-0.040956464 419:0.059578925 420:0.02394793 421:0.023423193 422:0.015904583 423:0.013500105 424:-0.0060097701 425:-0.082150452 426:0.067106634 427:0.030855449 428:0.040290181 429:-0.047391903 430:0.014951541 431:0.018095942 432:-0.013660133 433:-0.017288757 434:-0.010157402 435:-0.020901753 436:-0.0085280826 437:-0.0055408115 438:0.02881659 439:-0.0033678124 440:0.022588665 441:-0.0046403869 442:-0.039783884 443:-0.020496944 444:0.05208037 445:-0.010606996 446:0.010710026 447:0.031385709 448:-0.12659812 449:0.041324079 450:0.045103867 451:0.066212982 452:0.039315626 453:0.022917086 454:-0.040821224 455:-0.052949827 456:0.019609924 457:-0.020935498 458:0.023061162 459:-0.010638264 460:-0.064948834 461:0.056601092 462:-0.039851476 463:0.015322533 464:0.054714937 465:0.020875629 466:-0.040793676 467:0.059170313 468:-0.001776145 469:-0.0013573058 470:-0.020653266 471:0.082131669 472:0.048352096 473:0.03039754 474:0.026153093 475:0.045428384 476:-0.048814531 477:0.10359814 478:0.024672806 479:-0.050953556 480:-0.0013057358 481:-0.061258256 482:-0.018726714 483:0.0024291656 484:0.0064391606 485:-0.055101976 486:0.023475053 487:0.029575953 488:-0.038803447 489:-0.037803002 490:0.036067501 491:-0.021688618 492:0.089592464 493:0.0029256924 494:-0.052103844 495:-0.00066961406 496:0.03044703 497:-0.037727647 498:-0.045262206 499:-0.056074575 500:-0.033873186 501:0.02794203 502:0.017232262 503:0.0055968352 504:-0.065745987 505:-0.033709489 506:-0.070934303 507:0.020830881 508:-0.010968778 509:0.01277189 510:-0.0032689278 511:-0.0084925704 
-0.028817820801086913 0:-0.08397457 1:0.06266921 2:-0.030912641 3:-0.07700339 4:-0.027218319 5:-0.013694866 6:-0.021703333 7:0.0080431569 8:0.024524717 9:0.06415651 10:0.031493932 11:0.032668266 12:0.00079885765 13:-0.041159797 14:0.024356855 15:-0.00094289641 16:0.0082248738 17:-0.056273434 18:0.018615585 19:-0.068731211 20:0.081728913 21:0.027703591 22:-0.013911107 23:0.088083595 24:0.044775069 25:-0.0095983893 26:-0.0075411475 27:0.0076084142 28:-0.045109715 29:0.015402471 30:-0.0084686577 31:-0.029876914 32:0.088511534 33:0.037120204 34:0.040457789 35:0.054876782 36:-0.019087659 37:0.014105349 38:0.03758895 39:0.045500878 40:-0.010314426 41:-0.051834125 42:0.017547632 43:0.045690924 44:-0.048432454 45:0.049704049 46:0.022263452 47:0.021492332 48:0.026001906 49:0.036827516 50:0.015197589 51:0.051050786 52:-0.014452577 53:-0.024208836 54:0.16623668 55:0.04216484 56:0.056000281 57:-0.024419978 58:-0.02906828 59:-0.055723712 60:0.014615393 61:0.05969312 62:-0.023361603 63:-0.089838803 64:0.07477165 65:-0.048837882 66:-0.0095488327 67:-0.00049757108 68:1.2312486e-05 69:0.064395167 70:0.072890289 71:0.015967723 72:-0.11356463 73:-0.021742737 74:0.054985896 75:0.096417829 76:-0.026723227 77:0.045583859 78:-0.027716981 79:0.035590272 80:-0.048867878 81:-0.016639521 82:0.0093004461 83:-0.0467765 84:-0.060804613 85:-0.046371054 86:-0.030138044 87:0.018160148 88:0.035192896 89:-0.052328553 90:-0.052049316 91:-0.0037095766 92:-0.066203631 93:0.039525855 94:-0.0099853491 95:0.0096163675 96:-0.033723723 97:-0.00062589248 98:0.054197054 99:0.016091099 100:-0.01892706 101:-0.057269946 102:0.0059539918 103:-0.071576893 104:-0.051882178 105:0.07371033 106:-0.0032100643 107:-0.00037923901 108:0.0097408025 109:0.057023201 110:-0.070189983 111:-0.043828148 112:0.033030849 113:-0.02420521 114:0.00069251988 115:0.041109782 116:0.032707952 117:0.041470204 118:-0.034867283 119:-0.0082047451 120:-0.042689748 121:-0.057268623 122:0.025293708 123:0.058869734 124:-0.0075117634 125:0.089858525 126:-0.04534309 127:-0.019002251 128:0.0012024218 129:-0.048097271 130:0.040598039 131:0.010937426 132:0.010342409 133:-0.065299727 134:0.020856123 135:-0.010764564 136:0.017198695 137:0.067220025 138:-0.045002829 139:-0.1186182 140:-0.031631999 141:-0.04770815 142:0.04636116 143:-0.09509261 144:0.019191595 145:0.037410371 146:0.041524746 147:0.0044654468 148:-0.052873872 149:-0.018374251 150:-0.067551263 151:-0.054569136 152:-0.0034571246 153:0.0308387 154:-0.079754554 155:-0.028028978 156:-0.0024454193 157:0.010497864 158:0.061395954 159:-0.034736861 160:-0.010542322 161:-0.0089855958 162:-0.046082169 163:0.055354729 164:0.0040637688 165:-0.03789486 166:0.044349447 167:0.0021736466 168:-0.00066270021 169:-0.023885187 170:0.022655794 171:-0.017825944 172:0.0083859945 173:-0.0021866017 174:-0.066200614 175:-0.0060657687 176:0.032361452 177:0.017288132 178:-0.054123595 179:-0.057452872 180:0.020525267 181:-0.080832727 182:0.065495975 183:0.080974467 184:0.018986048 185:-0.0141137 186:0.045073092 187:0.049641158 188:-0.044176195 189:-0.0063412827 190:-0.015516217 191:0.013671689 192:0.034981254 193:0.048862927 194:-0.10744419 195:-0.056844361 196:0.09958408 197:-0.035621073 198:-0.074875422 199:0.031045951 200:-0.037807398 201:0.023393106 202:0.072611764 203:-0.039237708 204:-0.024279445 205:-0.053512413 206:0.0082887542 207:-0.080245636 208:-0.058127459 209:-0.0049689165 210:0.049251862 211:0.053643338 212:-0.060533796 213:-0.031900156 214:-0.018731529 215:-0.030960239 216:0.044667069 217:-0.08553268 218:0.030671978 219:-0.050592311 220:-0.019845601 221:-0.026438653 222:0.023454664 223:0.026389007 224:-0.018008336 225:-0.086362183 226:-0.042310622 227:-0.047799971 228:0.022795735 229:-0.030869741 230:-0.059182677 231:-0.010527626 232:0.035351746 233:0.043917108 234:0.063826673 235:0.022053815 236:0.027109448 237:0.044097994 238:-0.048117723 239:0.015768208 240:-0.019445408 241:0.028340541 242:0.018057352 243:-0.031046502 244:-0.0075335428 245:0.051198974 246:0.0020631298 247:-0.0018218998 248:0.062427342 249:-0.046567902 250:-0.0032404931 251:0.0059933914 252:-0.0057272543 253:0.022800531 254:-0.011093829 255:0.00028449242 256:0.047482651 257:0.021862119 258:0.042617995 259:0.011816137 260:0.039639775 261:-0.066051058 262:0.0040924591 263:-0.0140987 264:-0.072807364 265:-0.017184161 266:-0.0071928846 267:0.072692655 268:-0.024519874 269:0.040164135 270:0.0617676 271:0.0083953058 272:-0.12684339 273:-0.0039380654 274:0.0069707311 275:-0.0015190179 276:0.0041126492 277:0.030679934 278:-0.030840877 279:-0.0033584519 280:0.06296736 281:-0.13698308 282:0.00402861 283:-0.048807308 284:0.069468156 285:0.040021721 286:0.010507326 287:-0.05916027 288:-0.081927836 289:-0.0079649566 290:0.074177749 291:0.038629595 292:0.016041623 293:-0.0068237269 294:-0.10173477 295:-0.0079392334 296:0.034430247 297:-0.015875913 298:0.080110326 299:0.032250289 300:-0.0083381636 301:-0.0013693061 302:-0.033888023 303:-0.011776557 304:0.052608937 305:-0.064287804 306:0.06348259 307:0.056664389 308:-0.011869939 309:-0.018710246 310:0.011351282 311:-0.044368614 312:0.034301057 313:0.022410791 314:-0.019857012 315:0.052473426 316:0.012130565 317:-0.03399431 318:-0.026270045 319:-0.039066982 320:-0.033750378 321:-0.024687992 322:-0.03132074 323:-0.038557269 324:-0.043838907 325:0.053231858 326:0.040644463 327:-0.025037248 328:0.070105009 329:0.10915031 330:0.021430351 331:0.033673078 332:-0.045094088 333:0.017796479 334:-0.047159471 335:0.025174996 336:-0.082046136 337:0.013701152 338:-0.024121789 339:0.072700791 340:-0.011824833 341:-0.0098742088 342:-0.058733348 343:0.070212878 344:0.049462754 345:-0.01423116 346:-0.0091378726 347:0.055050656 348:0.0033910112 349:-0.0028079308 350:-0.00025637352 351:0.031841166 352:-0.047851987 353:0.030801728 354:0.030706497 355:0.042361792 356:-0.0024988318 357:-0.031601019 358:0.012451246 359:-0.029763523 360:-0.033946283 361:-0.0024576338 362:-0.044172902 363:-0.043714166 364:-0.030673696 365:0.073419072 366:0.00052697351 367:0.066487759 368:0.0062971725 369:0.030463815 370:-0.006654162 371:0.0067477245 372:0.0061529484 373:-0.08638411 374:0.0055786641 375:-0.047499031 376:0.0065254262 377:-0.078525759 378:-0.022232646 379:-0.037356421 380:0.0756853 381:0.013860063 382:0.050058 383:-0.015756357 384:-0.020550689 385:-0.008323106 386:0.027661411 387:-0.065134004 388:-0.029832017 389:0.032051213 390:-0.061854649 391:-0.048846323 392:0.021516971 393:-0.0077637201 394:-0.0044413852 395:-0.08066307 396:-0.030048778 397:-0.025682865 398:0.06249069 399:0.07689289 400:0.044555437 401:0.04043651 402:0.10832484 403:-0.032183349 404:-0.022375138 405:0.035660662 406:0.08768747 407:0.034903817 408:-0.013439511 409:0.00087195938 410:-0.079041757 411:-0.022867801 412:0.011337204 413:0.049295198 414:-0.037674654 415:0.010750657 416:0.080178358 417:-0.010660739 418:0.022230478 419:0.014530692 420:0.023926197 421:0.022780841 422:0.0071298373 423:0.047445886 424:0.03002076 425:-0.027306356 426:0.0077095563 427:0.053125486 428:0.022347929 429:-0.0078836493 430:0.017783636 431:-0.0024228883 432:-0.032348834 433:-0.029246278 434:-0.0020624653 435:-0.017189598 436:0.0057548098 437:-0.0035153967 438:-0.038849749 439:0.019311124 440:0.014246186 441:-0.055778846 442:0.012030954 443:-0.015004816 444:0.061715145 445:-0.037955809 446:0.0027082912 447:0.017806154 448:-0.10953131 449:0.063777179 450:0.035877358 451:0.074340254 452:0.00010981483 453:0.005166715 454:-0.085428916 455:-0.075678751 456:0.0087976363 457:0.045452505 458:-0.0020124465 459:0.0090626469 460:-0.081281491 461:-0.0055517233 462:-0.026757829 463:0.045397375 464:0.056640938 465:-0.011951529 466:-0.070509449 467:0.06029091 468:-0.022970382 469:-0.054098409 470:-0.0096442644 471:0.035764702 472:0.03532685 473:0.035640869 474:-0.052202139 475:-0.026275026 476:-0.045502197 477:0.027160926 478:0.035731178 479:-0.035574913 480:0.012416213 481:-0.056344736 482:-0.026474774 483:-0.017899161 484:0.004269517 485:-0.0024267551 486:0.053769462 487:0.011176037 488:-0.040715083 489:-0.011505144 490:0.047160596 491:0.0057888157 492:0.079654969 493:0.033570759 494:-0.045254216 495:0.03766676 496:0.066056646 497:0.010279836 498:-0.061077747 499:-0.044586558 500:-0.0015179273 501:0.030502012 502:0.08866252 503:0.022129269 504:-0.016977949 505:-0.017135311 506:-0.060268216 507:0.042860862 508:0.0089157391 509:0.032154281 510:-0.022464572 511:-0.021990161 
-0.33926668087544648 0:-0.08340475 1:0.070403427 2:-0.065719701 3:-0.070251696 4:-0.044196796 5:-0.033236921 6:0.041737199 7:0.078368992 8:0.0021350272 9:0.068810411 10:0.050138582 11:0.032788727 12:0.00010464296 13:-0.061124541 14:-0.032232508 15:-0.00029619262 16:-0.0070662261 17:-0.088343173 18:-0.016301887 19:-0.049622077 20:0.058944296 21:0.016984403 22:-0.047953058 23:0.018034719 24:0.038621508 25:-0.066841282 26:0.030678768 27:-0.011532701 28:-0.0038449964 29:-0.012902104 30:0.0084884837 31:-0.031289466 32:0.086837515 33:0.084025711 34:0.026154898 35:0.07147301 36:-0.030173937 37:-0.0047784937 38:0.056469891 39:0.043882705 40:0.030784424 41:-0.029934904 42:0.065533504 43:0.040553402 44:-0.064719759 45:0.08936315 46:-0.0049232007 47:0.049410895 48:0.037844975 49:0.008034314 50:0.0081366105 51:0.049142092 52:0.0282232 53:-0.034387827 54:0.13051759 55:0.043816205 56:0.036054198 57:-0.0038698802 58:-0.044897199 59:-0.060528282 60:-0.022122504 61:0.08312539 62:-0.010854613 63:-0.063688107 64:0.065277107 65:-0.075068913 66:-0.013442729 67:0.0066051986 68:0.015815591 69:0.011327429 70:0.054668609 71:-0.0066382312 72:-0.10857009 73:-0.02418394 74:0.064308628 75:0.079811029 76:-0.035041537 77:0.029609421 78:-0.077379934 79:0.0039121741 80:-0.069711462 81:0.0015639943 82:-0.013962233 83:-0.031184964 84:-0.038631033 85:-0.02393521 86:0.024106806 87:-0.046765555 88:0.04934518 89:-0.035351157 90:-0.067471407 91:-0.012432364 92:-0.11706354 93:-0.030654501 94:-0.00047756816 95:0.022698425 96:-0.035050701 97:-0.0076954747 98:-0.01253154 99:0.019497048 100:0.0081978235 101:-0.024286401 102:0.023205195 103:-0.047913771 104:-0.084423594 105:0.041140277 106:0.040265534 107:0.034111191 108:0.029069202 109:0.042892724 110:-0.024427485 111:-0.025168192 112:0.049989585 113:-0.055647191 114:-0.0016194117 115:0.034835327 116:-0.0050615505 117:0.068816155 118:0.0054432298 119:-0.01846257 120:-0.053709108 121:-0.059414066 122:0.047473539 123:0.016426418 124:-0.06116765 125:0.059830002 126:-0.0018649249 127:-0.018296802 128:-0.01681656 129:-0.053750969 130:0.0071439999 131:0.012151661 132:-0.029473787 133:-0.056158572 134:0.041151047 135:0.00011531634 136:0.027115166 137:0.08280839 138:-0.048623662 139:-0.052141778 140:-0.008319417 141:-0.04769415 142:0.037678704 143:-0.079012401 144:0.0094101364 145:0.054949611 146:0.03303647 147:0.052689355 148:-0.0390172 149:-0.024872648 150:0.022737782 151:-0.048153799 152:-0.035718389 153:0.010132957 154:-0.062056761 155:0.038581688 156:-0.0026873143 157:0.013494981 158:0.030935863 159:0.0036987825 160:0.025115544 161:0.027106848 162:-0.046997443 163:0.020040456 164:0.0027169879 165:-0.010784441 166:0.03107989 167:0.017932659 168:-0.046517365 169:0.0025534455 170:0.022841541 171:-0.0040488411 172:0.021619894 173:-0.028481685 174:-0.0061670453 175:0.029956436 176:0.023962935 177:-0.044449739 178:-0.03778027 179:-0.077042945 180:0.0048663714 181:-0.055442505 182:0.078644916 183:0.059759513 184:0.0097594773 185:0.023078311 186:0.062205382 187:0.0076086246 188:-0.054118555 189:-0.026525993 190:0.005537367 191:0.0097203674 192:0.011792539 193:-0.016906198 194:-0.022263194 195:-0.095199004 196:0.054910421 197:-0.033547368 198:-0.073032022 199:0.027321186 200:-0.10065132 201:0.011779754 202:0.064482614 203:-0.072332077 204:0.014831585 205:-0.037362363 206:-0.018303912 207:-0.093524657 208:-0.055595022 209:0.0047276984 210:0.054033805 211:0.058544528 212:-0.050980978 213:-0.07900463 214:-0.044217568 215:-0.011274218 216:0.024179962 217:-0.06875971 218:0.071289182 219:-0.061475325 220:0.02246079 221:-0.031650994 222:0.0050800527 223:0.020482769 224:0.0017517733 225:-0.058324639 226:-0.0099583566 227:-0.039189838 228:0.0066325814 229:-0.018046927 230:-0.071439207 231:-0.0017334382 232:0.024506556 233:0.031349111 234:0.02870192 235:0.0082213618 236:0.050628155 237:0.0048559569 238:-0.059043605 239:0.033379607 240:0.0070005413 241:-0.0010718914 242:-0.0055958265 243:-0.070296876 244:0.029616956 245:0.02166645 246:-0.042000383 247:-0.032374445 248:0.045288254 249:-0.086999521 250:-0.01918905 251:0.027244866 252:-0.014945135 253:0.056037463 254:-0.0043529011 255:0.010710917 256:0.064776108 257:0.0097007733 258:0.069482401 259:0.061229557 260:0.030270973 261:-0.052281927 262:-0.003765974 263:-0.042987693 264:-0.09026821 265:-0.028727662 266:0.0037690874 267:0.056520775 268:0.0037959041 269:0.0043637627 270:0.049252409 271:0.029337438 272:-0.13046893 273:-0.0030056932 274:0.027220359 275:0.0069748065 276:-0.02737472 277:0.020074112 278:-0.040674284 279:0.016767252 280:0.040273778 281:-0.087335445 282:0.049300846 283:-0.072832309 284:0.0064053573 285:0.020331351 286:0.04622893 287:-0.026782967 288:-0.079052359 289:0.005465996 290:0.071922563 291:0.02667913 292:-0.028109757 293:-0.0040784045 294:-0.086831152 295:-0.011375361 296:0.037695527 297:-0.00030753558 298:0.041347731 299:0.033953611 300:-0.0062756622 301:-0.011252386 302:-0.053373847 303:-0.040043309 304:0.049532183 305:-0.077699937 306:0.062222149 307:0.026306428 308:-0.0026750851 309:-0.025500353 310:0.012763299 311:-0.097679764 312:-0.027114354 313:0.0036932321 314:-0.0133526 315:0.0014219993 316:0.046338171 317:-0.054925203 318:0.027109612 319:-0.055788875 320:-0.038449347 321:-0.0072124335 322:-0.026050216 323:-0.054839991 324:0.0090767853 325:0.036710426 326:0.071720578 327:-0.023718439 328:0.068271495 329:0.067642897 330:0.012022432 331:0.031002896 332:-0.039715726 333:0.049983244 334:-0.0046630655 335:0.045525976 336:-0.032645687 337:-0.005601319 338:-0.025191573 339:0.066729106 340:0.013542201 341:-0.027424591 342:-0.0063443524 343:0.041724052 344:0.02145664 345:-0.032078125 346:0.0091487924 347:0.035006337 348:0.0070157372 349:0.023854582 350:0.00030038255 351:0.049261812 352:-0.0064872997 353:0.056729957 354:0.030140065 355:-0.024501808 356:-0.0067715133 357:0.024396513 358:-0.0085232453 359:-0.033982247 360:-0.0045068399 361:-0.046735503 362:-0.046473909 363:-0.046849243 364:-0.018420406 365:0.10648103 366:0.0030388515 367:0.076693453 368:-0.0090404013 369:0.016121687 370:0.0094297091 371:-0.031959251 372:8.8427705e-06 373:-0.089198001 374:-0.025753917 375:-0.054624442 376:0.0056316736 377:-0.070622474 378:-0.020339476 379:-0.018627673 380:0.044876885 381:0.026183203 382:0.00021559575 383:-0.040268213 384:-0.018956797 385:0.0091112796 386:0.052078247 387:-0.022569798 388:-0.022859624 389:0.027420903 390:-0.027677767 391:-0.0087972637 392:-0.060272448 393:-0.032487568 394:0.00035757391 395:-0.075232856 396:-0.026203139 397:-0.039266214 398:0.10391116 399:0.082805634 400:0.073061705 401:0.029945435 402:0.099689975 403:-0.015831659 404:-0.033843469 405:0.081035025 406:0.065385751 407:0.044774808 408:0.017780082 409:-0.040888127 410:-0.069803894 411:-0.023496987 412:-0.0086394306 413:0.04359895 414:-0.092079952 415:-0.062757418 416:0.059565105 417:0.021025602 418:0.0070190793 419:0.025244838 420:0.031012613 421:0.072021507 422:0.0068126232 423:0.025846479 424:0.033121299 425:-0.050355345 426:0.025526877 427:0.034815777 428:0.050336666 429:-0.0064918632 430:0.024036862 431:0.0033685039 432:-0.0075633093 433:-0.0095517011 434:-0.02005385 435:-0.060228676 436:-0.036236502 437:-0.0083018253 438:-0.024514033 439:-0.015610305 440:-0.027855301 441:-0.045447756 442:0.037784588 443:-0.015852796 444:0.040737983 445:-0.020670505 446:0.022067081 447:0.032537561 448:-0.11577919 449:0.0094475625 450:0.047833301 451:0.0085202875 452:0.038805485 453:-0.0031307417 454:-0.10500141 455:-0.06910494 456:0.052740201 457:0.040994033 458:-0.0050837058 459:0.011178457 460:-0.039292987 461:0.043049414 462:0.028182931 463:0.0023662802 464:0.028819636 465:0.048291467 466:-0.0051093912 467:0.050495412 468:-0.049439099 469:-0.063430749 470:0.01866197 471:0.022322591 472:0.069255516 473:0.027074125 474:-0.041901153 475:0.029606882 476:-0.025435127 477:0.096116588 478:0.042111047 479:-0.074363276 480:0.052986842 481:-0.052877091 482:-0.034439709 483:-0.031858344 484:-0.013244356 485:-0.013360615 486:0.030879337 487:0.026117584 488:-0.060140491 489:0.0090338541 490:0.022401556 491:-0.017971752 492:0.08168526 493:0.012957539 494:-0.037302982 495:0.027927518 496:0.033765119 497:-0.015306556 498:-0.0028698889 499:-0.049348339 500:-0.038769767 501:0.00038170003 502:0.092537142 503:0.031698931 504:-0.035635393 505:-0.025784651 506:-0.031663932 507:0.057383195 508:0.011054382 509:-0.019541239 510:-0.030600576 511:0.021782011 
-0.88105008139638619 0:-0.072481915 1:0.037287466 2:-0.083833829 3:-0.089007095 4:0.012708614 5:-0.047058694 6:0.014803902 7:0.039093617 8:0.0045435545 9:0.040505528 10:0.033018552 11:-0.012419254 12:-0.03449351 13:-0.086083107 14:-0.0042304243 15:-0.022811316 16:-0.0041208533 17:-0.025288228 18:-0.0078035099 19:0.019770866 20:0.078643873 21:0.013267826 22:-0.04284963 23:0.070589863 24:0.0066280034 25:0.017271075 26:0.020423999 27:0.035878759 28:-0.020440834 29:0.043215457 30:-0.016119655 31:-0.03292476 32:0.038335774 33:0.068137243 34:0.049832862 35:0.0145987 36:-0.026193038 37:-0.016377164 38:0.065096512 39:0.080904089 40:0.0043854835 41:-0.013166411 42:0.028915871 43:0.06080775 44:-0.061857324 45:0.027054576 46:-0.0020854957 47:0.083063446 48:-0.020561265 49:0.02632202 50:-0.066935301 51:0.012560971 52:0.043658484 53:0.040769573 54:0.18244885 55:0.058182802 56:0.0095497658 57:0.0024058116 58:0.0098214103 59:-0.075020693 60:0.01227221 61:0.10621676 62:-0.033080451 63:-0.089947559 64:0.086276606 65:-0.070804879 66:0.011535485 67:-0.010625257 68:-0.016322123 69:0.02487842 70:0.027132494 71:-0.046966422 72:-0.1149505 73:-0.023720963 74:-0.0027321801 75:0.085388504 76:0.0028396929 77:0.0050205057 78:-0.037050407 79:-0.028855009 80:-0.063249841 81:0.061856594 82:0.023164088 83:0.030448355 84:-0.053912643 85:-0.046220932 86:-0.027543822 87:-0.049086265 88:0.024259422 89:-0.10192815 90:-0.0081718247 91:-0.0011352312 92:-0.043059386 93:-0.009334892 94:0.025188964 95:0.046558455 96:-0.047031909 97:0.0030751482 98:0.034915835 99:0.015215124 100:-0.07389468 101:-0.016142122 102:-0.017091697 103:-0.01466132 104:-0.090226166 105:0.032069992 106:0.021097716 107:0.070072636 108:0.0023534822 109:0.042422 110:-0.028637646 111:-0.016219517 112:0.015562302 113:-0.032519288 114:-0.010187368 115:0.048698802 116:0.010645893 117:0.1023474 118:-0.044228751 119:-0.048893698 120:-0.050976437 121:-0.048777964 122:0.10719249 123:0.051472969 124:-0.025289195 125:0.11213446 126:-0.053143177 127:-0.054767046 128:-0.049135156 129:-0.045760017 130:-0.048140794 131:0.016790349 132:-0.011463229 133:-0.072462291 134:0.014935278 135:-0.035437144 136:0.029201036 137:0.044445142 138:-0.036383297 139:-0.069377184 140:-0.039948594 141:-0.11657067 142:-0.016288325 143:-0.053014971 144:0.0020009191 145:0.035828743 146:0.0041051493 147:0.00041542234 148:-0.056075923 149:-0.038595479 150:0.0059500658 151:-0.027634446 152:-0.021655321 153:0.03733385 154:-0.079533793 155:-0.023893008 156:-0.0084389923 157:-0.0034933928 158:0.021857012 159:-0.0045272307 160:-0.00099200767 161:0.018781392 162:-0.04817526 163:0.036097664 164:0.0084005138 165:0.033647794 166:0.024349248 167:0.017642293 168:-0.03514722 169:-0.0039747483 170:0.025754573 171:-0.0021185868 172:-0.02025722 173:-0.02366082 174:-0.012714088 175:0.055505957 176:0.028998919 177:0.035783403 178:-0.041134704 179:-0.066291392 180:0.017581752 181:-0.021893907 182:0.07102377 183:0.058655452 184:0.0087524019 185:0.0061360942 186:0.003438083 187:0.016612841 188:0.0091314204 189:-0.032957554 190:0.049978271 191:-0.033824183 192:-0.00036007058 193:-0.012538953 194:-0.0680255 195:-0.057346441 196:0.041064207 197:0.027599607 198:-0.12668546 199:0.051099591 200:-0.054691333 201:0.028022848 202:0.055312898 203:-0.068443634 204:0.024866458 205:-0.0007258426 206:-0.017246228 207:-0.073238149 208:-0.052516267 209:0.028326221 210:0.12502415 211:0.026960827 212:-0.056812275 213:-0.035212431 214:-0.075603396 215:-0.015789509 216:0.0097777974 217:-0.038090874 218:-0.019206893 219:-0.10719585 220:-0.02266082 221:-0.069752 222:0.021689987 223:0.020179341 224:-0.036509395 225:-0.020707976 226:0.047800142 227:0.01041727 228:-0.0030046031 229:-0.041852202 230:-0.069233 231:-0.007261503 232:0.0055678845 233:0.023020606 234:0.064056449 235:0.0089921923 236:-0.018770831 237:0.036970004 238:-0.055459745 239:0.016103316 240:-0.021641158 241:0.011681866 242:-0.013478666 243:-0.022887681 244:0.012529333 245:0.018307364 246:-0.0036237282 247:0.0018661208 248:0.014310151 249:-0.025368543 250:-0.0096466905 251:0.054539684 252:-0.010565104 253:0.0083647603 254:0.052361846 255:0.0036214616 256:0.050052214 257:0.04308911 258:0.034270007 259:-0.001890817 260:0.032208588 261:-0.08546821 262:0.027666038 263:-0.024185153 264:-0.11016409 265:-0.027546231 266:0.016719045 267:0.084325127 268:-0.026743613 269:-0.015969284 270:0.015458739 271:-0.027630761 272:-0.11875624 273:0.0051770867 274:0.023183543 275:0.025296031 276:0.010692085 277:0.053227432 278:-0.012712546 279:-0.010903189 280:0.033494923 281:-0.074633837 282:0.018185506 283:-0.021378942 284:0.034125727 285:0.021458291 286:0.06181265 287:-0.024588039 288:-0.056340698 289:0.025342606 290:0.048332013 291:0.032436311 292:-0.0186566 293:0.018717496 294:-0.046984095 295:-0.012769061 296:0.055426892 297:-0.046364699 298:0.022265879 299:0.0032825773 300:-0.031391449 301:-0.0098579256 302:-0.045856673 303:-0.0033224693 304:0.050436575 305:0.0033575504 306:0.049426429 307:0.033341214 308:-0.025099162 309:-0.0046269381 310:0.0031445725 311:-0.05440928 312:0.038213629 313:0.030292297 314:-0.061293811 315:0.09364488 316:-0.023432264 317:-0.016671546 318:0.062560625 319:-0.012622523 320:-0.05957105 321:0.03644954 322:0.022794824 323:0.0029252868 324:-0.027015712 325:0.018611846 326:0.058306735 327:-0.016563611 328:-0.020176211 329:0.059612349 330:-0.00041161978 331:-0.0084818471 332:-0.020038445 333:0.066572025 334:0.020155428 335:-0.035351649 336:-0.033559326 337:0.0075248685 338:-0.042163104 339:0.036352772 340:0.019318165 341:0.018722866 342:-0.020516451 343:0.012705932 344:0.005520734 345:-0.021819908 346:0.021833414 347:0.069508016 348:0.015015365 349:0.026236756 350:-0.017589649 351:0.066992097 352:-0.015500352 353:0.0027507886 354:0.020184824 355:0.0088310568 356:0.012006802 357:-0.069367468 358:0.060731757 359:0.0026899332 360:-0.013602694 361:0.016612401 362:-0.0062494935 363:-0.040137429 364:-0.021131875 365:0.09773393 366:-0.026189355 367:0.041895043 368:0.03584183 369:-0.021191847 370:0.01700441 371:-0.0060515474 372:0.004216319 373:-0.11614394 374:-0.053631593 375:0.027366839 376:-0.003840137 377:-0.054150254 378:0.050437961 379:-0.071797557 380:0.10834426 381:-0.029959472 382:0.043546692 383:-0.015649308 384:-0.012341943 385:0.0035429243 386:0.091483369 387:-0.069697782 388:0.0069637848 389:0.03821728 390:-0.046414368 391:0.027845999 392:0.016172599 393:-0.021716455 394:0.014100846 395:-0.020121673 396:-0.037931662 397:-0.01529374 398:0.10167769 399:0.035586514 400:0.082556352 401:0.029842919 402:0.069062442 403:-0.035919506 404:-0.0047629164 405:0.086187735 406:0.015433366 407:-0.007733623 408:0.035069183 409:-0.011367517 410:-0.058025077 411:0.026043145 412:0.012245543 413:-0.033545651 414:-0.05215152 415:-0.026734838 416:0.10938895 417:-0.024698168 418:0.022063199 419:0.019799266 420:0.040285144 421:0.0030526845 422:-0.028808141 423:0.05211971 424:0.030929852 425:-0.073240176 426:0.057348911 427:0.041142199 428:0.0097964564 429:0.021465184 430:0.042711545 431:0.012706818 432:-0.021316316 433:-0.0052140937 434:0.021375297 435:-0.044490378 436:0.0095236087 437:-0.026870148 438:0.0021700722 439:0.01879725 440:-0.028429141 441:-0.049490612 442:-0.065752752 443:0.029854678 444:0.055199973 445:0.032974154 446:0.018065918 447:0.036595915 448:-0.089045241 449:0.033428047 450:0.050648194 451:0.053044748 452:-0.018833386 453:-0.027348464 454:-0.0444219 455:-0.046710644 456:-0.012563624 457:-0.022635449 458:0.001604276 459:-0.026612053 460:-0.0097075664 461:0.041532725 462:-0.089521125 463:0.018331684 464:0.053401861 465:0.018201409 466:-0.023864485 467:0.028437139 468:-0.038673595 469:0.011277691 470:-0.013768496 471:0.095429726 472:0.0088570174 473:0.028531481 474:-0.0025302449 475:0.031541865 476:-0.044575259 477:0.1080771 478:-0.040441349 479:-0.072757095 480:0.020314643 481:-0.06492798 482:-0.01569606 483:0.018471124 484:-0.028298307 485:-0.0084539745 486:0.0013912531 487:0.023861747 488:-0.056019716 489:-0.0087617943 490:0.049094003 491:0.00075962214 492:0.04454546 493:0.06029297 494:-0.053845145 495:0.018625082 496:0.04581077 497:-0.026717074 498:-0.059140522 499:-0.028225014 500:-0.059535619 501:0.014569786 502:0.040928215 503:0.008870001 504:0.0081296125 505:-0.040882315 506:-0.054757696 507:0.072724588 508:-0.016196489 509:0.04970587 510:0.02622148 511:-0.037632704 
-0.53256637329467671 0:-0.080784641 1:0.085461989 2:-0.03571802 3:-0.061230835 4:0.0060913502 5:0.0077509969 6:0.016303247 7:-0.014129448 8:0.041740138 9:0.076147482 10:0.0049668443 11:0.046080876 12:-0.040722467 13:-0.058677506 14:0.003235626 15:-0.03662011 16:0.032074075 17:-0.057449512 18:0.0071492032 19:-0.063987024 20:0.056585401 21:-0.00088041532 22:-0.0046151988 23:0.098965928 24:0.02513621 25:0.012266903 26:0.027261551 27:0.031272978 28:-0.044929754 29:0.0084513044 30:-0.0055913487 31:-0.025377279 32:0.076880321 33:0.013821978 34:0.044951234 35:0.01630036 36:-0.017651442 37:-0.037404243 38:0.036533996 39:0.051361825 40:-0.0039570914 41:-0.049631417 42:-0.017188519 43:0.029208569 44:-0.0014780753 45:0.05360654 46:0.039040554 47:0.047801174 48:0.052567139 49:0.014688592 50:0.0070161372 51:0.052488029 52:-0.017982587 53:-0.017027568 54:0.16606009 55:0.044483598 56:0.035357319 57:-0.011451035 58:-0.01837666 59:-0.028958153 60:-0.0065148054 61:0.049134348 62:-0.0064756284 63:-0.098279685 64:0.058121484 65:-0.046469077 66:0.0039616469 67:0.011721205 68:-0.01202571 69:0.036851153 70:0.091118641 71:0.019965995 72:-0.11724926 73:0.023300607 74:0.036267072 75:0.093488574 76:-0.00054947491 77:0.027270315 78:-0.036408052 79:0.06063842 80:-0.063955463 81:0.010195624 82:0.02199042 83:-0.022576928 84:-0.077283405 85:-0.053558338 86:-0.026675966 87:-0.023028826 88:0.063099414 89:-0.060599752 90:-0.059850805 91:0.00019922877 92:-0.032376766 93:0.023883441 94:0.0060692923 95:0.054282635 96:-0.071366638 97:0.046713568 98:0.05458279 99:0.011043316 100:-0.020506999 101:-0.057252768 102:-0.024266427 103:-0.077097833 104:-0.053226206 105:0.090902574 106:-0.0044413838 107:0.028581537 108:0.0059197298 109:0.020313183 110:-0.0085436162 111:-0.068802714 112:0.0053793546 113:-0.0073146923 114:0.035007935 115:0.055599172 116:0.048675802 117:0.010010461 118:-0.013821985 119:-0.015656259 120:-0.02792052 121:-0.03191556 122:0.078439891 123:0.041392013 124:-0.007693144 125:0.04611415 126:-0.057399202 127:-0.042090233 128:-0.027997365 129:-0.05870172 130:0.014020315 131:0.012380655 132:0.0023364385 133:-0.084393814 134:-0.032891449 135:-0.038945474 136:-0.013456216 137:0.039375041 138:-0.031958282 139:-0.097389348 140:-0.018595871 141:-0.048266564 142:0.017347464 143:-0.072778262 144:0.033599682 145:0.024421472 146:0.028417794 147:0.0037660575 148:-0.058647279 149:-0.038346842 150:-0.072760336 151:-0.0015804602 152:0.00067752856 153:0.064787894 154:-0.10173123 155:-0.036667183 156:0.0057445909 157:-0.023692872 158:0.048530504 159:-0.048607729 160:0.035825364 161:0.038692236 162:-0.049419764 163:0.028769845 164:0.0084313275 165:-0.018278589 166:0.077125981 167:0.033217654 168:-0.019376507 169:0.013245782 170:-0.0060781171 171:0.0062054335 172:-0.00082497473 173:-0.050960235 174:-0.053276654 175:0.013540236 176:0.013200336 177:0.00068114797 178:-0.013263162 179:-0.071731247 180:0.022218863 181:-0.056142353 182:0.051705536 183:0.0902858 184:0.020398937 185:-0.040803023 186:-0.0064091985 187:0.01153454 188:-0.015481622 189:0.02705968 190:-0.026533304 191:-0.0021537063 192:0.026159963 193:0.027602248 194:-0.098467574 195:-0.10541578 196:0.12513079 197:-0.066004887 198:-0.069418862 199:0.013751708 200:-0.054835156 201:-0.011956258 202:0.057615794 203:-0.015365577 204:0.004093477 205:-0.071429513 206:0.0074231466 207:-0.10070135 208:-0.068441331 209:0.034657974 210:0.061801843 211:0.038501021 212:-0.084428869 213:-0.069185555 214:-0.015267322 215:-0.011119392 216:0.0050049555 217:-0.05590535 218:0.0014827779 219:-0.059385799 220:-0.026817717 221:-0.051834326 222:0.028079554 223:-0.0036365695 224:-0.055099498 225:-0.048547909 226:0.0032406976 227:0.00046812845 228:0.035378281 229:-0.021382036 230:-0.042343039 231:-0.044590201 232:0.028268779 233:0.051652677 234:0.057099428 235:0.031390753 236:-0.011114447 237:0.042349074 238:-0.057790551 239:0.028442336 240:0.0049372441 241:0.03091736 242:0.040046077 243:-0.04293498 244:0.039372794 245:0.011214754 246:-0.0077147279 247:-0.029654594 248:0.055873469 249:-0.071909606 250:0.020258877 251:0.037639081 252:0.028947487 253:0.04649175 254:0.002866223 255:-0.0073357411 256:0.049960047 257:0.057545908 258:0.043333523 259:0.040528893 260:0.059103649 261:-0.02587427 262:0.01537184 263:-0.040474538 264:-0.077743217 265:-0.00024312962 266:0.015752342 267:0.10319185 268:-0.011438465 269:0.015692007 270:0.036922779 271:-0.001292099 272:-0.11986294 273:-0.0064383824 274:0.030331736 275:-0.021380048 276:-0.0060830121 277:0.085800767 278:-0.013328465 279:-0.017800946 280:0.058242127 281:-0.09202081 282:-0.0048882077 283:-0.035025313 284:0.042147525 285:0.014856572 286:0.03715058 287:-0.0082958229 288:-0.11765778 289:-0.019604648 290:0.054427594 291:0.028098095 292:-0.0076394454 293:-0.041337553 294:-0.0990915 295:0.025765844 296:0.037136942 297:0.0021671562 298:0.069553435 299:-0.0029045772 300:0.0053878701 301:-0.035254084 302:-0.05357784 303:-0.0091318665 304:0.036246102 305:-0.070741706 306:0.057142269 307:0.038500607 308:-0.013198105 309:0.0013277925 310:0.019824753 311:-0.084764943 312:0.03609376 313:0.034090038 314:-0.051157687 315:0.065879136 316:-0.011075963 317:-0.014440197 318:-0.01337554 319:-0.028250504 320:-0.0093632741 321:-0.0004852282 322:0.0041316827 323:-0.0059565078 324:-0.017864073 325:-0.0077427891 326:0.068468742 327:-0.041179594 328:0.048247349 329:0.10319749 330:0.014081012 331:0.044709079 332:0.00063231133 333:0.062490862 334:-0.04249106 335:-0.010353196 336:-0.057748083 337:0.030988695 338:0.015268148 339:0.06582734 340:0.013167631 341:-0.030660557 342:-0.046996076 343:0.050340232 344:0.040891603 345:-0.023713274 346:-0.0020263242 347:0.062711276 348:0.011919554 349:0.0013188788 350:0.020822771 351:0.037941758 352:-0.061361294 353:0.015102617 354:0.022126259 355:0.073445298 356:0.026880842 357:-0.015314928 358:0.028437542 359:-0.0065913838 360:-0.042827953 361:-0.00025554842 362:-0.014287536 363:-0.044252682 364:-0.046176072 365:0.073460579 366:-0.014650248 367:0.042907294 368:0.030911898 369:0.054551516 370:0.001881157 371:0.01325656 372:0.0089983968 373:-0.097417228 374:0.027233606 375:0.014857625 376:0.021434123 377:-0.05091634 378:-0.0017122498 379:-0.03179298 380:0.040102609 381:0.013594039 382:0.0099892206 383:-0.018793169 384:-0.038763382 385:0.015712874 386:0.028986607 387:-0.067345656 388:-0.040278547 389:0.038719676 390:-0.096626639 391:-0.01510522 392:-0.00026528945 393:-0.0080957124 394:0.010182897 395:-0.059812315 396:-0.010758383 397:-0.046221968 398:0.092424333 399:0.081761636 400:0.034858838 401:0.012625932 402:0.069215372 403:-0.0080828127 404:-0.038286585 405:0.028314283 406:0.07370995 407:0.010230122 408:0.00066639559 409:0.002928531 410:-0.067563847 411:-0.034989983 412:0.009460601 413:0.038944822 414:-0.043445196 415:0.011465052 416:0.079842322 417:0.013722745 418:0.010254918 419:0.020489097 420:0.04871437 421:0.04777744 422:0.025490992 423:0.055473085 424:0.021265918 425:-0.025918927 426:-0.013572519 427:0.065876395 428:0.0010512711 429:-0.0367277 430:0.012828006 431:0.014626428 432:-0.021054473 433:-0.020903746 434:-0.060340825 435:-0.055696622 436:-0.033793639 437:0.019211994 438:-0.0025658375 439:0.034274545 440:-0.030245533 441:-0.041706733 442:-0.02463145 443:-0.0086785341 444:0.030044785 445:-0.0038679687 446:0.0052214842 447:0.00064080069 448:-0.10219263 449:0.024231222 450:0.059996448 451:0.054447595 452:-0.0026611504 453:-0.0098989205 454:-0.10639871 455:-0.059517357 456:0.0048015341 457:0.050216112 458:0.024339769 459:0.00046309599 460:-0.093607567 461:-0.020437103 462:-0.080463581 463:0.039844308 464:0.048503008 465:-0.0099175489 466:-0.09014383 467:0.061023071 468:0.01907867 469:-0.05729026 470:-0.0087634576 471:0.050086502 472:0.038156223 473:0.0468679 474:-0.023486685 475:0.027679196 476:-0.0074696294 477:0.033933472 478:0.047504883 479:-0.017842935 480:0.057931401 481:0.0022130492 482:-0.049942158 483:-0.0005222382 484:0.0040272241 485:-0.016687682 486:0.012905687 487:0.015527072 488:-0.0020014758 489:-0.024938477 490:0.016674891 491:0.042888362 492:0.034106076 493:0.0081104329 494:-0.019454924 495:0.043476414 496:0.015997311 497:-0.011614766 498:-0.068824895 499:-0.020650897 500:-0.0068333219 501:0.021590166 502:0.080387749 503:0.023949247 504:-0.00057912304 505:-0.025638795 506:-0.072653361 507:0.057091005 508:0.022311728 509:0.0023631589 510:-0.0078439629 511:-0.034241833 
0.28352738117779386 0:-0.033589393 1:0.00073286332 2:-0.10047629 3:-0.042523373 4:0.0014267486 5:-0.059799466 6:0.0023516933 7:0.072178356 8:-0.0077863331 9:0.014692752 10:-0.041883122 11:-0.038723711 12:-0.025961543 13:0.0075292913 14:0.013080589 15:-0.060909301 16:0.028019743 17:0.0038886117 18:-0.0025865692 19:-0.015360632 20:0.0303602 21:0.018227046 22:0.023544949 23:0.015240837 24:0.015617209 25:-0.056701273 26:0.026372433 27:0.059865735 28:0.06576933 29:0.070114888 30:-0.013161791 31:-0.087124459 32:-0.044495016 33:-0.019318467 34:0.04741035 35:-0.01230915 36:-0.11529579 37:0.050033599 38:-0.018108044 39:-0.0012440033 40:-0.042530045 41:0.05535496 42:0.018940279 43:0.053721156 44:-0.0019653956 45:0.001308265 46:-0.039090972 47:-0.049850926 48:-0.060294803 49:0.01469342 50:-0.0057908581 51:-0.017552892 52:0.025566461 53:-0.039432824 54:-0.053357244 55:0.069724061 56:-0.046202097 57:-0.012644942 58:0.03790199 59:0.021655943 60:0.017727477 61:0.011334189 62:0.018434498 63:0.0085726539 64:0.029273817 65:-0.011151121 66:-0.00053639215 67:-0.001295113 68:-0.028402442 69:0.028251175 70:-0.086339608 71:0.0023830701 72:0.010206891 73:-0.090385661 74:0.023846516 75:-0.0074945823 76:-0.0070061055 77:-0.027959533 78:0.077998213 79:0.052866504 80:0.0045084101 81:-0.017276807 82:0.029694859 83:0.068323269 84:0.015018336 85:-0.0032817465 86:-0.073363692 87:0.03658193 88:0.00079728651 89:-0.0037880873 90:0.023809146 91:-0.032240614 92:0.054980643 93:-0.044942003 94:-0.022484798 95:-0.059845228 96:-0.012187201 97:-0.0010826243 98:0.075243533 99:-0.057387613 100:0.053051092 101:0.0020919631 102:0.03306853 103:0.097860537 104:0.0032532047 105:0.084637851 106:-0.067844711 107:0.0072087948 108:0.044267744 109:0.015932953 110:-0.082757048 111:0.068308219 112:0.055900849 113:-0.039400775 114:-0.0098352246 115:-0.061588272 116:-0.060763516 117:0.055326231 118:-0.037417889 119:-0.024132228 120:0.017086642 121:-0.022941377 122:-0.044079982 123:0.0033819736 124:0.014547027 125:0.02472437 126:-0.0067477589 127:0.029479764 128:-0.010412464 129:0.08049719 130:-0.081208065 131:0.045563474 132:0.057711292 133:-0.032836996 134:0.078512162 135:-0.025016021 136:0.042315386 137:0.0048323418 138:-0.008507533 139:0.060432285 140:-0.054792214 141:0.032469779 142:0.035649024 143:-0.0048813932 144:-0.033535846 145:-2.1791957e-05 146:-0.036401361 147:-0.0014313576 148:-0.055673704 149:0.025462771 150:-0.051387779 151:-0.03999095 152:0.034844927 153:0.033984877 154:-0.012941076 155:-0.082081482 156:-0.0083297985 157:-0.031008687 158:-0.033312242 159:-0.054285999 160:0.091793552 161:-0.017247539 162:-0.0011042695 163:-0.01657242 164:0.066567652 165:0.02427634 166:0.042239044 167:-0.0610363 168:-0.023804206 169:-0.023751257 170:-0.0044335905 171:-0.01276799 172:0.024643293 173:0.007993714 174:-0.07669884 175:0.014772828 176:0.06724672 177:0.01987114 178:-0.033550929 179:-0.083713964 180:0.039235387 181:-0.04644566 182:-0.0044979863 183:0.0089727445 184:0.0059535126 185:0.061742932 186:-0.020993728 187:-0.045633364 188:-0.042755343 189:-0.016277868 190:0.010543036 191:-0.023533264 192:0.033184238 193:-0.017694306 194:0.052185185 195:0.023074193 196:-0.012315845 197:0.042889152 198:-0.018213922 199:0.0053513013 200:-0.043855455 201:0.061309479 202:0.011420802 203:-0.14491402 204:-0.027930906 205:0.030330254 206:0.021108678 207:-0.031824876 208:0.080810383 209:0.019403663 210:0.042051829 211:0.07451731 212:-0.063910775 213:-0.035084091 214:-0.0253345 215:-0.0041181762 216:-0.081315994 217:0.020342644 218:-0.067113951 219:0.01941899 220:0.022253664 221:0.037546217 222:-0.029080644 223:0.053534005 224:0.012038959 225:-0.055484403 226:0.0033420096 227:-0.04442573 228:-0.031619001 229:-0.033802442 230:-0.046210472 231:-0.029051261 232:-0.018419761 233:-0.056223616 234:0.0028071019 235:-0.0038823923 236:0.02041029 237:-0.033107266 238:-0.063899212 239:0.0075085368 240:0.044861052 241:-0.063940696 242:-0.076079607 243:-0.03659384 244:-0.059680246 245:0.083914682 246:-0.052385412 247:0.10185131 248:-0.024326252 249:0.016930662 250:0.0014103119 251:0.098082952 252:-0.041269612 253:-0.023981245 254:-0.017811054 255:-0.00034343317 256:0.014802065 257:0.029577769 258:0.021561053 259:-0.05813178 260:0.030000398 261:-0.077105187 262:-0.0018069547 263:0.063569076 264:0.070544235 265:0.024936149 266:-0.027378986 267:0.045884352 268:-0.016665783 269:0.0049944655 270:0.0098956749 271:-0.06385763 272:0.015264929 273:0.024524471 274:-0.0039252136 275:0.025983842 276:0.047309935 277:0.016593309 278:-0.06644614 279:-0.041099623 280:0.048514381 281:-0.037280291 282:0.028787687 283:-0.047739193 284:0.024107827 285:0.023062749 286:0.018224549 287:0.036580149 288:-0.0082436362 289:-0.038929354 290:0.030554464 291:-0.063919902 292:-0.036184765 293:-0.039522361 294:-0.032703575 295:-0.00050121633 296:0.023006832 297:-0.0070059113 298:0.043273062 299:0.0095698331 300:0.062662415 301:0.065534241 302:0.01621861 303:-0.13213135 304:0.011453231 305:0.014967726 306:0.12160581 307:-0.042784408 308:0.0086447932 309:0.012636425 310:-0.055371545 311:-0.0086053349 312:-0.010992847 313:-0.031631816 314:0.062507376 315:-0.062527835 316:-0.078710116 317:0.030384524 318:-0.0069549154 319:-0.0271462 320:-0.090324551 321:-0.057139784 322:0.060444642 323:-0.028867405 324:-0.035937164 325:-0.029131671 326:-0.019446751 327:-0.01418879 328:0.043528091 329:0.013678327 330:-0.00014198205 331:-0.0035602478 332:-0.079366982 333:0.046675522 334:-0.0010525424 335:-0.041769724 336:-0.065699071 337:0.010647403 338:-0.054783937 339:0.050293047 340:0.031065535 341:0.057766162 342:-0.0069623189 343:0.053176798 344:-0.024352049 345:0.01913642 346:-0.042600468 347:0.030060751 348:0.024614962 349:0.055359669 350:0.055844989 351:-0.050244052 352:0.046039183 353:-0.06622903 354:-0.056968752 355:-0.036789257 356:-0.0609014 357:-0.0026502449 358:-0.043240868 359:-0.076890767 360:-0.023299845 361:0.026075952 362:-0.11008425 363:0.028564597 364:0.035636771 365:0.0097257001 366:0.11548616 367:0.0043004295 368:-0.014466438 369:-0.069610357 370:-0.063754402 371:-0.009149665 372:0.072763063 373:0.090991408 374:0.0029624209 375:-0.033372063 376:-0.02533699 377:-0.032338955 378:-0.080801085 379:-0.020560278 380:0.084468797 381:-0.008961726 382:-0.040081818 383:0.00038602625 384:-0.043701634 385:0.028225087 386:0.087895229 387:0.0073781167 388:0.018671656 389:-0.020946704 390:0.021820638 391:0.0057057654 392:-0.070740953 393:-0.00099518965 394:0.041713107 395:0.007960516 396:0.004376614 397:0.024098506 398:0.052029889 399:-0.038752634 400:-0.022742562 401:0.064813294 402:0.043305866 403:0.0061788363 404:0.01886824 405:0.078518808 406:-0.018274475 407:-0.0091003329 408:0.015766932 409:-0.03627494 410:-0.053300794 411:0.12226166 412:-0.013399411 413:0.03216299 414:-0.0087941131 415:-0.030205682 416:0.043734696 417:0.020462997 418:-0.043984897 419:0.002368646 420:0.02070681 421:0.028547747 422:0.0048148502 423:0.015464124 424:0.055915952 425:-0.013161154 426:0.0081735495 427:-0.056871589 428:0.006512993 429:0.035925809 430:-0.09098839 431:-0.076523699 432:0.031320009 433:-0.0042871777 434:-0.033256203 435:-0.020100351 436:0.038272548 437:0.040650804 438:-0.0025968219 439:0.047814514 440:-0.042325702 441:-0.036680449 442:0.0063994243 443:-0.030825429 444:0.061246097 445:0.058386017 446:-0.01521008 447:0.015015803 448:-0.018471349 449:-0.012295167 450:0.037168663 451:0.037564136 452:0.074317671 453:-0.022517482 454:-0.040527679 455:-0.012722022 456:-0.0028782829 457:0.052951854 458:0.022173226 459:-0.027669124 460:0.04788211 461:0.032406956 462:0.015765555 463:0.0003380393 464:0.10254879 465:0.0065516476 466:-0.019895926 467:-0.084213682 468:-0.067598552 469:-0.020248618 470:-0.062276773 471:0.022367645 472:0.021875868 473:-0.018746536 474:-0.030308375 475:0.04534287 476:0.068147279 477:-0.026304198 478:0.034301583 479:-0.038936544 480:0.040930979 481:-0.038112286 482:-0.070631623 483:0.015142608 484:0.034718335 485:0.047137905 486:-0.10209805 487:-0.0017070664 488:-0.013370708 489:0.010847465 490:0.038462363 491:-0.090859011 492:0.036774587 493:0.034771293 494:0.00025268926 495:0.012671446 496:0.071845643 497:-0.053188808 498:-0.040899973 499:-0.03227292 500:-0.057287335 501:-0.016996332 502:0.031799138 503:-0.0065375851 504:-0.016573787 505:0.056739524 506:0.04444943 507:0.068296999 508:0.005629268 509:-0.010984559 510:0.018426664 511:-0.064613365 
0.14166220215356731 0:-0.0012192992 1:-0.033993404 2:0.010662731 3:-0.097702704 4:0.0070130029 5:-0.021876037 6:0.03425245 7:-0.047820494 8:0.041736256 9:-0.016636943 10:-0.059200592 11:-0.075474299 12:-0.020925488 13:0.061496556 14:0.030295305 15:-0.010902002 16:0.0052978969 17:-0.067772545 18:-0.032347672 19:0.004424681 20:0.045774005 21:-0.04766921 22:0.023720441 23:0.090703547 24:-0.010782155 25:-0.051506285 26:-0.051575534 27:0.060126811 28:0.017220384 29:-0.036605563 30:0.0068327691 31:-0.014882962 32:-0.028763937 33:-0.003883501 34:0.07324931 35:-0.009222012 36:-0.053340457 37:0.026865248 38:-0.031775996 39:-0.032227326 40:0.066575296 41:0.023298508 42:-0.011421787 43:0.022228008 44:0.03525649 45:-0.022528144 46:-0.0086203339 47:-0.018114161 48:-0.047808744 49:0.035970006 50:0.018724278 51:0.035779573 52:0.0028227824 53:-0.03730242 54:-0.013988225 55:0.029647794 56:-0.020883532 57:-0.064970434 58:0.093888372 59:0.05359802 60:0.024980512 61:-0.037991431 62:0.049644876 63:0.0026839345 64:0.027889457 65:-0.022538247 66:0.029543562 67:0.032895848 68:-0.050892264 69:0.053027403 70:-0.07634028 71:-0.0031211257 72:-0.01901227 73:-0.0055184513 74:0.040194232 75:-0.0043875934 76:0.023663707 77:0.014915748 78:0.026687907 79:0.065185554 80:-0.012047961 81:0.010721071 82:-0.074891895 83:0.090762779 84:0.029102093 85:-0.055529192 86:0.041715298 87:0.014877805 88:-0.046268709 89:-0.012937114 90:0.053278919 91:-0.039630268 92:0.086520538 93:-0.019351935 94:-0.040428746 95:-0.035516903 96:0.00034006051 97:0.018029246 98:0.12930331 99:-0.074048124 100:0.079199962 101:0.016682897 102:-0.04388212 103:0.041021109 104:-0.02029991 105:0.073906928 106:-0.063696675 107:0.072182022 108:-0.00034215912 109:0.029061545 110:-0.020907054 111:0.027429396 112:0.027448893 113:-0.019236952 114:-0.0055748741 115:-0.038164258 116:-0.03207488 117:-0.05811752 118:-0.013790892 119:-0.028516674 120:0.035806771 121:0.046883427 122:-0.065884687 123:0.013302895 124:0.064552598 125:0.074563213 126:0.033401761 127:0.0059205093 128:-0.0044934871 129:0.076564036 130:-0.086457565 131:0.026742922 132:0.017229954 133:-0.0086991265 134:0.038859107 135:-0.060595497 136:0.02535519 137:-0.011775726 138:-0.016276447 139:-0.0032112871 140:-0.016450545 141:-0.017009309 142:0.081270568 143:-0.014500482 144:0.0050145634 145:-0.025080159 146:-0.044138573 147:0.03053689 148:-0.066307127 149:-0.060500849 150:-0.076251425 151:-0.012830772 152:0.02763664 153:-0.041914918 154:-0.066067889 155:-0.07930547 156:-0.038430028 157:-0.002632428 158:0.015871365 159:-0.032312151 160:0.023863133 161:-0.04920416 162:0.053963616 163:-0.024824902 164:0.019593487 165:0.013255672 166:0.053620864 167:-0.017621737 168:0.0080455467 169:-0.064427219 170:0.056788992 171:-0.0061691971 172:0.042110067 173:-0.08544565 174:-0.010977346 175:0.024042627 176:0.021165714 177:0.059199572 178:-0.029632675 179:-0.052524295 180:0.016107095 181:0.0067924159 182:-0.054354347 183:-0.057765085 184:-4.4768643e-05 185:0.034512818 186:-0.11842016 187:-0.051642142 188:-0.067118101 189:-0.039995108 190:0.011476776 191:-0.067662597 192:0.016294029 193:-0.034704983 194:-0.0089318287 195:-0.015211925 196:0.020849077 197:0.0074951509 198:-0.078643464 199:-0.037562232 200:-0.019311368 201:0.058949798 202:0.028147034 203:-0.092847317 204:-0.055003963 205:-0.032603119 206:-0.018499957 207:-0.0271859 208:0.076680295 209:0.070560999 210:0.040587254 211:0.066348396 212:-0.06460122 213:-0.038900185 214:0.030470017 215:0.045204498 216:-0.015964303 217:-0.028670099 218:-0.0332793 219:-0.015385904 220:0.05575271 221:0.033866119 222:-0.083121605 223:0.028337225 224:-0.042793553 225:-0.022007378 226:0.033035073 227:-0.016744381 228:-0.044597048 229:-0.033836525 230:-0.037020192 231:-0.075011358 232:-0.019454749 233:-0.014880333 234:0.053475771 235:0.014696917 236:0.013636847 237:-0.022697687 238:-0.0031488221 239:0.0020346309 240:0.091499321 241:-0.017526504 242:-0.051141784 243:-0.063232757 244:-0.031873114 245:-0.029575231 246:0.059683412 247:0.07538382 248:-0.051421501 249:-0.008899359 250:0.024630414 251:0.029094009 252:-0.052119344 253:-0.054925971 254:0.054105554 255:0.00071601261 256:-0.026859745 257:-0.025469352 258:-0.055347089 259:0.022948777 260:0.0065987366 261:-0.045410823 262:0.021072466 263:0.0027600166 264:0.067824401 265:-0.00056691578 266:-0.037874948 267:0.067015737 268:0.049253929 269:-0.019563418 270:0.025515849 271:0.020137072 272:-0.013855953 273:0.016588772 274:-0.002610733 275:-0.077178963 276:0.020061174 277:0.031377219 278:-0.0061471597 279:-0.061229732 280:0.0037056736 281:-0.055567566 282:0.11043366 283:-0.0081937341 284:0.081434906 285:0.00010530749 286:0.0092362575 287:0.027829099 288:-0.025433671 289:-0.072055422 290:0.02267707 291:0.080744848 292:0.037914246 293:-0.057859752 294:0.048631355 295:0.068021849 296:0.0069682575 297:0.0001059314 298:0.024088299 299:-0.039053686 300:0.06283123 301:0.015555619 302:0.009708235 303:-0.071767412 304:0.031029955 305:0.057771094 306:0.080290034 307:-0.079653919 308:0.10119022 309:0.037657242 310:-0.076810107 311:-0.039880335 312:-0.013886499 313:-0.0078763533 314:-0.025090359 315:-0.088346504 316:-0.079618424 317:0.0596921 318:-0.043224968 319:-0.021489948 320:-0.092938475 321:-0.016938556 322:0.037043184 323:-0.097183287 324:-0.028833818 325:-0.081786618 326:-0.090481102 327:-0.020860674 328:-0.019156843 329:-0.010238738 330:-0.071593598 331:0.003802964 332:6.5636683e-05 333:0.013423136 334:-0.011657973 335:-0.071233757 336:-0.042773183 337:0.031182295 338:-0.040294167 339:0.03784867 340:-0.027439425 341:-0.012044005 342:-0.00050949521 343:0.024919268 344:0.0041754306 345:-0.0028072356 346:-0.011913414 347:0.0065690852 348:-0.0038895775 349:0.041523159 350:0.038920686 351:-0.11679633 352:0.030449575 353:0.013412953 354:-0.029499952 355:-0.012276855 356:-0.047610428 357:-0.046749234 358:-0.015689638 359:0.016441736 360:-0.010755524 361:0.05703374 362:-0.041705843 363:0.017840296 364:-0.081944041 365:0.0060948003 366:-0.0006380488 367:0.015509695 368:0.039063554 369:-0.097619064 370:0.05674687 371:0.064934477 372:-0.011534064 373:0.094947301 374:0.0015372385 375:-0.026312411 376:-0.039475374 377:-0.064027391 378:-0.0057890038 379:0.046788611 380:0.029285129 381:0.0097675081 382:-0.052778371 383:0.023055442 384:-0.042135309 385:0.040224332 386:0.090388261 387:0.048964065 388:0.028695159 389:-0.033642877 390:0.017210813 391:0.025568731 392:0.0151628 393:0.07701049 394:-0.015127141 395:-0.055171199 396:-0.0082444595 397:0.0032071902 398:0.061308388 399:-0.057092838 400:0.021598453 401:0.061992984 402:0.028537994 403:-0.0662819 404:-0.025313273 405:0.0074211084 406:0.016124686 407:-0.048078537 408:-0.021933999 409:-0.028145079 410:-0.024882169 411:0.10041003 412:-0.040287599 413:0.0073255361 414:0.024745034 415:-0.06180083 416:-0.030268058 417:-0.012749917 418:-0.011818462 419:-0.0016103203 420:-0.026309064 421:-0.029971663 422:-0.031375457 423:0.0092586409 424:0.069647975 425:-0.026001994 426:0.02828862 427:-0.061698072 428:-0.062208846 429:-0.023379518 430:-0.064989805 431:-0.039792169 432:0.05040729 433:-0.030006576 434:0.022557475 435:-0.031801976 436:0.065623373 437:0.096378714 438:0.0013563085 439:0.0079137851 440:0.0027923211 441:-0.052391272 442:0.049065519 443:-0.019205509 444:0.029583672 445:0.0061750538 446:0.048352912 447:-0.0079666208 448:0.040336672 449:0.053569492 450:-0.042173576 451:-0.038576286 452:0.03318597 453:0.0021283452 454:-0.045759913 455:0.028110487 456:-0.0086097568 457:-0.018054143 458:-0.019907856 459:-0.056974057 460:-0.015484745 461:-0.013241061 462:-0.014098429 463:-0.0087263202 464:0.06124267 465:-0.051888183 466:-0.0055599073 467:-0.028668785 468:-0.059037168 469:0.022322427 470:0.0050235819 471:0.024876449 472:-0.06808541 473:0.030796994 474:0.020918032 475:0.076196089 476:0.082176425 477:0.00074972515 478:0.053031966 479:-0.035070088 480:-0.01260974 481:-0.0053363377 482:-0.074502245 483:-0.0044138888 484:0.0033663562 485:-0.016327873 486:0.0051207277 487:-0.045565467 488:0.059792247 489:-0.030369055 490:-0.0012341844 491:-0.013639427 492:0.095083632 493:0.01682706 494:-0.021970117 495:0.063446023 496:-0.0077461838 497:-0.09591002 498:-0.04635435 499:0.014833258 500:-0.057118773 501:-0.00046194845 502:-0.013003052 503:-0.02970448 504:0.014115402 505:0.023609113 506:0.020666698 507:-0.018560424 508:-1.5340984e-05 509:0.032139592 510:-0.0015729488 511:-0.056598715 
0.55191101149842814 0:0.064118169 1:0.027516469 2:-0.042065956 3:-0.042706586 4:0.047726542 5:0.011632265 6:-0.032324601 7:0.0091250623 8:-0.064387791 9:0.013509485 10:-0.075176038 11:-0.052347835 12:-0.081797823 13:-0.061060254 14:0.033312988 15:-0.095244549 16:-0.081525534 17:-0.05898552 18:0.037336636 19:-0.045564018 20:-0.028753918 21:0.031759359 22:-0.025640156 23:0.066523097 24:0.03168112 25:0.0033958766 26:0.049788654 27:-0.0068493183 28:0.015599653 29:0.012522629 30:0.046532199 31:-0.0021439705 32:0.037006099 33:0.028977526 34:0.090914503 35:-0.020962346 36:0.046909213 37:0.073448382 38:-0.012120744 39:-0.017817944 40:-0.037471704 41:0.075057611 42:0.042587962 43:-0.031166982 44:-0.017017715 45:-0.062544987 46:-0.056085486 47:-0.041710615 48:-0.057477199 49:0.01343182 50:0.041881256 51:0.0088938344 52:-0.0027708746 53:-0.03652047 54:-0.016025767 55:0.080549933 56:-0.0082136104 57:0.039477784 58:0.023643158 59:0.051091541 60:2.6000525e-06 61:0.014827088 62:0.0054983408 63:-0.089568272 64:0.027782759 65:-0.030636763 66:0.035896059 67:0.04094607 68:0.01284624 69:0.01560431 70:-0.0058620563 71:0.0037095745 72:-0.075242035 73:0.012232128 74:0.05219904 75:-0.038200416 76:-0.018014926 77:0.016124483 78:0.062334172 79:0.067413278 80:0.028995702 81:0.041523632 82:0.036917191 83:0.027861577 84:-0.0028278604 85:-0.010736441 86:-0.060509447 87:0.031358324 88:-0.0010917047 89:0.018684806 90:0.042809475 91:-0.043326307 92:0.069621041 93:-0.076035045 94:-0.044453215 95:-0.060940355 96:0.036111087 97:0.022663152 98:0.036430586 99:-0.034625653 100:0.029910345 101:0.028848309 102:0.022178639 103:0.00039210965 104:0.03758388 105:0.042716291 106:-0.069961011 107:-0.032694638 108:0.059560116 109:-0.068567939 110:0.037179511 111:0.07310278 112:-0.004844923 113:-0.030246794 114:0.078195035 115:0.093864754 116:0.091830604 117:-0.030924121 118:0.040091243 119:0.030433597 120:-0.084906586 121:0.067426533 122:0.0067969006 123:0.016766308 124:0.031205012 125:0.066499263 126:0.009461808 127:-0.076940753 128:0.018202893 129:0.085515223 130:-0.032433346 131:0.072308183 132:0.11254671 133:-0.050373279 134:-0.0099639902 135:-0.094329774 136:-0.0065261703 137:-0.002948483 138:0.024480252 139:-0.0073627159 140:-0.031223735 141:-0.026793463 142:0.0031428367 143:0.0067408285 144:-0.027758405 145:-0.026597099 146:-0.084223084 147:0.013331002 148:0.04812111 149:-0.025295814 150:-0.02533021 151:-0.017138412 152:0.015572165 153:0.00082279684 154:-0.042048577 155:8.8442117e-05 156:0.010621758 157:0.038326517 158:0.027665112 159:-0.07493604 160:0.027645463 161:-0.029796824 162:-0.0023160058 163:-0.092947908 164:0.03590541 165:0.055112612 166:-0.016093589 167:-0.0066338698 168:-0.008344424 169:0.083903961 170:0.001477887 171:-0.040638924 172:-0.037036017 173:-0.01806494 174:0.0061954116 175:-0.020216506 176:0.068022579 177:-0.0097944485 178:-0.040874634 179:-0.082746588 180:0.029432679 181:-0.016013483 182:0.027189514 183:-0.011649996 184:0.03307626 185:0.040390257 186:-0.013844502 187:0.024311194 188:0.031545296 189:0.10118421 190:0.011869923 191:0.010098324 192:0.054822795 193:-0.015299612 194:0.0057494743 195:0.024657935 196:0.088223584 197:0.087672815 198:0.024907494 199:0.011072153 200:-0.072110333 201:-0.043640751 202:0.057291251 203:-0.038382757 204:0.039661739 205:0.032995485 206:0.0048367623 207:0.031448565 208:0.013949617 209:0.064809725 210:-0.063372038 211:-0.048509374 212:-0.032316327 213:0.0059927441 214:0.03268522 215:0.035395872 216:0.00075010257 217:-0.01577509 218:-0.058432963 219:0.0055258623 220:-0.093146704 221:-0.018551344 222:-0.040778089 223:0.030890871 224:-0.046600904 225:-0.052167993 226:0.019639801 227:-0.012209809 228:0.022524256 229:0.010608559 230:0.062266566 231:0.049389295 232:-0.042786393 233:-0.042492446 234:0.080900364 235:-0.064510442 236:-0.014463096 237:-0.0031443078 238:-0.0028900933 239:-0.090157621 240:0.023519952 241:-0.014251616 242:-0.032004643 243:-0.0085315006 244:-0.001300343 245:0.0065175635 246:0.040112611 247:0.037907291 248:-0.083006449 249:0.019878954 250:0.055796117 251:0.039640408 252:0.026516713 253:-0.016384747 254:-0.014011842 255:-0.10067247 256:-0.013905715 257:0.04513767 258:0.051029135 259:-0.039112501 260:0.045198131 261:-0.036940306 262:0.020698115 263:-0.011046619 264:0.023695556 265:-0.018939791 266:0.0090338606 267:0.12976088 268:0.0084516052 269:-0.0084133865 270:0.0061347666 271:0.068522014 272:-0.048948184 273:0.00083293923 274:-0.08595217 275:-0.059350822 276:0.03428885 277:0.052085862 278:-0.015639776 279:-0.028025767 280:-0.024124369 281:0.03139475 282:0.015868435 283:-0.031497281 284:0.011578407 285:-0.060383983 286:0.060874607 287:-0.048603661 288:0.0081105931 289:-0.068745568 290:-0.05624795 291:-0.017815737 292:-0.046132751 293:0.030408001 294:0.032092512 295:0.040726457 296:0.020968484 297:0.054583739 298:0.027440827 299:0.039988205 300:0.062610932 301:0.0058281873 302:-0.033775929 303:-0.0069433516 304:-0.0033896656 305:-0.033732504 306:0.031374589 307:0.0099720629 308:0.029896831 309:0.074986048 310:-0.028454235 311:0.015471593 312:0.011695738 313:0.044200793 314:0.045905855 315:-0.02724007 316:-0.045754414 317:-0.0099230958 318:-0.045133412 319:-0.001377168 320:0.057072777 321:-0.027517257 322:-0.0088079972 323:0.012696841 324:-0.066396855 325:0.0023015875 326:-0.027413193 327:-0.063674398 328:-0.0086205667 329:-0.0057410877 330:-0.015815811 331:-0.0041092741 332:-0.012656597 333:0.024419423 334:-0.050203361 335:-0.050800346 336:-0.11864343 337:0.036866233 338:-0.0043640807 339:0.080924258 340:0.0378858 341:0.017885251 342:-0.048698809 343:-0.0039622043 344:-0.023770386 345:-0.057035759 346:-0.037455335 347:-0.017607072 348:0.10504281 349:0.0055586179 350:-0.063810475 351:-0.011750339 352:-0.019334555 353:-0.0050209551 354:-0.071617648 355:-0.021693192 356:0.014774954 357:-0.02643856 358:-0.06227693 359:-0.025815075 360:-0.013368038 361:-0.02243216 362:-0.082328349 363:-0.026777605 364:-0.047111209 365:0.0063863895 366:0.037280094 367:-0.019916397 368:0.029066641 369:0.04238579 370:-0.022194883 371:0.030833999 372:-0.086008176 373:0.0047189137 374:0.0049136775 375:-0.053880196 376:-0.010786094 377:-0.10532002 378:0.085031338 379:0.017525019 380:0.0025742741 381:-0.056214225 382:-0.055816364 383:-0.014635684 384:-0.018804101 385:0.0011219031 386:0.086368129 387:-0.028793896 388:0.048504114 389:-0.011396403 390:-0.055436466 391:0.11202317 392:0.056811742 393:0.0033490632 394:0.063269995 395:0.03765478 396:0.062918074 397:0.10741108 398:0.071436882 399:-0.0083825523 400:-0.0031323736 401:0.034416817 402:0.036865436 403:-0.016401486 404:0.008703527 405:-0.053223714 406:-0.056672804 407:-0.038625311 408:0.014107805 409:0.014471666 410:0.042633172 411:0.010048911 412:-0.066929005 413:-0.01564642 414:-0.051935617 415:-0.040077191 416:-0.023973234 417:-0.028750138 418:-0.050585311 419:0.017798511 420:-0.012809427 421:0.039626729 422:-0.015330805 423:0.053704727 424:-0.00098678458 425:-0.0050001955 426:0.0083887856 427:0.014472274 428:-0.042021725 429:0.04591307 430:0.0053812983 431:-0.001591013 432:-0.053101629 433:-0.027581766 434:-0.027625758 435:-0.017647419 436:0.02914682 437:0.034968585 438:-0.032275315 439:0.023761597 440:-0.032731157 441:-0.077229679 442:0.022381069 443:-0.068817042 444:0.06814611 445:0.035306308 446:-0.039586619 447:0.070668705 448:0.027013721 449:-0.091502227 450:0.065104939 451:0.029971644 452:0.024944285 453:-0.043234628 454:-0.0024000234 455:0.059383076 456:-0.025518047 457:0.024206234 458:0.047253884 459:-0.023115825 460:0.038804017 461:0.024122965 462:-0.00025639305 463:-0.0054057306 464:-0.0053179529 465:-0.10990251 466:0.016128082 467:-0.028121009 468:-0.078547455 469:0.0038898448 470:-0.0091671478 471:0.0061064246 472:-0.061868969 473:-0.024282549 474:-0.034766804 475:0.021967357 476:0.084919997 477:-0.10715595 478:0.011917034 479:0.015008457 480:0.013398292 481:0.051279597 482:0.019812381 483:0.012172235 484:0.082303748 485:-0.036643825 486:-0.077034034 487:-0.01530062 488:0.0046099611 489:0.015473888 490:0.015010789 491:-0.011135472 492:0.04213772 493:0.030340815 494:0.055744294 495:0.050785724 496:0.025522752 497:-0.040321842 498:-0.042720623 499:0.0009468699 500:0.0023755685 501:0.015124832 502:0.016495775 503:0.009158073 504:0.019867247 505:-0.052114416 506:-0.03481489 507:0.035407152 508:0.032418758 509:0.037367098 510:0.061414905 511:-0.061644431 
0.49275942136182616 0:0.0024384153 1:-0.023377232 2:-0.0043599578 3:-0.066851705 4:0.006661437 5:-0.037391774 6:0.024302686 7:0.049820412 8:-0.0081484495 9:-0.03337834 10:-0.010761797 11:-0.01166465 12:-0.031103315 13:0.032700904 14:0.026287658 15:-0.067957006 16:-0.051379543 17:-0.084475845 18:-0.076395981 19:0.010495503 20:0.10878335 21:0.011991845 22:0.048170142 23:0.051715977 24:-0.009831015 25:0.015398601 26:0.024325823 27:0.013093315 28:0.084062763 29:-0.041788917 30:0.043064445 31:-0.015509909 32:-0.017666217 33:-0.048004787 34:0.083937995 35:0.018402971 36:-0.050512359 37:-0.015173986 38:0.041356474 39:-0.015474884 40:0.036107276 41:0.013546246 42:-0.015671879 43:0.012338556 44:0.027975503 45:-0.021982616 46:-0.023691561 47:0.00099431782 48:-0.034001447 49:0.017848337 50:-0.014004369 51:0.011058666 52:0.029842554 53:0.0091279326 54:0.014041042 55:0.084675677 56:-0.0086140139 57:-0.0022283676 58:0.04015927 59:0.019905845 60:0.031792026 61:-0.00086861307 62:-0.031072361 63:-0.0030649176 64:0.044115726 65:0.010352588 66:-0.016130026 67:0.0068692844 68:0.022065734 69:-0.022609934 70:-0.064420126 71:0.036074046 72:-0.020868381 73:-0.0065092882 74:0.043939441 75:0.02264316 76:0.014066867 77:-0.066802576 78:-0.061313272 79:0.078510419 80:-0.0097648045 81:0.008854799 82:-0.013481996 83:0.056622855 84:0.027896235 85:-0.067564577 86:0.020512929 87:0.020162702 88:0.016071972 89:0.024124488 90:0.044954836 91:-0.025936473 92:0.082801908 93:-0.030138915 94:-0.056557842 95:-0.015048115 96:-0.060681567 97:0.011270724 98:0.034911312 99:-0.073688895 100:0.050889231 101:0.0025598614 102:0.063590109 103:0.042792059 104:0.038312029 105:0.049192082 106:-0.048914291 107:0.01338975 108:-0.026615867 109:-0.035359561 110:0.036019333 111:0.12174129 112:0.0018728885 113:-0.024053557 114:0.035580464 115:-0.078027733 116:-0.0609053 117:-0.032418534 118:-0.0413143 119:-0.061846167 120:0.0010567998 121:0.04381898 122:-0.035909694 123:0.02868969 124:0.0042929365 125:0.044825859 126:-0.0046642497 127:-0.055899203 128:0.054829646 129:0.010598407 130:-0.037253756 131:0.07183665 132:0.0086864652 133:-0.027766451 134:0.02327658 135:-0.047623567 136:0.027345281 137:0.027880564 138:-0.021025518 139:0.020697203 140:-0.041074738 141:0.0076531307 142:0.013020988 143:0.00014318836 144:-0.013834508 145:0.011546243 146:-0.056138467 147:0.016732354 148:-0.024296673 149:-0.027144495 150:-0.022980098 151:-0.013301154 152:-0.032688126 153:-0.049504835 154:-0.02804953 155:-0.023399038 156:-0.020019885 157:0.024135437 158:-0.02307676 159:-0.016626609 160:0.07606066 161:-0.091857851 162:0.006130001 163:-0.05696594 164:0.058436818 165:0.036808323 166:0.051952869 167:-0.014210516 168:-0.0024008073 169:-0.033469416 170:-0.0021010581 171:-0.062409099 172:-0.018749364 173:-0.11886499 174:-0.0097866785 175:-0.01183405 176:-0.042797513 177:-0.020318924 178:-0.022397801 179:0.0026141338 180:0.031571753 181:-0.043178082 182:-0.046872318 183:-0.088599131 184:-0.015715467 185:0.018527418 186:-0.10397095 187:-0.082141645 188:-0.10033923 189:-0.03751846 190:-0.0021065145 191:-0.048833672 192:0.01051603 193:-0.061670635 194:0.0030126211 195:-0.020152336 196:0.019667679 197:-0.021886101 198:-0.045275137 199:-0.019685246 200:-0.060247075 201:0.059575099 202:-0.018331448 203:-0.10259537 204:-0.034347661 205:0.0045345956 206:-0.031546336 207:-0.079696551 208:0.043338921 209:0.059395544 210:0.061870635 211:0.059744816 212:-0.043878041 213:-0.048701476 214:-0.070111029 215:0.026869591 216:-0.073316731 217:-0.0027622012 218:-0.032071192 219:-0.077540927 220:-0.040024973 221:0.017255589 222:-0.027508592 223:0.029954854 224:0.0082634464 225:0.003954567 226:-0.0062278998 227:0.0095186457 228:0.029370625 229:-0.050341856 230:-0.040729947 231:-0.057982422 232:-0.039636109 233:-0.014604083 234:0.060447395 235:0.0066063949 236:-0.027107494 237:0.0068088858 238:-0.025422825 239:0.02025673 240:0.028426968 241:-0.014520753 242:0.0097868694 243:-0.016254988 244:0.018254185 245:-0.019323844 246:-0.019326067 247:0.02514809 248:-0.069926873 249:-0.06481494 250:0.054854419 251:0.064923778 252:-0.081402026 253:-0.025079463 254:0.11662465 255:-0.070856929 256:-0.00059562927 257:0.061447889 258:0.034389082 259:-0.0020920893 260:0.089610115 261:-0.078133814 262:0.019623632 263:0.033172309 264:0.045996349 265:0.001982976 266:0.0067511038 267:0.063648306 268:0.0018058114 269:0.010642297 270:-0.017578425 271:0.010915508 272:0.0018661097 273:0.010837039 274:0.072153047 275:-0.021488531 276:0.031525984 277:0.039066076 278:-0.04051112 279:-0.067076422 280:0.00064037688 281:-0.028695121 282:0.036156744 283:-0.060942408 284:0.010969236 285:0.0071481708 286:0.023563551 287:0.0089631788 288:0.0080779204 289:-0.02262993 290:0.032934301 291:0.028708627 292:-0.0046911957 293:-0.041909203 294:-0.04196462 295:0.11648816 296:-0.002209967 297:-0.079374485 298:-0.066264138 299:0.025715217 300:0.046635866 301:0.04369434 302:0.053108569 303:-0.067176752 304:0.018824168 305:-0.06975425 306:0.064794943 307:-0.042869423 308:0.0068396064 309:-0.012838702 310:-0.025912371 311:-0.090732761 312:0.022107199 313:0.025387378 314:-0.014256776 315:0.0024619538 316:-0.058698203 317:0.024803231 318:-0.051889986 319:0.036617495 320:-0.098648235 321:-0.0037902803 322:-0.0056590168 323:-0.012566915 324:0.029424516 325:-0.094376177 326:0.03124468 327:-0.0029016084 328:-0.028719516 329:0.018946901 330:-0.0070451978 331:-0.029810552 332:-0.031395365 333:0.086553626 334:0.017344367 335:-0.12932314 336:-0.045199543 337:0.032843594 338:0.006655897 339:0.0087527456 340:0.076350607 341:-0.056223482 342:0.026466237 343:0.05195231 344:0.0022540295 345:-0.008660255 346:0.04556746 347:-0.00091593276 348:-0.0091524338 349:0.031611945 350:0.036882628 351:-0.094417207 352:0.073526666 353:-0.045727864 354:-0.010532326 355:0.081674233 356:-0.040496778 357:-0.04744488 358:-0.037509106 359:-0.002324532 360:-0.00054759078 361:0.029936824 362:-0.029511664 363:0.038641937 364:0.024144441 365:0.010522842 366:0.048707437 367:0.017541735 368:-0.00031139515 369:-0.061425235 370:0.04888105 371:-0.027701115 372:0.058755286 373:0.0057820212 374:-0.0081880447 375:0.013470549 376:-0.016610328 377:-0.058865167 378:-0.005109237 379:0.024776472 380:-0.0082551576 381:0.010099427 382:-0.0061193407 383:0.015865669 384:-0.017263696 385:0.026691606 386:0.10220444 387:-0.007969413 388:-0.023231529 389:-0.0035343275 390:0.039867785 391:-0.0015069605 392:-0.070390448 393:0.0035586772 394:0.050102137 395:0.0080356989 396:0.044991788 397:0.039063241 398:-0.011774408 399:-0.015623945 400:-0.04148664 401:0.053368997 402:0.056699466 403:-0.035599582 404:-0.11622299 405:0.095697291 406:-0.015870392 407:-0.053078007 408:0.0059413924 409:-0.0026816018 410:0.0051876861 411:0.064772226 412:-0.075369053 413:-0.025362467 414:-0.050127178 415:-0.049944889 416:-0.013306285 417:0.0067061237 418:0.0039843116 419:-0.045955215 420:-0.014184753 421:0.035006922 422:-0.04692639 423:-0.050539557 424:0.032941032 425:-0.055711251 426:0.003566975 427:-0.053248033 428:0.048685271 429:-0.059147004 430:-0.025245909 431:0.046983082 432:0.080935031 433:0.042540584 434:-0.094262905 435:-0.11329962 436:0.076391242 437:0.11965474 438:0.018082278 439:0.042434141 440:0.024171107 441:-0.0048968238 442:-0.044679053 443:-0.067547366 444:0.019275183 445:0.077166662 446:0.012611847 447:-0.0096292198 448:0.019620772 449:0.015677117 450:0.031989504 451:-0.037928343 452:0.058201283 453:0.0066060857 454:-0.030919595 455:0.024195589 456:0.029230122 457:0.0083586164 458:0.013087275 459:-0.036796197 460:-0.013621409 461:-0.035101347 462:0.001218215 463:-0.041672092 464:0.031813845 465:-0.040940385 466:-0.046532668 467:0.0052130627 468:-0.044883691 469:-0.013054676 470:-0.053447254 471:0.11692324 472:0.043520328 473:-0.050785176 474:0.020845549 475:0.036047217 476:0.015025407 477:0.0020432337 478:-0.032067895 479:-0.085498288 480:0.015102825 481:0.041050743 482:-0.015228365 483:0.046258695 484:0.031180505 485:-0.02737104 486:0.0078831753 487:-0.035608087 488:0.048772611 489:-0.073226504 490:-0.0065933834 491:-0.051308632 492:0.070670806 493:0.010329659 494:0.019509563 495:0.049705077 496:0.0020259337 497:-0.10948207 498:-0.04106494 499:-0.0046876203 500:-0.076457404 501:-0.0031275791 502:-0.03463044 503:-0.043843381 504:-0.0013387877 505:0.021487555 506:0.083053932 507:0.037332896 508:-0.012398459 509:0.020185813 510:0.057042405 511:-0.084229439 
0.37211560323388004 0:5.1905281e-05 1:-0.07244952 2:-0.00913978 3:0.00053880538 4:-0.034307811 5:-0.045122884 6:0.0044892151 7:-0.041454822 8:0.055816609 9:-0.055976007 10:-0.0049688271 11:0.026530316 12:-0.0027145299 13:0.036423381 14:-0.042366628 15:-0.029473903 16:0.061189231 17:0.010521737 18:0.024590772 19:0.028149253 20:0.074182041 21:-0.062734142 22:0.07747554 23:0.038461905 24:-0.023520758 25:-0.04149333 26:0.016051037 27:0.012643716 28:0.010476039 29:0.065584227 30:0.039328687 31:-0.067629896 32:-0.08221367 33:0.0033310964 34:-0.015302429 35:-0.0035116833 36:-0.05165799 37:0.0042943028 38:-0.025823748 39:0.074623384 40:-0.019824987 41:0.047729 42:-0.015429365 43:0.073355772 44:-0.021226188 45:-0.0036090079 46:0.029735366 47:0.035441753 48:-0.0535951 49:0.00081486843 50:-0.030311098 51:0.070760168 52:0.038450938 53:0.086038299 54:0.0017707087 55:-0.0052529546 56:0.027391342 57:0.010026352 58:0.04414935 59:0.017407896 60:0.0020196403 61:0.021081829 62:0.025005775 63:0.023606343 64:0.11276318 65:0.081428193 66:-0.0035749709 67:-0.012866146 68:-0.0034908827 69:-0.021787437 70:-0.051444817 71:0.019610275 72:0.062144514 73:-0.0017481798 74:-0.034664907 75:0.022589376 76:-0.0098832604 77:-0.049874172 78:-0.033883739 79:0.051933542 80:-0.013123509 81:-0.040662687 82:0.034061927 83:0.11005172 84:0.027278695 85:0.021999085 86:-0.035044607 87:0.014163666 88:-0.0015927042 89:0.0060693338 90:0.078928553 91:0.025619261 92:0.0081708236 93:0.0068058516 94:-0.026654094 95:-0.026403349 96:-0.021709172 97:0.035160977 98:0.065825656 99:-0.030853985 100:0.040782776 101:-0.048115846 102:-0.044088367 103:0.023746917 104:0.050876465 105:0.082005963 106:-0.022333162 107:0.011919694 108:-0.0090752738 109:0.0031243027 110:0.021985941 111:0.090911001 112:-0.036773741 113:-0.012802911 114:-0.023070542 115:-0.041504592 116:-0.076975271 117:-0.03589559 118:-0.023792649 119:0.0017947119 120:0.0033567648 121:0.014822461 122:0.0098358747 123:-0.013599987 124:0.0019993153 125:-0.0033885692 126:-0.054914795 127:0.018237462 128:0.011344549 129:0.01283045 130:-0.066230319 131:0.069526471 132:0.014542673 133:0.027468584 134:0.0039924486 135:0.0073467912 136:-0.085748442 137:-0.049546693 138:0.0079172533 139:-3.2803135e-05 140:-0.066344976 141:0.05413444 142:0.048770525 143:0.057393182 144:-0.0013988952 145:-0.044119108 146:-0.00018334373 147:0.044867091 148:-0.022675239 149:0.024099808 150:0.011254574 151:-0.01963756 152:0.030265618 153:0.081582546 154:-0.062902369 155:-0.00048954278 156:0.004027789 157:0.0047972812 158:-0.033733349 159:-0.078698941 160:0.11387905 161:0.033410415 162:-0.034939878 163:0.013496898 164:0.090131707 165:0.10942775 166:-0.040130623 167:-0.039704658 168:-0.014573907 169:-0.056467172 170:-0.0067465175 171:-0.075731933 172:0.0085503049 173:-0.028391208 174:-0.022797227 175:-0.014959355 176:-0.008888904 177:-0.015718184 178:0.0081107412 179:-0.050924923 180:-0.0041923979 181:-0.023950372 182:-0.0095098764 183:-0.040956024 184:-0.070185341 185:0.056111734 186:-0.032536708 187:-0.015348377 188:-0.062501848 189:-0.084308706 190:-0.011602234 191:-0.060381114 192:-0.031766195 193:-0.020683553 194:-0.029937316 195:-0.032626849 196:0.011189767 197:0.053368621 198:0.0018929918 199:0.090694211 200:-0.0069606015 201:0.065383524 202:-0.06357038 203:-0.052298862 204:0.027880102 205:0.020885317 206:-0.0039888537 207:-0.042157721 208:0.078046665 209:0.004287479 210:0.021744562 211:0.098052658 212:-0.009302808 213:0.004897044 214:-0.083623528 215:-0.031128449 216:-0.012696121 217:0.054496467 218:0.0018816387 219:0.013565272 220:-0.047133822 221:-0.11282072 222:0.032873049 223:-0.075005285 224:0.0062539135 225:0.0054487009 226:-0.021543957 227:-0.00073630369 228:-0.01949276 229:-0.092130385 230:0.050334845 231:0.0065117851 232:0.010451253 233:0.0084277093 234:0.066988066 235:-0.044808522 236:0.018425396 237:0.017471749 238:-0.075826868 239:0.0022911595 240:0.097118407 241:-0.042074472 242:0.020884808 243:0.071649939 244:-0.0550774 245:0.056511756 246:-0.038425703 247:0.11596691 248:-0.11261759 249:-0.049271807 250:0.05319728 251:0.0085981665 252:0.039251029 253:0.033544026 254:0.017943289 255:-0.0037236477 256:-0.02765071 257:-0.027828334 258:0.07507138 259:-0.010620363 260:0.0015965519 261:-0.098149374 262:0.0074135209 263:0.045425523 264:-0.029492406 265:0.084304862 266:0.013749066 267:-0.0060197469 268:-0.038818616 269:0.038411003 270:0.018343301 271:-0.04367847 272:0.0027322914 273:0.023464562 274:0.014179953 275:0.028606096 276:0.0089077139 277:0.053108137 278:-0.049440395 279:-0.079963587 280:0.022755483 281:-0.080149084 282:0.032341976 283:0.024315866 284:-0.023624068 285:-0.032828648 286:-0.037443921 287:-0.027325418 288:0.046490919 289:0.036837023 290:0.057435989 291:-0.024099899 292:-0.029376779 293:-0.044826031 294:-0.01416173 295:0.025977742 296:-0.031996548 297:-0.022247378 298:-0.019952007 299:0.0049161678 300:0.0628362 301:0.057501595 302:0.039892558 303:-0.0048347046 304:0.061283145 305:-0.01324036 306:0.01091638 307:0.017334873 308:0.042106889 309:-0.039543118 310:-0.0011245506 311:-0.03665299 312:0.028078564 313:0.0094917174 314:0.00088879192 315:-0.012215119 316:-0.059185535 317:0.037283741 318:0.030043252 319:0.072973229 320:-0.099406525 321:-0.0060257013 322:0.097231299 323:0.053640641 324:-0.047791589 325:0.0051342575 326:0.059898634 327:-0.0077026058 328:0.028870195 329:0.055181369 330:-0.0044235429 331:-0.063358784 332:-0.061524365 333:0.031811263 334:0.047634233 335:-0.082774952 336:0.022496043 337:0.0096308561 338:0.043552343 339:0.028931541 340:0.03430276 341:-0.047048852 342:-0.021602485 343:-0.032657772 344:-0.029598312 345:-0.024427496 346:-0.0075738328 347:-0.00066956051 348:0.027377738 349:0.027832007 350:0.081263103 351:-0.034335684 352:0.092042454 353:-0.072496884 354:-0.026815867 355:0.027585624 356:-0.038501013 357:0.0080080284 358:-0.041247088 359:0.052615352 360:-0.023994368 361:0.019993115 362:-0.032345377 363:0.026617261 364:0.092431784 365:0.026024414 366:0.041877013 367:-0.024800915 368:0.00065547298 369:-0.024814609 370:-0.057920534 371:0.012977503 372:0.062377516 373:0.07674288 374:0.04618882 375:0.020389497 376:0.0033262623 377:-0.061449748 378:0.021752732 379:0.058485616 380:0.063913323 381:-0.0048231916 382:-0.046903256 383:0.010429804 384:-0.069123529 385:0.108311 386:0.069026023 387:0.016202345 388:0.032006983 389:0.020329677 390:0.00042455192 391:0.023354907 392:-0.037260916 393:0.054066136 394:0.036518808 395:0.036744144 396:-0.017701903 397:0.0087310951 398:0.015758775 399:-0.1230877 400:0.050829839 401:0.0088863987 402:0.066409484 403:-0.034908433 404:-0.011300839 405:-0.0041583576 406:-0.0057176012 407:0.014635443 408:-0.050142888 409:-0.022626581 410:0.00028660186 411:0.023234541 412:-0.011039436 413:0.041422769 414:-0.049180418 415:-0.054441795 416:0.0027338977 417:-0.03157394 418:0.00096605811 419:0.018716192 420:-0.037091721 421:0.075761497 422:-0.029138742 423:0.023791604 424:0.024611073 425:-0.0067161545 426:-0.028457841 427:0.017489262 428:0.047101155 429:0.0063659982 430:0.0028194597 431:0.025729237 432:0.078939214 433:0.09202794 434:-0.084677607 435:-0.024176402 436:0.043137468 437:0.0933531 438:0.011011485 439:0.027597686 440:-0.015125996 441:-0.035188444 442:0.026941577 443:0.016220395 444:0.072338149 445:0.081559211 446:-0.018187065 447:-0.045407131 448:0.0040573641 449:0.046292678 450:-0.035748634 451:0.04757854 452:0.020446213 453:-0.017199822 454:-0.023824697 455:0.012502451 456:-0.023278734 457:0.027553059 458:0.05617841 459:-0.0057554222 460:0.038954109 461:-0.051676299 462:-0.028014582 463:-0.040306136 464:-0.0068681324 465:-0.066732205 466:-0.054993708 467:0.0055534379 468:-0.020342426 469:0.056465715 470:0.012774463 471:0.069461294 472:0.041179437 473:-0.02935948 474:-0.010678705 475:-0.0066805524 476:0.023689613 477:-0.039887778 478:-0.022909343 479:-0.02542758 480:0.037475623 481:-0.0061200005 482:0.017765014 483:0.047378387 484:-0.010080438 485:0.077595048 486:-0.038719084 487:0.054451771 488:0.037395809 489:-0.046568245 490:0.015659977 491:-0.060480893 492:0.0021168427 493:0.10843616 494:0.045315556 495:0.056234695 496:-0.0093250424 497:0.015719095 498:0.029682774 499:0.032404281 500:-0.080153443 501:-0.010379975 502:-0.040624484 503:0.085518755 504:-0.020872829 505:0.020529915 506:0.081053711 507:0.049623735 508:-0.027532391 509:0.035270065 510:0.069003724 511:-0.069251478 
